{
  "datetime": "Wed Jun 30 15:22:56 2021",
  "game_number": 4786,
  "parent_weight": [
    -0.693529486656189,
    0.09669916331768036,
    0.5495263338088989,
    -0.32826241850852966,
    -0.44574445486068726,
    0.036875274032354355,
    -0.3406827449798584,
    -0.11353404819965363,
    -0.0047994339838624,
    0.19868619740009308,
    0.12255913019180298,
    -1.3392280340194702,
    -0.6537622213363647,
    0.24557024240493774,
    -0.8190198540687561,
    0.1388670951128006,
    0.020459143444895744,
    0.4289909899234772,
    0.4589240849018097,
    0.6995581388473511,
    -0.5896955132484436,
    -1.530229926109314,
    0.1192445233464241,
    -0.16691440343856812,
    0.012929130345582962,
    -1.7201449871063232,
    -0.8025524616241455,
    -1.907892107963562,
    0.35924965143203735,
    0.301731139421463,
    0.4206330180168152,
    0.2555307149887085,
    0.8030533790588379,
    0.20180359482765198,
    0.7441256642341614,
    -0.6380389332771301,
    1.0732362270355225,
    -1.640702486038208,
    0.0007511565927416086,
    -0.12314657121896744,
    -0.4272654950618744,
    -0.05913069471716881,
    1.0435041189193726,
    0.9214198589324951,
    1.190293788909912,
    -0.3507319986820221,
    -0.31457966566085815,
    0.39747679233551025,
    -0.17992672324180603,
    -1.1520731449127197,
    0.6484735012054443,
    0.1658531278371811,
    0.7957136034965515,
    -0.9366849064826965,
    -0.14787477254867554,
    0.9532703161239624,
    -0.03137417510151863,
    1.07399320602417,
    -0.696088433265686,
    0.22179217636585236,
    -1.3241139650344849,
    0.3150968849658966,
    -0.3581698536872864,
    -0.14874333143234253,
    0.5954090356826782,
    0.9328889846801758,
    -0.17273512482643127,
    -0.4277152717113495,
    0.13860219717025757,
    1.3794398307800293,
    0.06579077243804932,
    -1.458621621131897,
    0.917603611946106,
    0.2053101807832718,
    0.0004899049527011812,
    -0.09892509877681732,
    0.21491971611976624,
    -0.13081863522529602,
    -0.696365475654602,
    -0.9336268901824951,
    -0.08170509338378906,
    0.3830980062484741,
    0.33525851368904114,
    0.4518339931964874,
    0.9884516596794128,
    -0.5005096197128296,
    -0.21752092242240906,
    -0.07700470089912415,
    0.41682443022727966,
    -0.43170541524887085,
    0.06675200164318085,
    -1.3512866497039795,
    0.026170317083597183,
    0.7346531748771667,
    0.05691996216773987,
    -1.1906172037124634,
    0.15788637101650238,
    -0.2952704429626465,
    0.03276009485125542,
    -0.18192343413829803,
    -0.13335466384887695,
    -1.4162064790725708,
    1.0116761922836304,
    0.8450124263763428,
    0.24740956723690033,
    -2.4237661361694336,
    -0.4231070578098297,
    0.32935836911201477,
    1.0492357015609741,
    0.04046321287751198,
    -0.13355083763599396,
    -0.06937678158283234,
    -0.0006528537487611175,
    1.417373776435852,
    -1.1123889684677124,
    0.42899778485298157,
    0.015692979097366333,
    -2.676779270172119,
    0.20661009848117828,
    0.4728414714336395,
    0.576265811920166,
    0.37466979026794434,
    -0.8835246562957764,
    -0.1347256600856781,
    -1.0916470289230347,
    0.7095067501068115,
    1.0310227870941162,
    0.3756822645664215,
    0.2099858969449997,
    0.9434230327606201,
    0.5876732468605042,
    -0.5993145704269409,
    0.10988958925008774,
    0.16802911460399628,
    -0.06080365926027298,
    0.25834670662879944,
    0.5355850458145142,
    -0.06626157462596893,
    0.7875269651412964,
    0.8609204292297363,
    0.39186549186706543,
    0.20430225133895874,
    -0.12715791165828705,
    -0.6103746891021729,
    0.7170174717903137,
    0.6050448417663574,
    0.03912874311208725,
    0.7129164338111877,
    0.38059815764427185,
    -3.040938377380371,
    -0.13328438997268677,
    -0.2649601101875305,
    -0.014121356420218945,
    -0.6394670605659485,
    0.1654781997203827,
    -0.04804034158587456,
    0.14740827679634094,
    -0.2730468213558197,
    0.2878163754940033,
    -0.9242752194404602,
    0.5801947712898254,
    -0.4262486696243286,
    0.09692779183387756,
    -0.2714970111846924,
    0.23774123191833496,
    0.11896687000989914,
    1.048988938331604,
    0.7978171706199646,
    -0.3409276008605957,
    1.5488642454147339,
    -3.1729049682617188,
    -0.0747310146689415,
    -0.5021886229515076,
    0.4109596312046051,
    0.6938266158103943,
    0.8414720296859741,
    0.1470782607793808,
    0.45407581329345703,
    -1.3089675903320312,
    0.21368123590946198,
    -0.21756421029567719,
    1.0470253229141235,
    0.8712978959083557,
    -0.3004176914691925,
    0.3698274791240692,
    0.6118639707565308,
    -2.0025765895843506,
    0.6586536765098572,
    0.5928978323936462,
    0.06527324765920639,
    0.3552609384059906,
    0.013387025333940983,
    0.7904757857322693,
    -0.383472740650177,
    0.11476448178291321,
    -0.4345927834510803,
    0.13392017781734467,
    0.7516869902610779,
    -0.3652554452419281,
    0.028849124908447266,
    0.9377701878547668,
    -0.44269317388534546,
    0.18923480808734894,
    0.8090360164642334,
    -0.5533192753791809,
    0.008072888478636742,
    0.4508745074272156,
    -0.9577847123146057,
    0.46026575565338135,
    -0.2374948114156723,
    -0.8026705384254456,
    0.058236513286828995,
    -0.10385116189718246,
    -0.9762614965438843,
    -0.5868505239486694,
    -0.47236987948417664,
    0.651395857334137,
    0.45516258478164673,
    -0.5334612131118774,
    0.6909298300743103,
    0.07044312357902527,
    -0.8131542205810547,
    1.068476676940918,
    -0.8755814433097839,
    -0.9099621772766113,
    -0.3490039110183716,
    -0.11144699901342392,
    0.6772099137306213,
    -0.39133742451667786,
    0.08549433201551437,
    1.8894355297088623,
    1.011104941368103,
    -0.15308743715286255,
    0.25756239891052246,
    -0.40786653757095337,
    -1.3921297788619995,
    -0.33007562160491943,
    -0.24687033891677856,
    0.2520556151866913,
    0.5837157964706421,
    0.763753354549408,
    0.91588294506073,
    -0.3929010331630707,
    -2.1250553131103516,
    -0.6834187507629395,
    -0.21282565593719482,
    0.19638070464134216,
    -1.1714123487472534,
    0.1622105836868286,
    0.007244713604450226,
    -1.0852007865905762,
    -0.2333763837814331,
    1.0251373052597046,
    0.7930537462234497,
    0.680037796497345,
    -0.9714347124099731,
    0.6476190686225891,
    0.3328893184661865,
    -0.2100001722574234,
    -0.004856637213379145,
    1.0486153364181519,
    0.5078726410865784,
    0.20031432807445526,
    0.021812118589878082,
    0.14446546137332916,
    -0.8508951663970947,
    0.7941770553588867,
    -0.2646917402744293,
    0.26168686151504517,
    -0.0010603915434330702,
    0.43516266345977783,
    -0.7554205060005188,
    0.02860417030751705,
    0.5005480051040649,
    -1.911604881286621,
    -0.3026423156261444,
    0.002038156148046255,
    0.23033396899700165,
    -2.1636738777160645,
    -1.1398550271987915,
    -0.3228250741958618,
    0.5413329601287842,
    0.6039827466011047,
    0.5665614008903503,
    0.2265811711549759,
    -2.608670473098755,
    -1.258617877960205,
    0.07906284928321838,
    -0.24119967222213745,
    -0.483042448759079,
    -0.7821714878082275,
    0.6464404463768005,
    -0.3092726469039917,
    1.0232887268066406,
    -0.8114582300186157,
    0.0839180201292038,
    -0.040167342871427536,
    -0.35614344477653503,
    -2.3255233764648438,
    -0.8078896999359131,
    -1.5397977828979492,
    0.26364126801490784,
    1.1960618495941162,
    -0.22645318508148193,
    0.3203601837158203,
    0.39651671051979065,
    -0.03926878795027733,
    -1.0635581016540527,
    -1.8367429971694946,
    -0.0002762646181508899,
    -0.1671644002199173,
    -2.234369993209839,
    0.6573888063430786,
    -0.29513025283813477,
    0.9546698927879333,
    0.043840255588293076,
    0.4134286642074585,
    0.763434648513794,
    -0.359925240278244,
    0.6588904857635498,
    -0.49512261152267456,
    0.7545192837715149,
    0.024867946282029152,
    0.36092355847358704,
    -0.1858319193124771,
    0.30540773272514343,
    0.9238098859786987,
    -0.224874809384346,
    0.380962997674942,
    0.9028265476226807,
    -0.389554888010025,
    0.6445683836936951,
    0.19317710399627686,
    -0.36466270685195923,
    -0.26122117042541504,
    -0.9863775372505188,
    -0.6264356374740601,
    -0.5832253098487854,
    -0.05941788852214813,
    -0.5183055400848389,
    0.4695325791835785,
    0.5677509903907776,
    -1.6933938264846802,
    -0.8443963527679443,
    -0.7938433289527893,
    0.9295361042022705,
    -0.948642909526825,
    0.263558030128479,
    0.561898410320282,
    -1.1224737167358398,
    -0.8431271910667419,
    -0.5430604815483093,
    0.1310150921344757,
    -0.49024078249931335,
    -0.4489074945449829,
    -0.8397699594497681,
    -0.41323521733283997,
    -0.8226414918899536,
    -2.780937433242798,
    1.5588619709014893,
    -0.7781219482421875,
    1.3124250173568726,
    -0.13603836297988892,
    -1.0490875244140625,
    -0.48324161767959595,
    -0.07735642790794373,
    -0.24239568412303925,
    0.3033427596092224,
    -0.28001683950424194,
    1.0017038583755493,
    -0.17510218918323517,
    0.7286591529846191,
    -0.5649197697639465,
    0.5829187035560608,
    -0.44977322220802307,
    -0.7811954021453857,
    0.2075141966342926,
    -1.4133548736572266,
    -0.2875935733318329,
    -0.40605831146240234,
    -0.574303150177002,
    0.8116855621337891,
    0.4009978175163269,
    0.3813197612762451,
    -0.22843270003795624,
    0.4391429126262665,
    -0.09666851162910461,
    -0.4471418261528015,
    0.05744241178035736,
    0.2531777620315552,
    0.0027961302548646927,
    0.7997657060623169,
    0.6589030623435974,
    0.06252934783697128,
    0.28278645873069763,
    0.5654481649398804,
    -0.3537176847457886,
    0.13075320422649384,
    -0.13663382828235626,
    0.5152066946029663,
    -2.711595058441162,
    0.45009639859199524,
    -1.7449941635131836,
    -0.5941164493560791,
    -0.054332513362169266,
    0.7132225632667542,
    0.7249634265899658,
    -0.04362775757908821,
    -0.5118547081947327,
    -0.519619882106781,
    -1.5540608167648315,
    -0.6094757318496704,
    -0.832066535949707,
    0.7916659116744995,
    -1.634494662284851,
    1.0353612899780273,
    -0.02767052687704563,
    1.246246099472046,
    -2.885932683944702,
    -0.6622107625007629,
    0.6959595084190369,
    -2.9614245891571045,
    1.4981893301010132,
    0.511833131313324,
    -0.5577887296676636,
    0.88714200258255,
    0.6098737120628357,
    -0.04147599637508392,
    0.1958487331867218,
    -0.27797558903694153,
    0.05066439136862755,
    -0.0005524040898308158,
    -0.3313460350036621,
    1.4562703371047974,
    0.6709069013595581,
    0.6521341800689697,
    -0.22628863155841827,
    0.18206514418125153,
    -2.2139711380004883,
    -2.937995433807373,
    -0.00946381501853466,
    -0.5126869678497314,
    -0.04255709424614906,
    0.09503264725208282,
    -1.5175639390945435,
    -0.023727258667349815,
    0.6390659809112549,
    -0.3807714581489563,
    -0.10020484030246735,
    0.9516527056694031,
    0.04900535196065903,
    0.20053815841674805,
    -0.6596662402153015,
    -1.830898404121399,
    1.1321220397949219,
    -0.16748465597629547,
    0.4664435386657715,
    0.8641416430473328,
    0.16909295320510864,
    -1.5271978378295898,
    -0.10839954018592834,
    -0.8872607350349426,
    0.1435895711183548,
    0.09754285961389542,
    -0.5553396344184875,
    -0.14226074516773224,
    -0.5312702059745789,
    -0.20383571088314056,
    0.8478650450706482,
    0.3022266626358032,
    0.21179653704166412,
    -0.7551717162132263,
    -0.6003929376602173,
    -0.16701209545135498,
    -1.1797990798950195,
    -0.9759595394134521,
    0.0868343785405159,
    0.8941423892974854,
    -2.195632219314575,
    -0.006473402492702007,
    -0.3035387396812439,
    0.09456837922334671,
    -0.7989616394042969,
    -0.17537839710712433,
    -0.16229242086410522,
    -0.7115927338600159,
    0.8524330854415894,
    1.5567859411239624,
    -0.36152130365371704,
    1.248319387435913,
    0.8077518343925476,
    0.3026370108127594,
    0.9406507015228271,
    0.09163934737443924,
    -2.439314126968384,
    0.288382887840271,
    -0.1370801031589508,
    -1.8451555967330933,
    0.47350284457206726,
    0.36911365389823914,
    0.29537925124168396,
    1.236559271812439,
    -0.38477790355682373,
    -1.1091011762619019,
    0.7348009347915649,
    -0.08111147582530975,
    -0.9210965633392334,
    -0.3052535355091095,
    -0.49254584312438965,
    0.7009717226028442,
    -2.6756649017333984,
    0.5458468198776245,
    0.1833292692899704,
    -0.24843250215053558,
    1.6116567850112915,
    1.0888859033584595,
    -0.8697823286056519,
    -0.23434334993362427,
    0.802225649356842,
    -0.04428619146347046,
    0.32344818115234375,
    0.08587345480918884,
    -1.1245659589767456,
    -0.9542638063430786,
    0.5000073313713074,
    0.657950222492218,
    0.05060883238911629,
    -0.5028166770935059,
    -0.2815788686275482,
    -1.1662293672561646,
    -0.7072135210037231,
    1.2167352437973022,
    0.045278504490852356,
    0.21457913517951965,
    0.8161745667457581,
    1.186084508895874,
    1.148079514503479,
    -0.10565213859081268,
    -0.5791099071502686,
    -0.13566403090953827,
    1.0102183818817139,
    -1.0715503692626953,
    -0.6247596144676208,
    0.3069117069244385,
    1.4636311531066895,
    -0.40825843811035156,
    -0.6281991600990295,
    0.41827192902565,
    1.3582221269607544,
    0.5191918611526489,
    -0.3059914708137512,
    0.5202995538711548,
    1.0810998678207397,
    0.1555352360010147,
    -0.5347394347190857,
    -1.063915729522705,
    -0.3097292184829712,
    0.7297804951667786,
    -0.5707791447639465,
    1.192093014717102,
    0.6931143999099731,
    -0.47685861587524414,
    -0.3399452567100525,
    -1.0810977220535278,
    -0.9836543798446655,
    0.023410646244883537,
    -0.3594866991043091,
    -0.9248405694961548,
    -0.21807679533958435,
    1.2496678829193115,
    0.07463511824607849,
    -1.2254303693771362,
    -0.0961928591132164,
    0.06485912948846817,
    -0.18206393718719482,
    0.3555012345314026,
    -0.04073121026158333,
    -0.5937393307685852,
    0.6740056872367859,
    0.36660894751548767,
    -0.06599026918411255,
    -0.3183717131614685,
    0.2599741220474243,
    0.20616672933101654,
    0.4256899058818817,
    0.22684219479560852,
    0.10536576062440872,
    -0.6192650198936462,
    0.11310766637325287,
    0.36159825325012207,
    -0.06085663288831711,
    -0.09985233098268509,
    0.09151287376880646,
    -0.0017257112776860595,
    0.1337997019290924,
    0.504849374294281,
    0.02801508456468582,
    -0.4376959204673767,
    0.20541080832481384,
    0.22116470336914062,
    -0.16750051081180573,
    -0.33486253023147583,
    0.19949468970298767,
    -0.0885615423321724,
    0.23364734649658203,
    -0.19998612999916077,
    -0.3909901976585388,
    0.15247419476509094,
    0.6328882575035095,
    -0.14631302654743195,
    -0.48373955488204956,
    0.08424589782953262,
    0.47746580839157104,
    -0.14851222932338715,
    0.12423668056726456,
    0.14198969304561615,
    0.714902400970459,
    0.18605656921863556,
    -0.08596676588058472,
    0.08569391071796417,
    0.01856212317943573,
    0.582754373550415,
    0.3627776503562927,
    0.30665305256843567,
    -0.19223415851593018,
    -0.1859881579875946,
    0.1347130686044693,
    -0.06961970031261444,
    -0.2662133276462555,
    0.004954306874424219,
    0.429583877325058,
    -0.04877941310405731,
    -0.034785445779561996,
    0.4638599455356598,
    -0.004735440015792847,
    0.11867286264896393,
    0.11184538155794144,
    0.38288071751594543,
    -0.05188441649079323,
    0.01888239197432995,
    -1.747112512588501,
    -0.36362171173095703,
    0.9391047358512878,
    -0.4644968807697296,
    0.3632861375808716,
    -1.0514633655548096,
    0.34740719199180603,
    0.28864842653274536,
    -0.6420086622238159,
    0.09929441660642624,
    1.2441118955612183,
    -0.4608314633369446,
    0.9915856122970581,
    1.1930391788482666,
    0.9595565795898438,
    0.8280084729194641,
    1.503857135772705,
    1.0590102672576904,
    0.07045409828424454,
    1.1351150274276733,
    -0.8205687999725342,
    -1.445238709449768,
    0.5475128293037415,
    -0.4991896450519562,
    -1.3620264530181885,
    -0.20896607637405396,
    0.7241754531860352,
    0.1399010270833969,
    -0.06189052388072014,
    0.5649614334106445,
    -1.1952099800109863,
    0.32611581683158875,
    0.05794766545295715,
    0.2514258027076721,
    -0.8587140440940857,
    -1.1964393854141235,
    0.09478944540023804,
    0.08221286535263062,
    -0.9099891781806946,
    -0.756685733795166,
    -0.9251627326011658,
    -0.21138277649879456,
    -1.4510104656219482,
    0.41763541102409363,
    0.0733390599489212,
    0.24886208772659302,
    1.3842027187347412,
    0.3135768473148346,
    -1.8006483316421509,
    -1.0766700506210327,
    -0.0534248985350132,
    0.16573020815849304,
    0.06305409222841263,
    -0.3474563658237457,
    1.5908172130584717,
    0.09857714921236038,
    -0.40858370065689087,
    1.1819334030151367,
    -1.134365200996399,
    0.9151022434234619,
    0.8150315880775452,
    -0.3549242913722992,
    -1.1642578840255737,
    0.3191682696342468,
    0.24680180847644806,
    0.8602172136306763,
    0.26018911600112915,
    0.5912167429924011,
    0.36034685373306274,
    0.1615552306175232,
    -0.13727688789367676,
    -0.0808509960770607,
    -0.2665117383003235,
    -0.049009352922439575,
    0.1261938512325287,
    0.03950095921754837,
    0.4788099229335785,
    -0.1305859237909317,
    0.6543164849281311,
    0.20446071028709412,
    0.28237587213516235,
    0.48145443201065063,
    0.09299778938293457,
    0.41068172454833984,
    0.3816889226436615,
    -0.07197336852550507,
    -0.10882413387298584,
    0.31283318996429443,
    -0.3932950496673584,
    0.018577326089143753,
    0.9522780179977417,
    -0.1400257647037506,
    0.5703447461128235,
    -0.3570166528224945,
    -0.2127523571252823,
    -0.06415950506925583,
    -0.14179855585098267,
    0.27180948853492737,
    -0.27258050441741943,
    0.09728050231933594,
    -0.5153242945671082,
    -0.2994006872177124,
    -0.4940573573112488,
    -0.3275641202926636,
    -0.16689707338809967,
    0.12664306163787842,
    -0.3036048710346222,
    0.1538211703300476,
    0.2709135115146637,
    0.3285151422023773,
    0.7365475296974182,
    -0.017477214336395264,
    0.2184944748878479,
    0.11938405781984329,
    -0.17841461300849915,
    0.5957668423652649,
    -0.08360644429922104,
    0.42242318391799927,
    0.15250954031944275,
    -0.18591925501823425,
    0.4144797921180725,
    0.367472380399704,
    0.3016538619995117,
    0.33457303047180176,
    0.5606918931007385,
    -0.2940894663333893,
    -0.20144595205783844,
    0.5178991556167603,
    1.1378949880599976,
    0.6048972606658936,
    0.23623405396938324,
    0.835649847984314,
    1.750705599784851,
    0.716981828212738,
    0.09330511093139648,
    -0.6883438229560852,
    -0.09159376472234726,
    0.4593963027000427,
    0.82049161195755,
    -1.0255366563796997,
    1.131640911102295,
    -1.2724812030792236,
    -0.20506685972213745,
    0.22538985311985016,
    -0.14567527174949646,
    0.17638631165027618,
    0.028376033529639244,
    -0.2900030016899109,
    0.6575233936309814,
    -0.6444159150123596,
    -0.3225192725658417,
    0.4451250731945038,
    0.23707427084445953,
    -1.3464466333389282,
    1.1587491035461426,
    -0.9396916031837463,
    0.9620630145072937,
    0.2977283298969269,
    -0.01813391037285328,
    -0.5878746509552002,
    -0.8906654715538025,
    -0.03787468746304512,
    0.14263738691806793,
    1.1191209554672241,
    -0.8806993365287781,
    -0.8626781105995178,
    -0.6648433804512024,
    -0.5939109921455383,
    0.46558821201324463,
    -0.15159066021442413,
    0.021779384464025497,
    0.0914991945028305,
    0.19550323486328125,
    1.1808797121047974,
    1.7144324779510498,
    -0.9120612740516663,
    0.6191356182098389,
    -0.09873645752668381,
    0.32079237699508667,
    0.23789384961128235,
    -0.289393812417984,
    0.30920764803886414,
    -0.7237703204154968,
    0.2528040111064911,
    0.9293814301490784,
    -0.9930610656738281,
    -1.0360606908798218,
    0.003304797224700451,
    -0.2720274031162262,
    0.22000940144062042,
    -0.029620599001646042,
    0.9262295961380005,
    0.912033200263977,
    0.22079263627529144,
    -0.05578068271279335,
    0.30159321427345276,
    0.48608505725860596,
    0.4294094741344452,
    0.16626325249671936,
    0.37943199276924133,
    -0.5216723084449768,
    -0.2599039673805237,
    0.43625202775001526,
    0.06734441965818405,
    0.10273302346467972,
    0.33005937933921814,
    0.2235681563615799,
    0.8430121541023254,
    0.21518053114414215,
    -0.17796635627746582,
    -0.23504962027072906,
    -0.19137683510780334,
    0.15822833776474,
    -0.030440252274274826,
    0.18637385964393616,
    0.2723046541213989,
    0.3374515473842621,
    0.18662898242473602,
    0.22108101844787598,
    0.34841471910476685,
    0.20818723738193512,
    0.008461175486445427,
    -0.6998583674430847,
    0.33032241463661194,
    0.27100110054016113,
    0.5905712842941284,
    -0.3101302683353424,
    0.6598181128501892,
    0.41909998655319214,
    0.2916158437728882,
    -0.7365848422050476,
    -0.44267570972442627,
    -0.21730691194534302,
    -0.16078363358974457,
    0.06866903603076935,
    0.12441329658031464,
    0.05250993371009827,
    0.43346697092056274,
    0.725814700126648,
    -0.4212568402290344,
    0.7794790267944336,
    0.23788321018218994,
    0.2609936594963074,
    -0.24903030693531036,
    -0.22727923095226288,
    0.012231160886585712,
    -0.7474704384803772,
    -0.1023121103644371,
    0.3051031529903412,
    0.07710232585668564,
    0.09911354631185532,
    0.32728320360183716,
    -0.10386566817760468,
    -0.44807347655296326,
    -0.14692950248718262,
    0.09167670458555222,
    0.9403138756752014,
    0.02821546420454979,
    -1.0543599128723145,
    -0.8855978846549988,
    0.6288509964942932,
    0.26855528354644775,
    -1.255044937133789,
    1.5606491565704346,
    -0.6717222332954407,
    -1.4880346059799194,
    0.8203223943710327,
    0.31963565945625305,
    -1.0476173162460327,
    1.496455430984497,
    -0.5198977589607239,
    1.2802913188934326,
    -0.13357843458652496,
    0.8015229105949402,
    -0.08062485605478287,
    -0.9417212009429932,
    -0.5908688902854919,
    -1.2181105613708496,
    -0.4708135426044464,
    -0.7406503558158875,
    0.7603437900543213,
    -0.2784726917743683,
    0.5777623653411865,
    -0.11683377623558044,
    -1.3349337577819824,
    -0.18742719292640686,
    0.3073630928993225,
    1.526482343673706,
    0.6876491904258728,
    1.6100584268569946,
    -1.3335496187210083,
    0.6232077479362488,
    1.6252527236938477,
    -0.17345330119132996,
    -0.917283833026886,
    -0.4665146470069885,
    -0.17124417424201965,
    -0.6717524528503418,
    -0.9635701179504395,
    0.9286049008369446,
    -0.2285713106393814,
    -0.35723569989204407,
    0.22030974924564362,
    -0.10106667131185532,
    1.4226853847503662,
    -0.5815894603729248,
    1.3968174457550049,
    -0.020564347505569458,
    0.33272409439086914,
    -1.2392308712005615,
    -0.27418872714042664,
    -0.2611194849014282,
    0.21121378242969513,
    0.22087103128433228,
    -0.05749988183379173,
    1.295027494430542,
    0.2767389118671417,
    -0.48673728108406067,
    0.04625600203871727,
    -1.4335793256759644,
    0.3159300684928894,
    -0.16052453219890594,
    0.0490262545645237,
    0.26298344135284424,
    0.05976792797446251,
    -0.16798590123653412,
    -0.13211406767368317,
    0.5420464873313904,
    0.33627447485923767,
    -0.2532453238964081,
    -0.05989091098308563,
    -0.17142243683338165,
    0.08053978532552719,
    0.6444827318191528,
    -0.4214831292629242,
    0.6449435949325562,
    -0.5958048105239868,
    -0.004656658973544836,
    0.11976706981658936,
    0.1014331728219986,
    -0.149158775806427,
    -0.753513753414154,
    0.3931669592857361,
    0.11877693980932236,
    0.6891513466835022,
    -0.4240247309207916,
    0.13033334910869598,
    -0.1650642305612564,
    0.05497929826378822,
    -0.04108568653464317,
    0.15567266941070557,
    0.7529317736625671,
    0.4736749529838562,
    0.431797057390213,
    0.37254828214645386,
    0.887161374092102,
    0.9094182848930359,
    -0.6325644850730896,
    -0.44932183623313904,
    -0.045240964740514755,
    0.67279452085495,
    -0.18564601242542267,
    0.04686368256807327,
    0.13597631454467773,
    -0.0441550686955452,
    0.34474173188209534,
    -0.06967058777809143,
    0.2786059081554413,
    0.6545010805130005,
    -0.2808023691177368,
    0.4632508456707001,
    0.1463809460401535,
    0.3743560314178467,
    -0.24988138675689697,
    -0.7603813409805298,
    -0.05654781311750412,
    0.0072250631637871265,
    0.4433794617652893,
    -0.0762777030467987,
    -0.013823042623698711,
    0.377147912979126,
    0.44293180108070374,
    -0.06451121717691422,
    -0.3560742735862732,
    -0.10283054411411285,
    0.17059023678302765,
    0.7263123393058777,
    0.4270961582660675,
    0.09311411529779434,
    0.3095872104167938,
    0.13458682596683502,
    -0.17133788764476776,
    -0.17241431772708893,
    0.18750765919685364,
    -0.13348770141601562,
    -0.9336726665496826,
    0.3421797752380371,
    0.09222692996263504,
    0.0835174173116684,
    0.030794033780694008,
    0.46005022525787354,
    -0.0019203424453735352,
    0.17856207489967346,
    0.5618535280227661,
    0.1127883568406105,
    0.4690910577774048,
    0.18439881503582,
    0.36107367277145386,
    0.5062183737754822,
    -0.18344718217849731,
    -0.19508254528045654,
    -0.7904761433601379,
    0.6272964477539062,
    -0.3143024444580078,
    -0.4537874460220337,
    0.6112002730369568,
    0.3745248317718506,
    0.10302598774433136,
    -0.4119361639022827,
    0.08541985601186752,
    0.8993262052536011,
    -0.09283069521188736,
    -0.2516544759273529,
    0.0207042433321476,
    0.24749822914600372,
    -0.07085112482309341,
    -0.44245821237564087,
    -0.2636975944042206,
    -0.027384189888834953,
    0.5543662905693054,
    0.1527780145406723,
    0.7041640877723694,
    0.1791493445634842,
    0.28085392713546753,
    0.005723475944250822,
    -0.19375555217266083,
    -0.10856368392705917,
    0.796784520149231,
    0.23220312595367432,
    0.023267686367034912,
    -0.12819074094295502,
    0.6390323638916016,
    -0.5263140797615051,
    -0.223054900765419,
    -0.060385383665561676,
    -0.27478110790252686,
    0.03732084482908249,
    0.4262661337852478,
    -0.08916331827640533,
    -0.03951650112867355,
    0.5534942150115967,
    0.12947329878807068,
    0.1745285540819168,
    -0.06303723156452179,
    0.4831956624984741,
    0.30920425057411194,
    -0.19170023500919342,
    0.11764562875032425,
    0.11890313774347305,
    -1.0721229314804077,
    0.161612406373024,
    0.2984873652458191,
    -0.052326612174510956,
    -0.013906880281865597,
    0.19583095610141754,
    -0.16054663062095642,
    0.21562933921813965,
    0.6071820259094238,
    -0.11717360466718674,
    0.3000014126300812,
    0.12887205183506012,
    -0.022638006135821342,
    -0.0048529827035963535,
    -0.4152483642101288,
    -0.14923174679279327,
    -0.1413077563047409,
    0.4647969901561737,
    -0.5879647135734558,
    -0.5579227805137634,
    0.7402452826499939,
    0.3047018051147461,
    0.19249093532562256,
    -0.49883443117141724,
    -0.2564655542373657,
    0.7112264037132263,
    -0.04339485242962837,
    -0.24773822724819183,
    -0.19434039294719696,
    -0.13133251667022705,
    0.009698323905467987,
    0.11228995770215988,
    -0.24388067424297333,
    -0.1651291698217392,
    0.6660234332084656,
    0.6107665300369263,
    0.5482369065284729,
    0.08969956636428833,
    -0.06842374801635742,
    0.2430194467306137,
    -0.47155776619911194,
    -0.17198756337165833,
    0.3511323630809784,
    0.15134935081005096,
    0.051076531410217285,
    -0.14552219212055206,
    0.7659041881561279,
    -0.17785286903381348,
    0.1227978989481926,
    -0.29179179668426514,
    -0.27036628127098083,
    -0.31134286522865295,
    0.29368671774864197,
    -0.20453733205795288,
    -0.28725776076316833,
    0.559015154838562,
    -0.18225103616714478,
    0.49464696645736694,
    -0.5093582272529602,
    0.17699404060840607,
    0.67769455909729,
    -0.5297340154647827,
    -0.038823023438453674,
    0.35845649242401123,
    -0.6882678866386414,
    0.4762285053730011,
    0.6603766679763794,
    0.2704504132270813,
    0.5902394652366638,
    0.57542884349823,
    0.4892963469028473,
    -0.07981918752193451,
    0.6722785830497742,
    -0.03984260931611061,
    0.12618522346019745,
    0.5323125720024109,
    -0.19914306700229645,
    -0.44219306111335754,
    -0.3927088677883148,
    0.22426056861877441,
    -0.004827192053198814,
    0.10980057716369629,
    -0.25083452463150024,
    -0.301235169172287,
    0.6718666553497314,
    0.364032506942749,
    0.3517010509967804,
    0.29006433486938477,
    0.07355278730392456,
    0.8433104753494263,
    0.21568730473518372,
    -0.6234622001647949,
    -0.1124388724565506,
    -0.08669238537549973,
    -0.3407743275165558,
    -0.1154622882604599,
    0.47032561898231506,
    -0.12483439594507217,
    0.07966502755880356,
    0.7182038426399231,
    0.6381877064704895,
    -0.2797372043132782,
    -0.39211639761924744,
    0.5254356265068054,
    -0.1260531097650528,
    -0.28715381026268005,
    -0.2121802568435669,
    0.32880130410194397,
    0.046072110533714294,
    0.012695821933448315,
    0.9682772755622864,
    -0.3074076771736145,
    0.690193235874176,
    0.15914179384708405,
    -0.5601511001586914,
    -0.20472674071788788,
    -0.18280157446861267,
    -0.12364333122968674,
    0.18755845725536346,
    0.5571866035461426,
    0.23942378163337708,
    0.6567670702934265,
    -0.3818916082382202,
    -0.06143118441104889,
    0.2618143558502197,
    -0.19192084670066833,
    0.1546252965927124,
    0.6263800859451294,
    -0.23248320817947388,
    0.536119282245636,
    0.07691480964422226,
    0.16760805249214172,
    0.205250084400177,
    0.1041770800948143,
    0.16429394483566284,
    -0.18198446929454803,
    0.6829351186752319,
    -0.3973710536956787,
    0.14077581465244293,
    0.3086358606815338,
    0.052031759172677994,
    -0.03739772364497185,
    -0.21603433787822723,
    0.42115160822868347,
    -0.02169189043343067,
    0.4918767511844635,
    -0.1975661665201187,
    -0.0984647274017334,
    0.3680178225040436,
    -0.30971693992614746,
    0.16933289170265198,
    -0.11292403936386108,
    -0.15148577094078064,
    0.36034393310546875,
    0.00195783912204206,
    -0.1547708809375763,
    -0.11838522553443909,
    -0.04625078663229942,
    0.011218812316656113,
    0.10867848992347717,
    -0.1122967079281807,
    0.16177000105381012,
    0.2867821753025055,
    0.9842019081115723,
    0.13434748351573944,
    -0.03775341436266899,
    -0.20652557909488678,
    0.42952960729599,
    0.4703616797924042,
    -0.22636263072490692,
    -0.3099101781845093,
    0.21218757331371307,
    0.07797175645828247,
    -0.3360041081905365,
    0.25882095098495483,
    -0.39433494210243225,
    0.5054174065589905,
    0.045089542865753174,
    -0.2235240340232849,
    -0.3751354515552521,
    0.464480996131897,
    0.6347863078117371,
    0.6433315873146057,
    0.1986113041639328,
    0.6712501645088196,
    0.5729416012763977,
    0.04838892072439194,
    0.14113451540470123,
    -0.28999951481819153,
    0.35483798384666443,
    0.5237717032432556,
    -0.019803766161203384,
    -0.4371936023235321,
    0.9203387498855591,
    -0.41733846068382263,
    -0.14394938945770264,
    0.06983544677495956,
    0.27257880568504333,
    -0.198833629488945,
    0.02864828333258629,
    0.22669173777103424,
    -0.01577853411436081,
    -0.2767559885978699,
    -0.2784541845321655,
    0.8007891774177551,
    0.41901853680610657,
    -0.2211998999118805,
    0.2988453209400177,
    0.1833043098449707,
    0.9234544038772583,
    0.03498370945453644,
    0.2974075376987457,
    0.045595504343509674,
    -0.541323721408844,
    0.3117315173149109,
    -0.08150599896907806,
    0.6209351420402527,
    0.14031526446342468,
    -0.051526572555303574,
    0.1804259717464447,
    -0.16349482536315918,
    -0.10767674446105957,
    0.036471251398324966,
    -0.0552600622177124,
    -0.0008399076759815216,
    -0.12084640562534332,
    0.4952334761619568,
    0.7462881207466125,
    -0.2964669167995453,
    0.40311941504478455,
    0.08755207061767578,
    0.21189890801906586,
    0.7277464866638184,
    -0.049314819276332855,
    0.055134501308202744,
    -0.06998170912265778,
    -0.32192686200141907,
    0.27511218190193176,
    0.05196651816368103,
    -0.15665532648563385,
    -0.1780495047569275,
    0.21490265429019928,
    0.06084118038415909,
    -0.22960814833641052,
    0.9331091642379761,
    0.776963472366333,
    0.5471054911613464,
    -0.008699004538357258,
    0.23906369507312775,
    0.6885305643081665,
    -0.4974474012851715,
    0.0628901943564415,
    0.32404375076293945,
    -0.2512073218822479,
    0.07051538676023483,
    0.276836097240448,
    -0.2544248104095459,
    -0.020903639495372772,
    -0.17602664232254028,
    -0.5318447351455688,
    0.34519705176353455,
    0.3260769546031952,
    0.33139556646347046,
    -0.021755483001470566,
    0.16483160853385925,
    -0.293061763048172,
    -0.40514320135116577,
    -0.46402421593666077,
    0.39850300550460815,
    0.294640451669693,
    -0.18929903209209442,
    0.13793416321277618,
    0.284940242767334,
    -0.1466778814792633,
    -0.20123808085918427,
    0.0902668759226799,
    0.29423975944519043,
    -0.05749323591589928,
    0.3074178099632263,
    -0.04372740536928177,
    0.37144574522972107,
    0.8573723435401917,
    0.2303781658411026,
    -0.39983850717544556,
    -0.20977450907230377,
    0.0908215194940567,
    -0.1505376249551773,
    -0.38305115699768066,
    0.3938342034816742,
    -0.226756751537323,
    0.08303427696228027,
    0.3954974114894867,
    -0.20488379895687103,
    0.4249163269996643,
    -0.5224646925926208,
    -0.1265946328639984,
    0.36210203170776367,
    0.10280007123947144,
    -0.17219747602939606,
    0.2490902692079544,
    -0.07321891188621521,
    -0.15280133485794067,
    0.21920187771320343,
    -0.29116764664649963,
    0.40494969487190247,
    -0.34719130396842957,
    -0.4943847060203552,
    0.0408850759267807,
    -0.08322969824075699,
    0.36826032400131226,
    -0.06680148839950562,
    -0.4176284968852997,
    -0.13866636157035828,
    0.5858569145202637,
    -0.7380134463310242,
    -0.2768310308456421,
    0.7276684641838074,
    -0.7290613651275635,
    -0.7674183249473572,
    0.29228612780570984,
    -0.37772059440612793,
    -0.29305025935173035,
    0.3517043888568878,
    -0.6002594828605652,
    0.23339903354644775,
    0.38226518034935,
    0.6936123967170715,
    -0.16147707402706146,
    -0.0764661356806755,
    -0.8115477561950684,
    -0.041600216180086136,
    -0.22829051315784454,
    -0.39881932735443115,
    0.3795219659805298,
    -0.12204180657863617,
    0.39568307995796204,
    0.23013713955879211,
    -0.27632108330726624,
    -0.26767316460609436,
    0.003492617979645729,
    1.0924938917160034,
    0.11111658066511154,
    0.843542754650116,
    -0.029410965740680695,
    0.45383962988853455,
    0.92246013879776,
    0.4611077904701233,
    -0.648787260055542,
    -0.19387727975845337,
    0.1306959092617035,
    -0.5770969390869141,
    0.3683865964412689,
    0.5346150994300842,
    0.23815438151359558,
    -0.3386136591434479,
    0.21606022119522095,
    -0.08173777163028717,
    0.5151004791259766,
    -0.5142924189567566,
    0.2629452645778656,
    0.46306484937667847,
    0.37299844622612,
    -0.0716901570558548,
    0.330900639295578,
    -0.26807981729507446,
    -0.3749171495437622,
    0.3992050290107727,
    0.3460223972797394,
    0.5971153378486633,
    -0.5608454346656799,
    -0.4070702791213989,
    -0.05702689662575722,
    -0.4225989878177643,
    0.3847948908805847,
    0.2341517210006714,
    0.3862895369529724,
    -0.17725248634815216,
    0.044235020875930786,
    0.016213467344641685,
    -0.349128395318985,
    0.7761938571929932,
    -0.5231542587280273,
    -0.31655266880989075,
    -0.23475173115730286,
    -0.3962821662425995,
    -0.5141637921333313,
    0.5638430118560791,
    -0.5542684197425842,
    0.2016807198524475,
    -0.06317944824695587,
    0.18282000720500946,
    -0.2794478237628937,
    0.08927363902330399,
    -0.2555043399333954,
    0.031154299154877663,
    -0.07048950344324112,
    -0.08561926335096359,
    0.30700984597206116,
    -0.4676801264286041,
    0.07382086664438248,
    0.10583557188510895,
    0.0708685964345932,
    -0.08171223849058151,
    0.25595104694366455,
    0.7813390493392944,
    0.7599983811378479,
    0.742065966129303,
    0.015533153899013996,
    0.2628468871116638,
    1.2456226348876953,
    0.32050156593322754,
    -0.5211641788482666,
    -0.22756966948509216,
    0.07589088380336761,
    -0.11762851476669312,
    -0.31358033418655396,
    0.05249689519405365,
    0.14507219195365906,
    -0.12568101286888123,
    0.16769544780254364,
    0.2680441439151764,
    0.7009910345077515,
    -0.24338175356388092,
    -0.2696351706981659,
    -0.13719964027404785,
    0.07736915349960327,
    0.05661161616444588,
    0.4484829604625702,
    -0.4307093024253845,
    -0.12529613077640533,
    0.6926074624061584,
    -0.5301772952079773,
    0.1136389970779419,
    -0.5213835835456848,
    -0.5889222025871277,
    0.38566139340400696,
    -0.0426870621740818,
    -1.0202510356903076,
    0.6107438206672668,
    -0.7846755385398865,
    0.8941134214401245,
    -1.7397584915161133,
    -0.4463256001472473,
    0.38317397236824036,
    -0.6121531128883362,
    1.3135392665863037,
    1.2282034158706665,
    -0.5360584259033203,
    1.2814143896102905,
    -1.608199954032898,
    -0.36878156661987305,
    -0.07920055091381073,
    -0.248759463429451,
    0.08740318566560745,
    -0.2692326605319977,
    0.7728499174118042,
    -1.41533625125885,
    0.7731385827064514,
    -3.163851737976074,
    -0.3496668040752411,
    0.6052548289299011,
    -0.7217797636985779,
    1.1002027988433838,
    -0.675086498260498,
    -0.31499984860420227,
    0.011408640071749687,
    2.2519302368164062,
    0.807624101638794,
    -0.2494751363992691,
    -1.7656145095825195,
    0.6372578144073486,
    0.4869452118873596,
    -0.5790632963180542,
    -0.4456122815608978,
    0.6443352699279785,
    1.7616249322891235,
    1.2075284719467163,
    0.6196250319480896,
    1.8362088203430176,
    -3.0826008319854736,
    -0.18031232059001923,
    -2.746033191680908,
    -0.04089996963739395,
    -1.0320069789886475,
    -0.3914453685283661,
    -1.434608817100525,
    1.4227339029312134,
    -1.0338473320007324,
    2.278204917907715,
    0.6977442502975464,
    0.7758694887161255,
    0.16007475554943085,
    1.2026807069778442,
    -0.22667929530143738,
    -1.1768176555633545,
    -0.26963210105895996,
    -0.381845623254776,
    -0.9257240891456604,
    0.5345848798751831,
    0.3773876428604126,
    -0.5499256253242493,
    0.24476012587547302,
    0.024682778865098953,
    -0.12604595720767975,
    0.05730808153748512,
    -0.19387467205524445,
    0.470004677772522,
    0.1499883383512497,
    -0.5153131484985352,
    0.7275399565696716,
    -0.5889971852302551,
    -0.14941589534282684,
    1.8588484525680542,
    -0.4436720907688141,
    -0.07038506120443344,
    0.5901588797569275,
    -0.39801928400993347,
    -1.6901161670684814,
    0.1125909611582756,
    0.5785332918167114,
    -0.5775207281112671,
    0.8720899224281311,
    1.1069167852401733,
    0.6414682865142822,
    0.4415150284767151,
    0.24615129828453064,
    0.8936395645141602,
    -2.5411784648895264,
    0.38460874557495117,
    0.3756430447101593,
    0.5805864930152893,
    2.3025588989257812,
    -0.8991686105728149,
    -0.5207335352897644,
    -1.8556151390075684,
    -2.328984260559082,
    0.1047959253191948,
    -0.4184352457523346,
    0.6420538425445557,
    1.951279640197754,
    0.6101418137550354,
    0.7706997394561768,
    0.6906105875968933,
    1.846595287322998,
    0.27961599826812744,
    0.2364407330751419,
    -0.05362243577837944,
    -0.5606693029403687,
    -0.03834890201687813,
    0.4261740446090698,
    0.9853177666664124,
    0.0030347767751663923,
    0.791632354259491,
    1.05148184299469,
    0.8757736086845398,
    -1.085190773010254,
    -2.6061272621154785,
    -1.257406234741211,
    -0.17594948410987854,
    1.1324702501296997,
    -0.012503656558692455,
    -2.0052943229675293,
    1.3253017663955688,
    0.8672736287117004,
    -0.09174901992082596,
    0.35331955552101135,
    -3.9162936210632324,
    0.32529303431510925,
    0.36019617319107056,
    -0.1096314787864685,
    -0.7265216112136841,
    0.4330361485481262,
    -1.2346833944320679,
    0.5354729294776917,
    1.2864623069763184,
    -0.8145579099655151,
    1.8219542503356934,
    -0.015129570849239826,
    -0.7774864435195923,
    -0.21216590702533722,
    -0.8035058379173279,
    -2.1791343688964844,
    -0.6807752847671509,
    0.9198642373085022,
    0.2897019684314728,
    0.2458025962114334,
    1.9237889051437378,
    -0.8059734106063843,
    0.5670639276504517,
    0.48354506492614746,
    -1.0287909507751465,
    -1.8102184534072876,
    -2.00435471534729,
    0.5403761863708496,
    0.8757084012031555,
    1.338813304901123,
    -1.3617788553237915,
    -0.06137702241539955,
    -1.2558722496032715,
    1.2133148908615112,
    0.2726537585258484,
    0.24396762251853943,
    1.6565771102905273,
    -0.4453496038913727,
    -1.7308599948883057,
    0.2697922885417938,
    0.9760620594024658,
    2.213207483291626,
    0.3886790871620178,
    0.207652747631073,
    0.5325265526771545,
    -0.7831881642341614,
    0.23178508877754211,
    0.8458936810493469,
    -2.0787599086761475,
    -0.43829187750816345,
    0.11117427796125412,
    0.9833492040634155,
    0.18447403609752655,
    -1.7221488952636719,
    1.4613698720932007,
    0.7502521872520447,
    -0.4015945792198181,
    0.47791430354118347,
    -0.9984732866287231,
    -1.8885242938995361,
    0.627305805683136,
    1.215734601020813,
    0.5225138068199158,
    0.667123019695282,
    0.2974984645843506,
    -0.053246259689331055,
    -0.001447609392926097,
    -0.3997001349925995,
    0.4472249448299408,
    0.3317074477672577,
    -0.24609887599945068,
    -1.4829961061477661,
    0.6246693730354309,
    -0.8078616857528687,
    0.947171688079834,
    0.7725649476051331,
    -0.4132656455039978,
    0.3443630635738373,
    -1.5882352590560913,
    -1.13248610496521,
    -1.3439668416976929,
    -0.42305588722229004,
    -1.035975694656372,
    0.10436886548995972,
    1.68914794921875,
    0.3513045012950897,
    0.4320431053638458,
    0.22933880984783173,
    1.0876069068908691,
    -0.01502518355846405,
    0.47358593344688416,
    -0.11533112823963165,
    0.5302352905273438,
    1.2731411457061768,
    -0.4454832077026367,
    -0.19333608448505402,
    -2.210509777069092,
    1.7068805694580078,
    0.6494541168212891,
    -0.5580588579177856,
    0.9039553999900818,
    1.423014760017395,
    0.29125598073005676,
    -0.48169976472854614,
    -0.8162928223609924,
    1.7153090238571167,
    -2.0409650802612305,
    -0.20913106203079224,
    -0.09982868283987045,
    0.30647024512290955,
    -0.08248208463191986,
    0.4323377013206482,
    0.14774304628372192,
    -0.7773726582527161,
    -1.0049914121627808,
    1.286993384361267,
    0.8015148639678955,
    -1.7167795896530151,
    -1.1673619747161865,
    0.0651554986834526,
    -0.2606275677680969,
    1.3787039518356323,
    -0.7553403973579407,
    0.17511393129825592,
    -0.04013225436210632,
    -0.14060404896736145,
    0.5827664136886597,
    -0.23850545287132263,
    0.7234246134757996,
    -0.0702851265668869,
    0.09452459961175919,
    -1.2761998176574707,
    -0.2631421685218811,
    0.9077988266944885,
    -0.9683675169944763,
    0.37086042761802673,
    1.349318265914917,
    -0.9316104054450989,
    1.538108468055725,
    -0.09596608579158783,
    -0.5000899434089661,
    0.5711328983306885,
    -0.9881903529167175,
    -0.9825137257575989,
    -0.3827543556690216,
    0.9535343647003174,
    -0.9086422324180603,
    0.5936483144760132,
    2.093043565750122,
    0.6148681640625,
    0.6379669308662415,
    -0.05789347365498543,
    1.0928865671157837,
    -1.671291708946228,
    0.28312522172927856,
    0.3805670738220215,
    1.1311737298965454,
    1.2735403776168823,
    -0.8866500854492188,
    -0.6972622275352478,
    -0.6486898064613342,
    1.1157517433166504,
    -0.3457983434200287,
    -0.4301673471927643,
    0.9986898303031921,
    2.43249773979187,
    1.0076903104782104,
    -0.03736468404531479,
    1.5825223922729492,
    1.8775111436843872,
    -0.10461650788784027,
    0.050406817346811295,
    0.27036237716674805,
    -0.7749994993209839,
    -0.09045127779245377,
    -0.14547036588191986,
    1.7131890058517456,
    -1.6242587566375732,
    1.1134428977966309,
    0.44361257553100586,
    1.235137701034546,
    -1.0916324853897095,
    0.8593419194221497,
    -0.4322415888309479,
    -1.202750325202942,
    1.4834113121032715,
    -0.743087112903595,
    -0.6035093665122986,
    0.07494077831506729,
    1.0070562362670898,
    -0.04868561401963234,
    0.03630832955241203,
    0.44945022463798523,
    -0.52164626121521,
    0.5609492659568787,
    -0.3161460757255554,
    0.3230249881744385,
    0.8626003265380859,
    -0.6647090315818787,
    0.7630975246429443,
    1.315370798110962,
    -0.5052853226661682,
    1.4997609853744507,
    -0.560196042060852,
    -0.4138067662715912,
    0.3472540080547333,
    -0.8961228728294373,
    -0.9885373115539551,
    -0.697570264339447,
    0.7303789258003235,
    -0.3016029894351959,
    0.3743152916431427,
    1.9450441598892212,
    0.4146179258823395,
    0.5709666609764099,
    0.6245486736297607,
    1.2629786729812622,
    -1.518209457397461,
    0.6570343971252441,
    0.21493278443813324,
    1.2915277481079102,
    2.0705106258392334,
    -0.41167575120925903,
    -1.0433521270751953,
    -0.7708574533462524,
    2.2747952938079834,
    -0.10908512026071548,
    -0.39941906929016113,
    0.6820570230484009,
    2.285562038421631,
    1.1574074029922485,
    0.5113857984542847,
    2.051922559738159,
    1.871861457824707,
    -0.2095726877450943,
    0.14702314138412476,
    -0.25869494676589966,
    -0.7996003031730652,
    0.18702630698680878,
    0.30639955401420593,
    1.7874430418014526,
    -0.3499118387699127,
    1.1729111671447754,
    0.562584638595581,
    1.6313598155975342,
    -0.9985995292663574,
    1.218647837638855,
    0.027551760897040367,
    -0.28004321455955505,
    1.3323630094528198,
    -0.6736106276512146,
    -0.9328022003173828,
    0.9988175630569458,
    0.9761180281639099,
    0.01815260574221611,
    0.010040830820798874,
    0.4373568296432495,
    0.05335497856140137,
    0.24042870104312897,
    -0.8834951519966125,
    -0.0026526085566729307,
    0.42576903104782104,
    -0.8906645178794861,
    0.8924524784088135,
    1.9805958271026611,
    -0.17696836590766907,
    1.6817700862884521,
    -0.24375341832637787,
    -0.6428355574607849,
    0.24337927997112274,
    -0.6491222977638245,
    -1.1306593418121338,
    -0.5385885834693909,
    1.234550952911377,
    -0.6319506168365479,
    0.7441815733909607,
    2.3743743896484375,
    0.4749147891998291,
    0.7396965622901917,
    0.029600651934742928,
    0.9605230093002319,
    -1.2799937725067139,
    0.8291230201721191,
    0.046610087156295776,
    1.5975914001464844,
    1.689269781112671,
    -3.1725192070007324,
    -0.4787917733192444,
    -0.653820276260376,
    1.45358407497406,
    -0.10153497755527496,
    -0.5324324369430542,
    0.7111016511917114,
    2.6891820430755615,
    1.3603992462158203,
    0.3465818166732788,
    1.879913568496704,
    1.9254512786865234,
    0.5256244540214539,
    -0.15414337813854218,
    0.4571598470211029,
    -1.105433464050293,
    0.4829944968223572,
    -0.08080364763736725,
    1.8690816164016724,
    0.2427363395690918,
    1.2467316389083862,
    0.9400198459625244,
    1.49631929397583,
    -1.0654666423797607,
    1.1241029500961304,
    -0.11492288112640381,
    -0.5617696642875671,
    1.370303988456726,
    -0.7146826386451721,
    -1.0762821435928345,
    1.254123330116272,
    0.5538310408592224,
    0.10535120964050293,
    -0.2954838275909424,
    0.4234904646873474,
    -0.6635724902153015,
    0.3660740554332733,
    -0.3067554831504822,
    0.18923363089561462,
    0.8628570437431335,
    -0.2790902256965637,
    0.9003506898880005,
    1.5245212316513062,
    -0.6539695858955383,
    1.7972065210342407,
    -0.34480372071266174,
    -0.42629867792129517,
    0.27308836579322815,
    -1.077154517173767,
    -0.39692264795303345,
    -0.36172544956207275,
    0.7086130380630493,
    -0.6036481261253357,
    0.48254311084747314,
    1.7523869276046753,
    1.095859169960022,
    0.38233810663223267,
    0.11697358638048172,
    1.459649682044983,
    -1.962989330291748,
    0.7314615249633789,
    -0.027966447174549103,
    0.8644106984138489,
    1.3803431987762451,
    -0.9704979658126831,
    -0.17095382511615753,
    -1.3890759944915771,
    1.2140209674835205,
    0.2560199499130249,
    -0.5436927676200867,
    0.9842661023139954,
    2.376544952392578,
    1.0865581035614014,
    0.03835681825876236,
    2.0629348754882812,
    2.3672633171081543,
    -0.2651820480823517,
    -0.06099408119916916,
    0.01755332015454769,
    -0.6175552606582642,
    -0.02149840071797371,
    -0.3532206416130066,
    1.5895088911056519,
    -0.7198240756988525,
    1.2285996675491333,
    0.6319493055343628,
    1.460668921470642,
    -0.7026755809783936,
    1.4228047132492065,
    -0.18642422556877136,
    -0.819911777973175,
    1.2814373970031738,
    -0.9960294365882874,
    -1.578681468963623,
    0.6811065077781677,
    1.0120666027069092,
    0.15417996048927307,
    0.1105005070567131,
    -0.11815831065177917,
    0.4041765034198761,
    0.0908956527709961,
    0.47473546862602234,
    -0.2526906430721283,
    -0.028122372925281525,
    0.44645291566848755,
    -0.41013410687446594,
    -0.19290144741535187,
    0.39004749059677124,
    -0.7172348499298096,
    0.2621276080608368,
    0.415807843208313,
    -0.06619562208652496,
    0.36497488617897034,
    0.5430827736854553,
    0.477679967880249,
    0.2187107652425766,
    0.5514086484909058,
    -0.1384776383638382,
    -0.2898634076118469,
    -0.08341693133115768,
    0.20233437418937683,
    0.13007912039756775,
    -0.26618948578834534,
    0.30710434913635254,
    0.027924012392759323,
    0.24970783293247223,
    -0.08338535577058792,
    -0.20836517214775085,
    0.5882763266563416,
    0.21321432292461395,
    0.5574466586112976,
    -0.2090514749288559,
    0.24412450194358826,
    0.6452509760856628,
    0.0668737068772316,
    -0.6545958518981934,
    -0.3270254135131836,
    -0.03463858738541603,
    -0.3145398795604706,
    -0.08869171887636185,
    0.4132649004459381,
    0.14902420341968536,
    0.3428858816623688,
    0.6420608162879944,
    0.39886611700057983,
    0.11641590297222137,
    -0.3071978688240051,
    0.3821021318435669,
    -0.01467212289571762,
    0.10162875801324844,
    -0.08201327174901962,
    0.5374179482460022,
    0.034467652440071106,
    0.015501010231673717,
    0.47544315457344055,
    -0.1549808531999588,
    0.3218677043914795,
    0.1543654501438141,
    -0.3614477217197418,
    -0.4179551899433136,
    0.197490394115448,
    0.5587638020515442,
    0.4714112877845764,
    0.8389039039611816,
    -0.3766399621963501,
    1.0114575624465942,
    -0.07746360450983047,
    -0.5185433030128479,
    0.8892635107040405,
    1.4351900815963745,
    -0.7885594964027405,
    0.22161650657653809,
    0.6158090233802795,
    -0.4069855809211731,
    0.7534538507461548,
    1.0450358390808105,
    -0.6887657046318054,
    0.7699204087257385,
    0.779710054397583,
    1.2800910472869873,
    0.23424170911312103,
    -0.4632062315940857,
    0.04546061158180237,
    -0.1803676337003708,
    -0.6089961528778076,
    0.5637109875679016,
    0.8040178418159485,
    -0.8886774182319641,
    0.7477577328681946,
    -0.4584912955760956,
    -0.7348566651344299,
    1.4686827659606934,
    0.5245900750160217,
    -0.09275338798761368,
    -0.7152053713798523,
    0.6339893937110901,
    0.037700776010751724,
    0.8188092708587646,
    -0.5291304588317871,
    -0.5591900944709778,
    -0.34982943534851074,
    0.2796851098537445,
    0.9001920223236084,
    -0.07839512079954147,
    -0.9137090444564819,
    -0.6440756916999817,
    -0.20194028317928314,
    0.29985418915748596,
    -0.24720856547355652,
    0.07308346033096313,
    1.1606266498565674,
    0.03357570618391037,
    -0.2626619040966034,
    -0.5871824026107788,
    0.3220883011817932,
    1.0051406621932983,
    -0.286344051361084,
    0.27777326107025146,
    1.1844031810760498,
    0.7171611785888672,
    0.6359021067619324,
    0.20115156471729279,
    0.007492552511394024,
    -0.26002243161201477,
    -0.12451750040054321,
    0.6739816069602966,
    0.05519654229283333,
    0.5101308226585388,
    0.22428464889526367,
    0.7770586013793945,
    -0.8760753870010376,
    -0.16980205476284027,
    0.459113210439682,
    0.4120043218135834,
    -0.5952590107917786,
    -0.08795168995857239,
    0.6884857416152954,
    0.41130220890045166,
    0.6608831286430359,
    0.6710973978042603,
    -0.8086134791374207,
    0.03927694633603096,
    0.19578179717063904,
    0.655698835849762,
    -0.2735964357852936,
    -0.6246962547302246,
    -0.05202675238251686,
    0.3226432502269745,
    0.19866907596588135,
    0.33681702613830566,
    1.1917484998703003,
    -0.35339707136154175,
    0.8001537919044495,
    0.14237740635871887,
    -0.3057407736778259,
    0.28423523902893066,
    0.22790931165218353,
    0.17134125530719757,
    -0.5549229979515076,
    0.9847567081451416,
    0.04397336021065712,
    0.5411425232887268,
    0.5731948614120483,
    -0.16372150182724,
    0.324636310338974,
    0.1295115053653717,
    -0.1511254906654358,
    -0.6635231375694275,
    0.1709856539964676,
    -1.279646396636963,
    -0.7669296264648438,
    0.3734045624732971,
    -1.0659288167953491,
    0.22352349758148193,
    0.3012089729309082,
    -0.9429821968078613,
    -1.3532785177230835,
    -0.6201880574226379,
    0.38998377323150635,
    0.8529439568519592,
    0.5270513296127319,
    0.2340162843465805,
    0.6463180184364319,
    0.30141034722328186,
    0.5306195020675659,
    1.6235288381576538,
    -0.18044964969158173,
    -0.27210161089897156,
    -0.24003629386425018,
    -0.20992209017276764,
    0.14197754859924316,
    0.09432312101125717,
    -0.3501603603363037,
    -0.31643247604370117,
    -0.23721714317798615,
    0.41049766540527344,
    0.3160080015659332,
    -0.7020806670188904,
    0.023257466033101082,
    0.9586272835731506,
    0.03470585495233536,
    0.0023731368128210306,
    0.4329899847507477,
    -0.9623815417289734,
    1.0858986377716064,
    -0.21464703977108002,
    -0.6397951245307922,
    -0.3788072466850281,
    -0.3505266308784485,
    -0.38435670733451843,
    0.18065595626831055,
    0.483712762594223,
    0.5721262097358704,
    0.1586488038301468,
    0.2300063520669937,
    0.8545516729354858,
    -0.10548554360866547,
    -0.25821274518966675,
    0.7221056818962097,
    -0.9297845959663391,
    0.2778575122356415,
    -0.07980461418628693,
    0.17494525015354156,
    -0.21351489424705505,
    0.5501372814178467,
    -0.7230586409568787,
    0.21563053131103516,
    0.03846216946840286,
    -0.12294510006904602,
    0.5388076901435852,
    -0.3720141053199768,
    -0.508079469203949,
    -0.11955298483371735,
    0.6459969878196716,
    -0.0014609209029003978,
    -0.517888069152832,
    0.514526903629303,
    -0.5858557224273682,
    -0.23713257908821106,
    -0.1669776737689972,
    0.5853312611579895,
    0.8590974807739258,
    -0.8858596086502075,
    -0.18581680953502655,
    0.19235271215438843,
    0.27022066712379456,
    -0.8450628519058228,
    0.4965389668941498,
    0.40767747163772583,
    -0.29621565341949463,
    -0.02336568757891655,
    0.888527512550354,
    0.8840516805648804,
    0.6034018993377686,
    0.20184075832366943,
    0.8272222876548767,
    -0.370675265789032,
    -0.23989516496658325,
    -0.026276590302586555,
    -0.3238089680671692,
    1.0095984935760498,
    0.29627954959869385,
    -0.10418667644262314,
    1.3324365615844727,
    1.0360326766967773,
    -0.2260473370552063,
    0.9672724604606628,
    -0.09958893805742264,
    0.734697699546814,
    0.31844431161880493,
    -0.4142131507396698,
    0.2442035675048828,
    -0.5968796014785767,
    -0.3223792016506195,
    0.3370184302330017,
    -0.2581395208835602,
    -0.23354648053646088,
    0.01596832647919655,
    1.2283096313476562,
    0.42837339639663696,
    0.7148247361183167,
    -0.45481249690055847,
    0.03821193799376488,
    0.1676170974969864,
    1.044896125793457,
    -0.2410264015197754,
    -0.20171977579593658,
    0.31688055396080017,
    0.8694610595703125,
    0.10912488400936127,
    -0.3692319691181183,
    -0.6801226139068604,
    -0.21129749715328217,
    0.7078419327735901,
    0.1883223056793213,
    -0.19956892728805542,
    -0.2327539175748825,
    0.42015376687049866,
    -0.2517284154891968,
    -0.6112602353096008,
    0.3032073676586151,
    -0.657608687877655,
    0.24132280051708221,
    -0.4302451014518738,
    0.3466755151748657,
    -0.10995150357484818,
    -0.1608998030424118,
    0.6975865364074707,
    -0.5305965542793274,
    1.0590476989746094,
    0.21353836357593536,
    0.9555426239967346,
    1.2064316272735596,
    -0.43309399485588074,
    -0.1459502875804901,
    -0.05030087009072304,
    0.7665181159973145,
    0.07757781445980072,
    0.6385665535926819,
    -0.4904825687408447,
    0.0769815742969513,
    0.3287004232406616,
    1.2110437154769897,
    -0.3270236849784851,
    -0.5824071764945984,
    0.6254009008407593,
    0.047920361161231995,
    0.0461789071559906,
    -0.09108687937259674,
    -0.2609221041202545,
    -0.4201758801937103,
    0.670663595199585,
    -0.18853944540023804,
    1.5328471660614014,
    0.6767882704734802,
    0.8750495910644531,
    1.0845121145248413,
    -0.5196197032928467,
    0.7799741625785828,
    0.020254170522093773,
    -0.6028915047645569,
    -0.6813242435455322,
    0.05300360918045044,
    -0.4573737680912018,
    0.24080999195575714,
    -0.24607592821121216,
    -0.7301207780838013,
    0.7647122740745544,
    -0.00417086249217391,
    0.10343103110790253,
    0.5862032175064087,
    -0.5579754710197449,
    0.3375319242477417,
    0.6987058520317078,
    -0.5039149522781372,
    0.7094602584838867,
    -1.0750529766082764,
    0.5002983212471008,
    -0.3050593137741089,
    0.39999786019325256,
    -0.3972237706184387,
    0.01434722077101469,
    0.7390482425689697,
    0.8489862680435181,
    0.3422166407108307,
    0.6895776391029358,
    0.012882646173238754,
    0.11416763067245483,
    0.6205174922943115,
    -0.827364444732666,
    0.9855241179466248,
    0.5303861498832703,
    0.029287509620189667,
    0.06154322996735573,
    1.1229591369628906,
    -0.3912458121776581,
    -0.05290606990456581,
    -0.2844281494617462,
    -0.13378837704658508,
    -0.7524694800376892,
    0.5237719416618347,
    0.4711135923862457,
    1.0836951732635498,
    0.3519362807273865,
    -0.016302339732646942,
    0.15045028924942017,
    -0.04586818814277649,
    -0.6184734106063843,
    0.39990347623825073,
    0.9092517495155334,
    -0.4054688513278961,
    0.40025728940963745,
    0.6831598877906799,
    -0.7570978999137878,
    0.547957181930542,
    0.7269339561462402,
    -0.633351743221283,
    0.7419150471687317,
    0.7664055824279785,
    0.47423020005226135,
    -0.36956799030303955,
    -0.8079043626785278,
    0.697469174861908,
    -0.4604119658470154,
    -0.10915202647447586,
    0.06189843267202377,
    0.6779458522796631,
    -0.3191244304180145,
    0.7498502731323242,
    -0.28736329078674316,
    -0.35543495416641235,
    0.6169597506523132,
    0.5296292901039124,
    -0.9480245113372803,
    -0.6347954869270325,
    0.4020727574825287,
    0.7222787737846375,
    0.9045708179473877,
    -0.3781428635120392,
    -0.5037918090820312,
    -0.2978459596633911,
    1.0740675926208496,
    0.2794971168041229,
    -0.2487054169178009,
    -0.3211013376712799,
    0.31715506315231323,
    -0.027669455856084824,
    0.2694340944290161,
    0.12025723606348038,
    -0.26162657141685486,
    0.12393607944250107,
    0.5823943614959717,
    0.2741251289844513,
    -0.5891530513763428,
    -0.13196906447410583,
    0.6619054079055786,
    -0.5506773591041565,
    0.6068779230117798,
    0.9489604830741882,
    0.3709651827812195,
    0.3901827037334442,
    0.28155362606048584,
    -0.015226286835968494,
    -0.7863420844078064,
    -0.026327619329094887,
    0.21076738834381104,
    0.3742973208427429,
    0.5663113594055176,
    -0.6024596691131592,
    -0.12226570397615433,
    -0.21116799116134644,
    -0.2254391759634018,
    0.4701352119445801,
    -0.79268878698349,
    -0.20598533749580383,
    0.9296915531158447,
    0.7200400829315186,
    -0.26391279697418213,
    0.5209678411483765,
    -0.027573226019740105,
    0.7810286283493042,
    -0.4555089771747589,
    -1.0541009902954102,
    0.13875405490398407,
    -0.5799944996833801,
    0.3718548119068146,
    -0.15103664994239807,
    0.2502688765525818,
    -0.2438216507434845,
    0.13139113783836365,
    0.19140420854091644,
    0.037623461335897446,
    -0.13025860488414764,
    0.2807224690914154,
    -0.026642559096217155,
    -0.9591422080993652,
    0.4924629032611847,
    -0.7432856559753418,
    0.3139576017856598,
    0.15019601583480835,
    0.43583613634109497,
    -0.12984295189380646,
    1.2897430658340454,
    -0.2638818323612213,
    0.6931987404823303,
    0.20394578576087952,
    -0.03173324093222618,
    0.10098425298929214,
    -0.6986516118049622,
    0.7582848072052002,
    -0.3748689591884613,
    -0.24685198068618774,
    0.332640677690506,
    -0.28810861706733704,
    -0.10352031886577606,
    -0.22049148380756378,
    0.6332945823669434,
    0.40440094470977783,
    -0.6980767250061035,
    0.15977855026721954,
    -0.35210925340652466,
    0.802370011806488,
    -0.8075175285339355,
    0.5662655830383301,
    0.38760286569595337,
    0.8907294869422913,
    0.0925273597240448,
    0.8047447800636292,
    0.20056948065757751,
    -0.6214525699615479,
    -0.19864289462566376,
    -0.3608653247356415,
    1.0448161363601685,
    0.10629360377788544,
    0.6623155474662781,
    0.40179169178009033,
    -0.35423263907432556,
    0.7616838216781616,
    0.6813557744026184,
    -0.7164286375045776,
    -0.42579740285873413,
    0.8782269954681396,
    -0.613593339920044,
    0.6876376271247864,
    -0.4956083595752716,
    1.030229091644287,
    0.7257368564605713,
    0.8021643757820129,
    1.0963469743728638,
    0.2790682315826416,
    -0.1186198964715004,
    1.1354517936706543,
    0.47163739800453186,
    0.06338728219270706,
    -0.2515956163406372,
    -0.39851143956184387,
    -0.5625853538513184,
    -0.1868649423122406,
    0.11399736255407333,
    0.6332172751426697,
    -0.8267417550086975,
    1.101645827293396,
    0.7673951387405396,
    -0.10133353620767593,
    -0.5462355017662048,
    0.3408653438091278,
    0.1208031103014946,
    1.2387514114379883,
    0.5004724264144897,
    -0.5821579098701477,
    0.1425371766090393,
    0.4373094439506531,
    0.3461948335170746,
    -0.8622303009033203,
    -0.18797235190868378,
    1.4919861555099487,
    -0.6735284328460693,
    1.2935338020324707,
    0.524093508720398,
    -0.06551332771778107,
    -0.1757141500711441,
    0.5279144048690796,
    1.0328024625778198,
    -0.18870896100997925,
    0.8596096038818359,
    -1.1409415006637573,
    0.23180365562438965,
    -0.7634908556938171,
    -0.8360020518302917,
    -0.8390178084373474,
    0.129819855093956,
    1.0854078531265259,
    -0.30246293544769287,
    0.9795526266098022,
    0.06684338301420212,
    0.3211960196495056,
    -0.03181132674217224,
    -0.2808949947357178,
    -0.256031334400177,
    -0.6739897131919861,
    0.39619895815849304,
    0.17531833052635193,
    -0.3195892572402954,
    0.733612060546875,
    0.7473194003105164,
    -0.4871073067188263,
    0.27704280614852905,
    0.004578041844069958,
    0.5998011827468872,
    0.622856080532074,
    -0.08569788187742233,
    -0.3667488694190979,
    -0.3905580937862396,
    0.5121023654937744,
    0.23762214183807373,
    -1.072393536567688,
    -0.622840166091919,
    0.23928825557231903,
    0.6414459943771362,
    0.294761598110199,
    0.5204367637634277,
    -0.5352543592453003,
    -0.1299125701189041,
    0.13637356460094452,
    0.8608803153038025,
    -1.4536930322647095,
    0.10296548902988434,
    0.555715024471283,
    0.648892343044281,
    0.46888968348503113,
    -0.14483410120010376,
    -0.39404577016830444,
    -0.1904502511024475,
    0.6831844449043274,
    0.4776688814163208,
    0.27440908551216125,
    -0.6385015845298767,
    -0.026304423809051514,
    -0.11751164495944977,
    -0.6188665628433228,
    0.3325796127319336,
    -0.38799890875816345,
    0.16549648344516754,
    -0.18233449757099152,
    -0.21041059494018555,
    -0.6366415619850159,
    -0.258477121591568,
    0.8707938194274902,
    -0.48039695620536804,
    0.971343994140625,
    0.09052101522684097,
    0.42807650566101074,
    0.9285065531730652,
    -0.073305644094944,
    0.0010358589934185147,
    -0.8047228455543518,
    0.4317367672920227,
    0.9746562838554382,
    0.8569059371948242,
    0.48747673630714417,
    -0.8590202927589417,
    0.5368984341621399,
    -0.3285164535045624,
    -0.8263500332832336,
    0.7104136943817139,
    -0.6236245632171631,
    -0.4960334897041321,
    0.8200015425682068,
    0.993155300617218,
    -0.6519880890846252,
    0.8185520172119141,
    0.5720527768135071,
    0.2886388599872589,
    0.04151419177651405,
    -0.2018907368183136,
    0.035310983657836914,
    -0.5987999439239502,
    0.5848466753959656,
    0.07620025426149368,
    -1.1247186660766602,
    -1.234252691268921,
    -0.1861865073442459,
    1.0143390893936157,
    -0.29733720421791077,
    0.5582491755485535,
    -0.33807310461997986,
    -0.9686870574951172,
    -0.8877484202384949,
    0.8990403413772583,
    -0.8649490475654602,
    -0.525824785232544,
    0.5392157435417175,
    0.51750248670578,
    0.7656780481338501,
    0.4220784604549408,
    -0.945993959903717,
    0.36185896396636963,
    0.5274854898452759,
    -0.35380318760871887,
    0.11535309255123138,
    -0.9360940456390381,
    0.7033431529998779,
    -0.8094292879104614,
    -0.34747442603111267,
    -0.01488941628485918,
    -0.2729615271091461,
    0.33990851044654846,
    0.5184742212295532,
    0.7446359992027283,
    -0.16877548396587372,
    -0.5154801607131958,
    0.8872753381729126,
    -0.7958340644836426,
    1.2995586395263672,
    0.18447992205619812,
    0.7104557752609253,
    0.6489064693450928,
    0.9703362584114075,
    -0.052200768142938614,
    -0.0908462256193161,
    0.07132074236869812,
    -0.5871513485908508,
    0.2457418292760849,
    -0.5625669360160828,
    1.019582748413086,
    -0.3310597240924835,
    1.1270095109939575,
    0.20849370956420898,
    -0.8032583594322205,
    -0.1267174780368805,
    0.22684504091739655,
    -0.08431921899318695,
    -0.5736069679260254,
    0.45705199241638184,
    -0.8758407235145569,
    0.24128945171833038,
    -0.4456360340118408,
    1.3455359935760498,
    0.6322237849235535,
    0.10375622659921646,
    1.0072773694992065,
    -0.03593853861093521,
    0.7367027401924133,
    0.26703235507011414,
    0.3008602261543274,
    -0.6530851125717163,
    -0.39798304438591003,
    0.26754456758499146,
    -0.6515040397644043,
    0.12923049926757812,
    0.2840902507305145,
    -0.042032744735479355,
    -0.5384707450866699,
    0.6502552628517151,
    0.7213895320892334,
    -0.42304831743240356,
    0.3315652310848236,
    0.5925741791725159,
    -0.6109509468078613,
    0.8945059776306152,
    -0.3300916254520416,
    0.4222535192966461,
    -0.7383373379707336,
    0.24658143520355225,
    0.2306888997554779,
    0.3435288071632385,
    0.17727792263031006,
    1.01011061668396,
    0.6380441188812256,
    1.0994744300842285,
    -0.5989111065864563,
    -0.46712422370910645,
    0.2986016273498535,
    0.02785753645002842,
    0.721547544002533,
    -0.33076757192611694,
    0.5967779755592346,
    -0.1349485069513321,
    0.26904839277267456,
    -0.6153877377510071,
    -0.48771026730537415,
    -0.46315819025039673,
    -0.17478753626346588,
    -0.0161270834505558,
    0.6938848495483398,
    -0.2435654252767563,
    1.9867744445800781,
    -0.1523701250553131,
    -0.1467861831188202,
    0.15027807652950287,
    -0.7209924459457397,
    0.9315177798271179,
    0.05174674466252327,
    0.4417291283607483,
    1.124004602432251,
    0.8104001879692078,
    -0.7364232540130615,
    0.41826242208480835,
    -0.266695111989975,
    -0.6880829334259033,
    0.8519571423530579,
    -0.9675347805023193,
    -0.8365159034729004,
    0.5221352577209473,
    -1.041597843170166,
    -3.2436423301696777,
    -0.04436558857560158,
    1.1934709548950195,
    0.7236129641532898,
    1.0259463787078857,
    -0.4326423406600952,
    1.2427695989608765,
    0.1107674390077591,
    1.2422102689743042,
    0.429857075214386,
    0.23084065318107605,
    -0.04825133830308914,
    -1.6032644510269165,
    0.547302782535553,
    -0.04869968816637993,
    0.2806512713432312,
    -1.0531387329101562,
    1.4032007455825806,
    -0.13254012167453766,
    0.88015216588974,
    0.31513267755508423,
    0.5295376777648926,
    -3.1715927124023438,
    0.5033279657363892,
    -0.024097323417663574,
    -0.7371082305908203,
    -0.6631057262420654,
    -0.07340814173221588,
    -0.9074984192848206,
    0.03665763512253761,
    0.5206565260887146,
    -0.45692241191864014,
    0.6207595467567444,
    -0.589180052280426,
    -0.6138636469841003,
    -1.268907070159912,
    -0.017172502353787422,
    -0.8039625287055969,
    -0.2026844024658203,
    0.2731991410255432,
    1.1776989698410034,
    0.005712305195629597,
    0.6037125587463379,
    0.45267999172210693,
    0.14043880999088287,
    0.034978944808244705,
    0.13034120202064514,
    -0.34844404458999634,
    -0.11510074138641357,
    0.5342258214950562,
    0.1260853260755539,
    -0.28281170129776,
    -0.20780262351036072,
    -0.6637120246887207,
    1.2159682512283325,
    -0.007404913194477558,
    -0.23801632225513458,
    -0.0645141750574112,
    -0.1519649624824524,
    0.8867520689964294,
    0.43082237243652344,
    -0.25386935472488403,
    0.011825756169855595,
    -0.021341880783438683,
    -0.07870661467313766,
    0.8381508588790894,
    -0.23052047193050385,
    -0.17032885551452637,
    -0.41072985529899597,
    0.12839947640895844,
    0.47184962034225464,
    -0.0932326540350914,
    -0.32526448369026184,
    0.17529506981372833,
    0.14897599816322327,
    0.25702011585235596,
    -0.1857367306947708,
    0.047592684626579285,
    -0.47212278842926025,
    1.018911361694336,
    -0.01541396975517273,
    -0.382479190826416,
    0.13400712609291077,
    -0.5043057799339294,
    1.0877609252929688,
    -0.23511292040348053,
    -0.47037166357040405,
    -0.2878074049949646,
    0.9293602705001831,
    0.28793707489967346,
    -0.1868383139371872,
    0.6773347854614258,
    -0.28904566168785095,
    -0.5211390852928162,
    0.18096046149730682,
    0.8869481086730957,
    -0.18802063167095184,
    -0.4157024323940277,
    0.031071802601218224,
    -0.32372793555259705,
    0.5684701204299927,
    0.5291520357131958,
    -0.2452968806028366,
    0.1681959480047226,
    -0.25693753361701965,
    -0.21164408326148987,
    0.024428268894553185,
    0.8307656049728394,
    -0.6820411086082458,
    -0.1902942806482315,
    -0.38656309247016907,
    0.9622979164123535,
    -0.6010037064552307,
    0.05708535388112068,
    0.982276976108551,
    -0.24238857626914978,
    0.05374422296881676,
    1.2201013565063477,
    -0.06181608512997627,
    -0.8738174438476562,
    1.0419607162475586,
    -0.1202310100197792,
    -0.525099515914917,
    0.4081442654132843,
    0.08254417777061462,
    -0.4025370478630066,
    0.04963291436433792,
    0.6940972208976746,
    0.21984054148197174,
    -0.13411016762256622,
    1.2738914489746094,
    1.0404902696609497,
    0.200223907828331,
    -0.7353973388671875,
    0.9375728368759155,
    -0.7473795413970947,
    1.123724341392517,
    1.0636578798294067,
    -0.01632283814251423,
    -0.8865053653717041,
    0.7329248189926147,
    1.0434091091156006,
    -0.3551429212093353,
    -0.2806667387485504,
    -0.32180583477020264,
    0.3692466616630554,
    0.8049190044403076,
    0.6145172715187073,
    -0.4366495907306671,
    0.029041670262813568,
    -0.35430240631103516,
    0.8580888509750366,
    -0.3603988289833069,
    0.19862398505210876,
    0.5014879703521729,
    0.4134807586669922,
    0.43932053446769714,
    0.050750937312841415,
    -0.36611074209213257,
    -0.011562238447368145,
    1.1967747211456299,
    0.09835245460271835,
    -0.8525583744049072,
    1.0468254089355469,
    -0.9470626711845398,
    -0.6653958559036255,
    -0.2709651291370392,
    -0.5160184502601624,
    -0.5365695357322693,
    -0.1390930861234665,
    1.0588675737380981,
    0.8823959231376648,
    -0.5765895247459412,
    -2.1698660850524902,
    -0.034262366592884064,
    -1.3159773349761963,
    0.38369670510292053,
    -0.06881393492221832,
    1.1907109022140503,
    -0.4347718060016632,
    0.3665235936641693,
    1.0336328744888306,
    -1.1986043453216553,
    -0.8477534651756287,
    0.041620057076215744,
    -0.24055831134319305,
    -0.3918881416320801,
    0.027246372774243355,
    -0.8276752233505249,
    -0.7303778529167175,
    0.4956209659576416,
    -0.27461135387420654,
    0.5360234379768372,
    -0.701228141784668,
    1.421504020690918,
    0.6349108815193176,
    -0.059284329414367676,
    -0.6052049994468689,
    0.7657842636108398,
    -0.6543269753456116,
    1.424115777015686,
    0.8435063362121582,
    -0.07242666929960251,
    -0.772285521030426,
    -0.03464435786008835,
    1.1490728855133057,
    0.26406604051589966,
    -0.43956440687179565,
    -0.421284019947052,
    2.1894824504852295,
    0.167145773768425,
    1.433264136314392,
    -0.9477299451828003,
    -0.44197821617126465,
    -1.8738172054290771,
    1.24846613407135,
    0.22303861379623413,
    -0.8649353384971619,
    -1.4791076183319092,
    0.03972623124718666,
    -1.3201920986175537,
    0.3404853940010071,
    0.4688919186592102,
    -0.9170834422111511,
    1.2143990993499756,
    -1.1625951528549194,
    -0.5475276112556458,
    -0.5996730923652649,
    -1.055245041847229,
    0.002494215965270996,
    -0.6561095118522644,
    -0.8328414559364319,
    1.787380337715149,
    -0.03255418688058853,
    0.9972623586654663,
    -0.26562413573265076,
    -0.5871330499649048,
    -0.33201271295547485,
    -0.21744109690189362,
    0.6500892639160156,
    -0.24518781900405884,
    0.5040431022644043,
    -0.2349747121334076,
    -0.10390901565551758,
    0.07400701195001602,
    -0.14717067778110504,
    -0.12458521127700806,
    -0.24892184138298035,
    0.5015155673027039,
    -0.2072053700685501,
    0.18817202746868134,
    -0.3089071214199066,
    0.7066454291343689,
    0.5790200233459473,
    0.5068214535713196,
    0.8161136507987976,
    0.2842594385147095,
    0.005551619455218315,
    0.44802048802375793,
    0.31057748198509216,
    -0.0392865352332592,
    -0.39690664410591125,
    -0.007729086559265852,
    -0.37634339928627014,
    -0.2596087157726288,
    -0.17817145586013794,
    0.4047330617904663,
    -0.37387990951538086,
    0.5376685857772827,
    0.1932511031627655,
    0.45881953835487366,
    -0.009535829536616802,
    0.21822838485240936,
    -0.3740004301071167,
    0.5813241004943848,
    -0.18350481986999512,
    -0.07214055210351944,
    0.007680894806981087,
    0.17584040760993958,
    0.24979276955127716,
    -1.06460702419281,
    -0.07424222677946091,
    0.18449242413043976,
    -0.5308513045310974,
    0.6551119089126587,
    0.08560921251773834,
    -0.3425472378730774,
    -0.07333923876285553,
    -0.18007734417915344,
    0.5685155391693115,
    -0.19583112001419067,
    0.5561758279800415,
    -0.7703547477722168,
    0.36669930815696716,
    -0.04840075597167015,
    -0.2561582624912262,
    0.5518315434455872,
    -0.04359818249940872,
    -0.13193994760513306,
    0.14653146266937256,
    -0.8791218996047974,
    -0.9303666949272156,
    -1.4529637098312378,
    0.22200188040733337,
    -0.872403621673584,
    0.9166569113731384,
    0.8739076256752014,
    -1.4978148937225342,
    -1.0623741149902344,
    1.1539560556411743,
    0.5205517411231995,
    -0.8642928004264832,
    0.6471289992332458,
    -1.3001495599746704,
    -0.7233782410621643,
    0.7372783422470093,
    0.476784884929657,
    0.16717539727687836,
    -0.9607785940170288,
    -0.27630549669265747,
    0.9115889072418213,
    0.8361708521842957,
    0.13751475512981415,
    0.8033151030540466,
    -1.2014511823654175,
    -0.7635346055030823,
    1.0724765062332153,
    -0.9785028100013733,
    1.2037487030029297,
    0.7027696371078491,
    -0.8312299847602844,
    -0.5632960200309753,
    -0.3569749891757965,
    0.28837233781814575,
    -1.5851242542266846,
    1.1621925830841064,
    -0.2743834853172302,
    0.47787630558013916,
    0.42695602774620056,
    -0.405599445104599,
    0.8050745129585266,
    -1.001736044883728,
    0.8874627351760864,
    1.056848406791687,
    1.5337778329849243,
    0.4347919225692749,
    0.10858027637004852,
    1.8616095781326294,
    0.1857413798570633,
    -1.6622172594070435,
    1.1534591913223267,
    1.2868273258209229,
    0.6914272308349609,
    -0.31311723589897156,
    -0.7641010284423828,
    0.1079002320766449,
    0.060637619346380234,
    -0.5871672034263611,
    -1.0325610637664795,
    -0.6085122227668762,
    -0.18572312593460083,
    -0.10630983114242554,
    0.3170672655105591,
    1.559264063835144,
    -0.936907947063446,
    0.16128042340278625,
    -0.7903628945350647,
    0.8552853465080261,
    -0.0342293456196785,
    0.9815933704376221,
    0.7859501838684082,
    -0.7204623222351074,
    -0.6696101427078247,
    0.47065141797065735,
    -0.4378681182861328,
    -0.81075519323349,
    0.4754851162433624,
    -0.9131419658660889,
    0.13636872172355652,
    -0.11506515741348267,
    0.7469082474708557,
    0.856082022190094,
    -0.43180593848228455,
    0.832758903503418,
    0.5164279937744141,
    0.2531038224697113,
    0.7975780367851257,
    0.835791826248169,
    -0.4741443693637848,
    -0.6846245527267456,
    0.4137665033340454,
    -0.6730125546455383,
    0.6235114932060242,
    0.3333390951156616,
    -0.9334951639175415,
    -0.7614548206329346,
    0.8258079290390015,
    1.1014312505722046,
    -0.49385523796081543,
    -0.38655903935432434,
    0.47548672556877136,
    0.24887438118457794,
    0.9636348485946655,
    0.2257431149482727,
    -0.29381662607192993,
    -0.7810514569282532,
    0.8818333745002747,
    0.6226992011070251,
    0.5291299819946289,
    0.1807124763727188,
    1.218141794204712,
    0.2520778477191925,
    1.2435071468353271,
    -0.6082972288131714,
    0.5675719976425171,
    0.8438429832458496,
    0.3643514811992645,
    0.9651821851730347,
    -0.9499664306640625,
    1.1065219640731812,
    -0.5116162896156311,
    0.39709752798080444,
    -0.9973392486572266,
    -0.7786790132522583,
    0.36292898654937744,
    -0.11515319347381592,
    0.12546394765377045,
    0.4540400505065918,
    0.39574509859085083,
    -1.7385770082473755,
    -0.5732979774475098,
    -0.7901608943939209,
    0.6653896570205688,
    0.24265167117118835,
    -0.9089904427528381,
    -0.4325034022331238,
    0.8771782517433167,
    -1.4842523336410522,
    0.060144346207380295,
    0.16034317016601562,
    -2.305969476699829,
    -0.44235959649086,
    0.6281993985176086,
    -0.4874212145805359,
    0.6034538745880127,
    0.46837642788887024,
    0.4856952726840973,
    -0.028647586703300476,
    1.2488512992858887,
    -0.35085374116897583,
    -1.1912509202957153,
    -0.6521251201629639,
    -0.3311351239681244,
    -0.3182677626609802,
    -0.4298548400402069,
    -0.19515292346477509,
    -1.3280757665634155,
    -0.291442334651947,
    0.17599205672740936,
    -0.1889760047197342,
    -1.024036169052124,
    -1.4322327375411987,
    0.14374206960201263,
    -0.34028011560440063,
    0.3050508499145508,
    -0.6455267667770386,
    -0.44188830256462097,
    0.06878402084112167,
    0.16457058489322662,
    0.22439123690128326,
    1.30625319480896,
    -1.0619852542877197,
    0.19708439707756042,
    0.3272877037525177,
    0.46972307562828064,
    -0.17459310591220856,
    0.2779492139816284,
    0.04094235971570015,
    0.9160617589950562,
    0.23700588941574097,
    -0.3997593820095062,
    0.3683714270591736,
    0.027961280196905136,
    -0.7172383666038513,
    -0.08066851645708084,
    0.5730903744697571,
    -0.24702318012714386,
    -0.37105822563171387,
    -0.1159837543964386,
    -0.07305904477834702,
    -0.0858096182346344,
    0.34509536623954773,
    -0.3569294512271881,
    -0.3260314166545868,
    0.1363559514284134,
    0.004539963323622942,
    -0.4045480489730835,
    0.09705443680286407,
    0.4468640983104706,
    -0.021724320948123932,
    -0.39367130398750305,
    0.0843365415930748,
    1.0033345222473145,
    -0.2786615490913391,
    0.2528197765350342,
    -0.09877071529626846,
    -1.0486905574798584,
    0.763945996761322,
    -0.4883611798286438,
    -0.9219731092453003,
    -0.7724306583404541,
    0.04306060075759888,
    -0.1580650806427002,
    0.04959344491362572,
    0.6041266322135925,
    0.45777082443237305,
    -0.013178184628486633,
    -0.3442181646823883,
    0.967237114906311,
    -0.2892363369464874,
    0.1776658147573471,
    0.7850556373596191,
    -0.6272563934326172,
    -0.1301480382680893,
    0.16189850866794586,
    0.523068904876709,
    -0.4470009207725525,
    0.16005024313926697,
    -0.8221535682678223,
    0.34367331862449646,
    -0.07623901218175888,
    0.35843905806541443,
    0.2641664743423462,
    -0.1697930246591568,
    -0.21177592873573303,
    0.32674869894981384,
    0.9420096278190613,
    0.04425623640418053,
    -0.47165146470069885,
    0.6726292967796326,
    -0.07034452259540558,
    -0.20268432796001434,
    0.395870178937912,
    0.818038821220398,
    0.8815431594848633,
    -0.6844678521156311,
    -0.5443738698959351,
    0.23959439992904663,
    0.48929059505462646,
    -0.9889697432518005,
    -0.012356454506516457,
    0.08529873192310333,
    -0.5229989886283875,
    -0.11458415538072586,
    1.065468430519104,
    1.3124254941940308,
    0.6380017399787903,
    0.8614835143089294,
    0.12485431134700775,
    -0.07228651642799377,
    0.19079619646072388,
    0.00632583349943161,
    -0.19269244372844696,
    0.43421849608421326,
    0.444254606962204,
    -0.26472559571266174,
    0.6368342638015747,
    0.6574045419692993,
    -0.20024117827415466,
    0.20300468802452087,
    0.17418032884597778,
    0.004629741422832012,
    0.3166380226612091,
    -0.025265701115131378,
    0.45589447021484375,
    -0.10926952213048935,
    -0.5461136102676392,
    0.8774735331535339,
    -0.43850022554397583,
    -0.10108505189418793,
    -0.12874038517475128,
    0.6375938653945923,
    -0.25210505723953247,
    0.6920267939567566,
    -0.2001369446516037,
    0.1357433795928955,
    0.1756187230348587,
    0.6500322818756104,
    -0.6080538034439087,
    -0.4675816297531128,
    0.39554375410079956,
    0.9273771643638611,
    0.22069403529167175,
    0.1998613327741623,
    -0.34275951981544495,
    -0.47475939989089966,
    0.9181084632873535,
    0.011936071328818798,
    0.2003326267004013,
    -0.27348965406417847,
    0.5677977800369263,
    0.2013639211654663,
    -0.4324599802494049,
    0.5790593028068542,
    -0.22939422726631165,
    -0.04999837651848793,
    -0.6309733390808105,
    0.3049732446670532,
    -0.3151991665363312,
    -0.20491363108158112,
    0.6490990519523621,
    -0.1304009109735489,
    0.9859510660171509,
    0.4757632911205292,
    0.1822798103094101,
    0.43254736065864563,
    0.49190250039100647,
    -0.08632251620292664,
    -0.2610507011413574,
    -0.024022448807954788,
    -0.8294139504432678,
    2.4993486404418945,
    -0.24930927157402039,
    -0.562737762928009,
    -1.4773504734039307,
    -0.8241068124771118,
    0.9571831822395325,
    -0.32005056738853455,
    -0.8393407464027405,
    0.9064236879348755,
    1.4542579650878906,
    -0.7376208901405334,
    0.7643721699714661,
    0.12082773447036743,
    -2.0595779418945312,
    1.5726960897445679,
    -1.0539634227752686,
    -1.0015742778778076,
    -0.14967045187950134,
    -1.367948055267334,
    0.07729971408843994,
    0.5082331299781799,
    0.7405612468719482,
    2.0674545764923096,
    -0.3567810654640198,
    -0.9492115378379822,
    2.2063069343566895,
    -0.8202519416809082,
    2.0337252616882324,
    1.9094467163085938,
    -0.6886058449745178,
    -0.31082138419151306,
    -1.0050266981124878,
    0.72613525390625,
    -0.4120729863643646,
    0.909403383731842,
    -1.4945869445800781,
    0.28089597821235657,
    -0.6015000343322754,
    -0.16304506361484528,
    0.594444215297699,
    -0.4733177423477173,
    -0.43606889247894287,
    1.0066202878952026,
    1.7622201442718506,
    -0.8718419075012207,
    -1.0033836364746094,
    0.8784342408180237,
    -1.3047544956207275,
    -1.0416059494018555,
    2.045681953430176,
    1.3012069463729858,
    1.004357099533081,
    -1.7404396533966064,
    -0.9573907256126404,
    0.15341921150684357,
    0.08282868564128876,
    -1.2189172506332397,
    0.23609231412410736,
    -0.1111377403140068,
    0.5122392773628235,
    -0.20474697649478912,
    1.0733319520950317,
    -0.8824008107185364,
    0.7969195246696472,
    2.1322665214538574,
    0.5991419553756714,
    -1.083335280418396,
    0.2091817408800125,
    -0.6769452691078186,
    -1.0309853553771973,
    0.6173719763755798,
    0.10534094274044037,
    -1.3286703824996948,
    1.17806875705719,
    0.6324803829193115,
    -1.0092885494232178,
    0.6571570634841919,
    -0.17514817416667938,
    0.7960930466651917,
    -0.49263113737106323,
    -0.3847597539424896,
    -1.20555579662323,
    -0.3471042513847351,
    0.682155966758728,
    0.6965120434761047,
    -0.29695674777030945,
    -0.2519640028476715,
    -0.2954476475715637,
    0.3422938287258148,
    0.20337338745594025,
    0.9134640097618103,
    -0.2453620880842209,
    -0.05234084650874138,
    -0.517805814743042,
    0.9557924270629883,
    -0.6056578755378723,
    0.24025927484035492,
    -0.21047870814800262,
    1.029762864112854,
    -0.07177658379077911,
    -0.29844045639038086,
    -0.587131142616272,
    -0.5934620499610901,
    1.167147159576416,
    -0.05043625086545944,
    -0.6529651880264282,
    -0.3039710223674774,
    0.5039458870887756,
    0.1732213795185089,
    -1.0846480131149292,
    1.0927305221557617,
    -1.1278315782546997,
    -0.21718066930770874,
    -0.3690737187862396,
    1.0311719179153442,
    -0.11193893104791641,
    -0.776502788066864,
    0.4536955952644348,
    -0.12770064175128937,
    1.0464893579483032,
    -0.2020455002784729,
    0.45641982555389404,
    0.6089392304420471,
    -0.23605389893054962,
    -0.14502999186515808,
    -0.1571536362171173,
    0.5991982221603394,
    0.6031203269958496,
    1.1614866256713867,
    0.6915731430053711,
    -0.8212699294090271,
    -0.11480359733104706,
    -0.6638787984848022,
    -0.4612421989440918,
    1.0171321630477905,
    0.251351535320282,
    -0.2416514754295349,
    1.3014360666275024,
    0.3058142066001892,
    -0.7032442688941956,
    0.7351661920547485,
    -0.5151618719100952,
    1.0848312377929688,
    -0.9498093128204346,
    -1.0730695724487305,
    -0.3750014007091522,
    -0.7320931553840637,
    -0.45225995779037476,
    -0.31168270111083984,
    0.02386055886745453,
    0.00520599028095603,
    0.44328922033309937,
    0.6204578280448914,
    0.6546456217765808,
    0.403507262468338,
    -0.4639202356338501,
    0.6278941035270691,
    0.08078775554895401,
    0.32512179017066956,
    0.1981567144393921,
    -0.6440452337265015,
    0.553146243095398,
    0.7362018823623657,
    -0.6017389297485352,
    0.15017014741897583,
    -1.035215139389038,
    0.42036184668540955,
    0.47463542222976685,
    0.7456813454627991,
    -0.836003839969635,
    -0.2765848636627197,
    0.7054972052574158,
    -0.9852397441864014,
    -1.0860819816589355,
    0.24510769546031952,
    -0.9761769771575928,
    0.3834199011325836,
    0.023190002888441086,
    0.7675647139549255,
    0.2168642282485962,
    -1.1191242933273315,
    0.33928483724594116,
    -0.36730504035949707,
    0.6066643595695496,
    -0.7289078235626221,
    1.002427577972412,
    0.7354685068130493,
    0.023784564808011055,
    0.1100965365767479,
    0.10964526981115341,
    1.0268090963363647,
    0.4913272559642792,
    0.38550469279289246,
    1.129868507385254,
    -0.5284936428070068,
    0.9483606815338135,
    -1.1623799800872803,
    -0.35398027300834656,
    1.3724594116210938,
    1.3187025785446167,
    -0.304936021566391,
    0.5204922556877136,
    0.19645245373249054,
    -0.2757726013660431,
    1.0707781314849854,
    0.3678039014339447,
    0.500666081905365,
    -0.4932416081428528,
    -0.4353603422641754,
    0.4013617932796478,
    -0.6095234155654907,
    -0.9655751585960388,
    -0.6195626258850098,
    0.09076161682605743,
    -0.10362411290407181,
    1.3028897047042847,
    0.7952114939689636,
    0.48115846514701843,
    0.49372440576553345,
    -0.040227748453617096,
    0.18751220405101776,
    1.052181363105774,
    0.2694251239299774,
    0.12060651928186417,
    -0.7553624510765076,
    0.8434984683990479,
    0.0014976400416344404,
    -0.2135903239250183,
    -0.11573731154203415,
    -0.7439324855804443,
    0.6232690215110779,
    -0.07244230806827545,
    1.1960349082946777,
    -0.31061944365501404,
    -0.28846850991249084,
    0.13179920613765717,
    -0.5592226386070251,
    -0.27286970615386963,
    -0.44978803396224976,
    -0.8682004809379578,
    0.9681512117385864,
    -0.04650775343179703,
    0.33599430322647095,
    0.6605170965194702,
    -0.7755301594734192,
    0.30409422516822815,
    -0.37183138728141785,
    -0.027560699731111526,
    -0.03992212936282158,
    1.072235345840454,
    0.6760859489440918,
    0.9521962404251099,
    0.13103172183036804,
    0.47501060366630554,
    0.3315568268299103,
    -1.014472484588623,
    -0.23187139630317688,
    -0.1262376457452774,
    1.249703288078308,
    0.4792490601539612,
    -0.792323648929596,
    2.12349271774292,
    -0.31677454710006714,
    -1.1467406749725342,
    1.507986307144165,
    -1.556458830833435,
    -0.7727682590484619,
    1.256111741065979,
    -0.5804529786109924,
    -1.0154094696044922,
    -0.3983629643917084,
    -2.2740378379821777,
    -2.1065750122070312,
    -1.1332037448883057,
    -0.9803800582885742,
    -3.88460373878479,
    -1.474554181098938,
    2.0854389667510986,
    1.5330179929733276,
    0.9934709668159485,
    -0.8990026116371155,
    1.3602567911148071,
    -0.8225193023681641,
    2.373486280441284,
    1.716517448425293,
    -1.1141138076782227,
    -1.0475367307662964,
    -0.0002339298080187291,
    1.3451100587844849,
    0.6543179750442505,
    -2.207794427871704,
    -0.9864770174026489,
    3.0808663368225098,
    0.1340598464012146,
    2.2175986766815186,
    -2.2548038959503174,
    0.3450540602207184,
    -2.8850650787353516,
    1.4684505462646484,
    0.1477559208869934,
    -1.309730052947998,
    -0.7236967086791992,
    -0.5852800607681274,
    -0.17282359302043915,
    0.22796136140823364,
    1.4061697721481323,
    -1.711817979812622,
    1.7548861503601074,
    -1.7224596738815308,
    -1.235632061958313,
    1.2411307096481323,
    -1.3196073770523071,
    -0.9845477342605591,
    -0.6696617007255554,
    -1.1771032810211182,
    2.712372303009033,
    0.042326655238866806,
    1.9612845182418823,
    -1.8879507780075073,
    0.43301209807395935,
    0.8235008120536804,
    -0.25545960664749146,
    0.3822826147079468,
    -0.26009345054626465,
    0.9750332236289978,
    -0.24553032219409943,
    -0.22232522070407867,
    0.06231844052672386,
    -0.24833311140537262,
    0.2893785536289215,
    0.6828563809394836,
    -0.50150066614151,
    0.12147206813097,
    0.1452745944261551,
    -0.37415841221809387,
    1.2413609027862549,
    0.7540176510810852,
    0.2814522683620453,
    0.7059488296508789,
    -1.4046367406845093,
    1.3179067373275757,
    -0.3406431972980499,
    -0.5029699802398682,
    -0.5107990503311157,
    0.4146727919578552,
    0.013915705494582653,
    0.417866051197052,
    -0.3154166340827942,
    -0.4523061513900757,
    -0.16290628910064697,
    0.38001349568367004,
    -0.7207733392715454,
    -0.19200345873832703,
    -0.46679648756980896,
    1.1522862911224365,
    0.7708246111869812,
    0.3078173100948334,
    0.519217848777771,
    -0.6041531562805176,
    1.1145800352096558,
    -0.6118815541267395,
    -1.113280177116394,
    -0.6055163741111755,
    0.156978040933609,
    0.6967686414718628,
    0.2156105786561966,
    0.6892539262771606,
    0.7236341834068298,
    -0.40879732370376587,
    -0.8360721468925476,
    -0.44924986362457275,
    -0.9684208035469055,
    0.6740309000015259,
    0.39330586791038513,
    -0.3677637577056885,
    0.35412833094596863,
    0.5448893904685974,
    -0.017927084118127823,
    0.24125036597251892,
    -0.042596980929374695,
    0.035342987626791,
    -0.8288707137107849,
    0.7198736667633057,
    0.1511269360780716,
    0.6323447823524475,
    0.15646816790103912,
    0.2963126301765442,
    1.0908453464508057,
    -0.8093899488449097,
    0.7786741256713867,
    -0.2798013389110565,
    -0.14041224122047424,
    0.8409305214881897,
    -0.932826042175293,
    -0.45959237217903137,
    0.9085037112236023,
    0.1450570821762085,
    0.23800446093082428,
    0.0800185427069664,
    -1.5133469104766846,
    -1.2799546718597412,
    -0.4400489032268524,
    -0.8029485940933228,
    -3.6835267543792725,
    -1.4865738153457642,
    0.9662123322486877,
    0.2387934774160385,
    0.8841831684112549,
    -0.26592370867729187,
    0.3443225622177124,
    -0.35297808051109314,
    1.2278438806533813,
    0.7056070566177368,
    -0.6617118716239929,
    -0.6470405459403992,
    -0.8983113169670105,
    0.8265985250473022,
    0.6847245097160339,
    -1.1571890115737915,
    0.41215384006500244,
    1.8633288145065308,
    0.23003599047660828,
    1.0573344230651855,
    -0.7706705927848816,
    0.9676363468170166,
    -2.610222101211548,
    0.8586876392364502,
    0.5005245804786682,
    -0.8016422390937805,
    -0.6088821887969971,
    -0.4796568751335144,
    -0.07090417295694351,
    0.21363966166973114,
    1.1069384813308716,
    -0.3018243610858917,
    0.7250984311103821,
    -0.5378685593605042,
    -0.20895206928253174,
    0.35075709223747253,
    -0.7925938963890076,
    0.09961069375276566,
    -0.6811372637748718,
    -0.600878119468689,
    1.4115283489227295,
    -0.18852218985557556,
    0.6369426250457764,
    -1.3436096906661987,
    0.23031024634838104,
    0.12811574339866638,
    0.043394722044467926,
    -0.16139373183250427,
    0.1099184975028038,
    0.22505684196949005,
    -0.1529083102941513,
    0.4024565815925598,
    -0.03894486650824547,
    0.03918755054473877,
    1.2032082080841064,
    0.15355105698108673,
    -0.16358423233032227,
    0.10337471961975098,
    -0.13987216353416443,
    0.9714660048484802,
    0.49142491817474365,
    0.07246985286474228,
    -0.09909872710704803,
    -0.06003511697053909,
    -0.030261967331171036,
    0.895004153251648,
    -0.2230948805809021,
    0.2561551332473755,
    0.23469944298267365,
    0.4961807429790497,
    0.6092094779014587,
    -0.01339742448180914,
    -0.08417849242687225,
    0.020401787012815475,
    -0.3384506106376648,
    0.4760917127132416,
    -0.15828675031661987,
    0.010844187811017036,
    0.0047128526493906975,
    0.8415887355804443,
    0.17527303099632263,
    -0.2802990674972534,
    -0.354465514421463,
    -0.30070045590400696,
    1.1967105865478516,
    0.06744051724672318,
    -0.020139774307608604,
    -0.14754964411258698,
    1.027760624885559,
    0.013783842325210571,
    -0.6490408778190613,
    0.4784865975379944,
    -0.13019198179244995,
    -0.081771619617939,
    0.31212562322616577,
    0.7196008563041687,
    0.14299848675727844,
    -0.33043330907821655,
    0.03457172214984894,
    -0.017980024218559265,
    0.9213690161705017,
    -0.03577049821615219,
    0.5157816410064697,
    0.5754116773605347,
    -0.21574550867080688,
    -0.12819132208824158,
    0.2579936683177948,
    0.9424003958702087,
    0.3447798192501068,
    1.2850993871688843,
    -0.006014514714479446,
    0.03941890969872475,
    0.6487489342689514,
    0.2116221934556961,
    -0.6538140177726746,
    -0.12861917912960052,
    -1.1545076370239258,
    -0.9483579993247986,
    -0.1445719450712204,
    0.25760501623153687,
    -1.6628925800323486,
    0.13470475375652313,
    0.2280111461877823,
    -0.3842547833919525,
    0.4432883560657501,
    0.756062924861908,
    -0.7296900153160095,
    -0.07070516049861908,
    1.4193514585494995,
    -0.5777525901794434,
    -0.5755581259727478,
    -0.6510635614395142,
    -0.9882174730300903,
    0.21288534998893738,
    -0.10166559368371964,
    -0.08963082730770111,
    -0.36229896545410156,
    -0.18083955347537994,
    -1.1458834409713745,
    0.08164311200380325,
    -0.5212754011154175,
    -0.818866491317749,
    0.3170938789844513,
    -0.1773860901594162,
    0.5773217678070068,
    -1.2978074550628662,
    -0.5306324362754822,
    -0.2599616050720215,
    -0.20487748086452484,
    -0.9961605072021484,
    1.0023125410079956,
    -0.39163604378700256,
    -0.4030383825302124,
    -0.3471421003341675,
    0.05728873983025551,
    -0.05371417477726936,
    0.31140244007110596,
    0.5249807238578796,
    1.3710657358169556,
    0.17251470685005188,
    -1.0759704113006592,
    0.15034258365631104,
    0.2182704359292984,
    -0.1268758475780487,
    0.4454825520515442,
    -0.11789935827255249,
    -0.07202208787202835,
    -0.037134766578674316,
    1.4172581434249878,
    0.010866312310099602,
    -0.9232348799705505,
