{
  "datetime": "Fri Jul  2 03:55:15 2021",
  "generation_number": 32,
  "parent_count": 10,
  "population_size": 20,
  "parent_weights": [
    [
      -0.7848008871078491,
      -0.1996975988149643,
      0.12932857871055603,
      0.09117592871189117,
      -0.7595810294151306,
      0.08568831533193588,
      0.5231696367263794,
      -1.0013667345046997,
      -0.26222145557403564,
      -0.830754816532135,
      0.552685022354126,
      0.9498758316040039,
      -0.944826602935791,
      -0.1468462347984314,
      -0.09652554988861084,
      0.5443671941757202,
      0.71671062707901,
      -1.3601224422454834,
      -1.4864957332611084,
      -0.5216537714004517,
      0.244301438331604,
      -1.155001163482666,
      -0.6697006821632385,
      0.36213481426239014,
      -0.48173290491104126,
      -0.0866028219461441,
      -0.8779690861701965,
      -0.7588942050933838,
      -0.5922496914863586,
      0.7279232144355774,
      -0.5123869776725769,
      0.548263430595398,
      0.8127149939537048,
      -1.932359218597412,
      0.14300082623958588,
      0.6101511716842651,
      0.21467649936676025,
      -0.19937925040721893,
      1.2615675926208496,
      -0.848981499671936,
      -0.32045978307724,
      -0.8328676223754883,
      0.37809550762176514,
      0.6651381850242615,
      -0.24696296453475952,
      0.5944972634315491,
      1.4325796365737915,
      0.23708386719226837,
      -0.006689459551125765,
      -1.6836495399475098,
      0.5742387175559998,
      -0.24658922851085663,
      -0.3951955735683441,
      0.3559841513633728,
      -0.9750821590423584,
      -1.440855860710144,
      0.17330141365528107,
      1.4791537523269653,
      -0.9882237911224365,
      -0.34851083159446716,
      0.3637159466743469,
      -0.9041866660118103,
      0.751729428768158,
      1.4430795907974243,
      0.4841996133327484,
      -1.3702110052108765,
      0.18561697006225586,
      0.022355033084750175,
      -0.07065579295158386,
      0.317623108625412,
      -1.2495993375778198,
      1.1269385814666748,
      -0.24793320894241333,
      0.44356226921081543,
      -0.686333179473877,
      -0.7227305173873901,
      -0.518157422542572,
      -1.4333553314208984,
      0.5030226707458496,
      -0.598186194896698,
      -0.15675508975982666,
      0.2255285531282425,
      0.570189356803894,
      0.6009982824325562,
      -1.112592339515686,
      -0.42078667879104614,
      -0.08759188652038574,
      -0.8610911965370178,
      -1.1455248594284058,
      -0.4863607585430145,
      -0.2884369492530823,
      -0.31339773535728455,
      -0.0699324756860733,
      0.39461714029312134,
      0.3085207939147949,
      -1.055580496788025,
      -0.11338462680578232,
      -0.8551429510116577,
      -0.8681120276451111,
      -1.314972162246704,
      0.4657171070575714,
      -0.24873529374599457,
      -0.6809935569763184,
      -1.0770200490951538,
      -0.6368612051010132,
      -0.38141611218452454,
      0.2923509478569031,
      -0.5654690265655518,
      -0.07752131670713425,
      0.3888206481933594,
      0.29049593210220337,
      1.7395671606063843,
      0.26007160544395447,
      -0.25786060094833374,
      0.5828747153282166,
      1.204561471939087,
      -0.6567369699478149,
      0.9151440262794495,
      -1.1225990056991577,
      -0.12716396152973175,
      -1.2488833665847778,
      0.03129308298230171,
      0.5969790816307068,
      -0.2732471823692322,
      -0.18180041015148163,
      -0.2246006578207016,
      0.28374791145324707,
      0.696144700050354,
      1.5494567155838013,
      -0.20165394246578217,
      0.633303701877594,
      0.2983381450176239,
      -1.2568684816360474,
      -0.6781651377677917,
      1.1305934190750122,
      0.8462277054786682,
      0.08295662701129913,
      1.036813497543335,
      1.2351309061050415,
      0.003144464921206236,
      -0.018806029111146927,
      -0.8482666611671448,
      1.3716912269592285,
      -1.376266360282898,
      0.12663456797599792,
      -0.6193233728408813,
      0.7801119089126587,
      1.0834240913391113,
      -0.7461313009262085,
      1.0598987340927124,
      0.7673518061637878,
      1.0377366542816162,
      -0.15403667092323303,
      -1.7252633571624756,
      0.18878574669361115,
      0.9128262400627136,
      -1.0890331268310547,
      0.5870305895805359,
      -0.3149731159210205,
      -0.2758723497390747,
      -0.9424400925636292,
      -1.3402624130249023,
      -1.4377611875534058,
      -2.229038715362549,
      0.05910171940922737,
      -0.13673168420791626,
      -0.8456969261169434,
      -0.4944903552532196,
      0.4151381850242615,
      -0.1290953904390335,
      0.8325427174568176,
      -0.44704508781433105,
      1.1616445779800415,
      0.8582280874252319,
      0.6459779739379883,
      -0.5195422768592834,
      0.5930038690567017,
      -0.459947407245636,
      -0.7317477464675903,
      -0.3971649408340454,
      0.6027776002883911,
      0.5760664343833923,
      -0.7935940623283386,
      -0.701252818107605,
      -1.5726670026779175,
      0.12481699138879776,
      0.7714728713035583,
      -0.0059923091903328896,
      -0.008178211748600006,
      -0.34480464458465576,
      -0.10189203172922134,
      -0.27914345264434814,
      -0.7609036564826965,
      0.6859885454177856,
      -0.6344181299209595,
      0.5199512243270874,
      -0.20678427815437317,
      -0.30072125792503357,
      0.5273152589797974,
      0.31594473123550415,
      -0.23836174607276917,
      1.1227867603302002,
      0.1264648735523224,
      -0.2821260094642639,
      -0.23444697260856628,
      0.08197274804115295,
      0.12292838096618652,
      0.7690528035163879,
      0.6287776231765747,
      0.8566672205924988,
      0.8092102408409119,
      -1.158284306526184,
      -0.6162257194519043,
      -1.1203666925430298,
      0.5930208563804626,
      -1.4175182580947876,
      1.0162856578826904,
      0.2584649920463562,
      -0.16829387843608856,
      0.663490891456604,
      -0.37030431628227234,
      1.0118614435195923,
      -0.7380868196487427,
      0.04522216320037842,
      -0.884215772151947,
      1.1508715152740479,
      -0.2855021059513092,
      -1.9794186353683472,
      -0.25995323061943054,
      0.1771947741508484,
      -0.026358360424637794,
      0.3027307093143463,
      -1.073994755744934,
      -0.22040945291519165,
      1.02863609790802,
      -0.10686129331588745,
      1.013715386390686,
      0.5478551387786865,
      1.183941125869751,
      1.424009919166565,
      0.024940183386206627,
      -0.5793720483779907,
      -0.26740968227386475,
      -0.8209488987922668,
      -0.06501025706529617,
      0.3746791183948517,
      -0.9057862758636475,
      0.5565715432167053,
      0.054687101393938065,
      0.5764068961143494,
      1.1475926637649536,
      -0.01366866659373045,
      1.022731900215149,
      0.024457836523652077,
      0.5354211926460266,
      -0.4018928110599518,
      0.4874267578125,
      1.0059252977371216,
      0.354432612657547,
      0.03741754963994026,
      1.0456069707870483,
      -0.48601406812667847,
      -0.6020246148109436,
      -0.7322207093238831,
      0.5789610743522644,
      0.14783956110477448,
      0.6737974882125854,
      -0.08545751124620438,
      -0.610883891582489,
      1.3439885377883911,
      -0.5636178255081177,
      -0.4581730365753174,
      -0.24070820212364197,
      -0.2812941074371338,
      -0.636760413646698,
      -0.32892897725105286,
      -0.09409041702747345,
      0.3530678451061249,
      -0.9006495475769043,
      -0.2440604865550995,
      0.22515296936035156,
      0.21028105914592743,
      -0.5791129469871521,
      0.1539585441350937,
      0.15906503796577454,
      -0.23867332935333252,
      0.17542226612567902,
      -0.43134158849716187,
      1.0363094806671143,
      0.9026457071304321,
      0.8904593586921692,
      0.7015535831451416,
      0.2968636155128479,
      -0.20928162336349487,
      -1.2535001039505005,
      1.4246126413345337,
      -0.9694839119911194,
      -0.6384488940238953,
      1.2439026832580566,
      -0.6764937043190002,
      -0.7481684684753418,
      -0.3933265805244446,
      -0.06791306287050247,
      0.18842309713363647,
      -0.09053444117307663,
      0.17044326663017273,
      0.14344283938407898,
      0.0008541602292098105,
      0.036802198737859726,
      -0.4184228181838989,
      -0.4229521155357361,
      0.031059809029102325,
      -0.7010035514831543,
      0.6250191330909729,
      -1.2012860774993896,
      -0.04740436002612114,
      0.5258017182350159,
      1.10147225856781,
      0.11858189851045609,
      -0.8017717599868774,
      -0.48426175117492676,
      -1.1422415971755981,
      -0.8366866111755371,
      -0.3113700747489929,
      -0.9085082411766052,
      0.20456604659557343,
      -1.1708287000656128,
      0.25860461592674255,
      -0.6071000099182129,
      0.16864874958992004,
      -0.5851541757583618,
      0.7208144068717957,
      0.015478745102882385,
      0.6755325794219971,
      -0.14715386927127838,
      -0.2010299265384674,
      -0.30450406670570374,
      0.39557531476020813,
      0.23022636771202087,
      1.148612141609192,
      1.1225085258483887,
      -0.8357548713684082,
      0.8288589715957642,
      0.7457775473594666,
      1.055772066116333,
      -0.2912854850292206,
      -0.9030476808547974,
      -0.41420018672943115,
      0.08533655852079391,
      -0.659726083278656,
      0.24338816106319427,
      0.1436624526977539,
      -0.305648535490036,
      -1.24042809009552,
      -0.6237407326698303,
      -0.9800453186035156,
      -1.0302822589874268,
      1.0063022375106812,
      0.8720591068267822,
      -0.3076763153076172,
      0.567444920539856,
      -1.1112431287765503,
      0.879669725894928,
      -1.3350785970687866,
      0.5155079960823059,
      -1.3988394737243652,
      -0.25593945384025574,
      1.889078974723816,
      1.214816927909851,
      0.3924858868122101,
      -1.0257911682128906,
      0.2498771697282791,
      -0.9157867431640625,
      -0.17745482921600342,
      -0.7644956707954407,
      0.05730273202061653,
      0.5802432894706726,
      -1.4021559953689575,
      0.00987895019352436,
      1.6419270038604736,
      -0.10884449630975723,
      0.5319053530693054,
      -0.005278158001601696,
      0.299251526594162,
      0.034335263073444366,
      -0.3049625754356384,
      -0.4481744170188904,
      0.6899843215942383,
      0.2966797649860382,
      0.6846088171005249,
      -0.4099947214126587,
      1.1632263660430908,
      0.6387032270431519,
      0.7592582702636719,
      0.4070255160331726,
      -1.0560190677642822,
      0.6792857050895691,
      -0.0611819326877594,
      -0.7206262350082397,
      0.1909509152173996,
      0.7146189212799072,
      0.9933300018310547,
      0.9888522624969482,
      0.11975482851266861,
      0.6325652599334717,
      -0.0786304846405983,
      0.8400589823722839,
      -0.5672870874404907,
      1.224995732307434,
      0.9694374203681946,
      -1.7374457120895386,
      -0.736304759979248,
      0.7037479877471924,
      0.865190327167511,
      -1.263893723487854,
      0.6736727356910706,
      -0.19501471519470215,
      0.4529997408390045,
      0.6480239033699036,
      -0.6048958897590637,
      -0.05664575472474098,
      0.7697288990020752,
      0.22758841514587402,
      -0.31748244166374207,
      0.7743113040924072,
      -1.813260555267334,
      0.3878948986530304,
      -0.7615980505943298,
      0.5791524052619934,
      0.11835179477930069,
      -0.34758880734443665,
      0.8129386305809021,
      1.254671335220337,
      0.24184945225715637,
      -1.4391361474990845,
      -0.7303302884101868,
      -0.010824905708432198,
      -2.0387766361236572,
      -0.038354355841875076,
      -0.081170454621315,
      0.22715406119823456,
      -2.1079041957855225,
      0.22898359596729279,
      -0.21542315185070038,
      0.7624480128288269,
      1.1209837198257446,
      -0.6860518455505371,
      -0.40903177857398987,
      -0.32935619354248047,
      0.5088845491409302,
      -0.6245795488357544,
      -0.3345300257205963,
      -0.10016340017318726,
      -0.3547215759754181,
      0.16687296330928802,
      -1.603500485420227,
      -0.7170895338058472,
      -0.26059624552726746,
      0.9136969447135925,
      0.12642702460289001,
      -0.2282913625240326,
      -0.39376917481422424,
      1.561216950416565,
      1.2444405555725098,
      -0.30558496713638306,
      -0.5791681408882141,
      -1.1772505044937134,
      0.5951671600341797,
      0.8263596892356873,
      -0.2553032338619232,
      -1.4523829221725464,
      -0.9577586054801941,
      1.443772554397583,
      -0.3744276463985443,
      -0.029719781130552292,
      -1.1358702182769775,
      0.4480333924293518,
      -0.5577352046966553,
      0.08783534169197083,
      0.2793338894844055,
      -0.3301374912261963,
      -0.059162985533475876,
      -0.32674509286880493,
      0.3606317341327667,
      0.501423180103302,
      0.836120069026947,
      -0.21606312692165375,
      0.8156211376190186,
      -0.024382151663303375,
      -0.45847827196121216,
      -1.2706140279769897,
      0.12844239175319672,
      0.16482284665107727,
      -0.4678209125995636,
      0.13813339173793793,
      0.5564079284667969,
      0.777349054813385,
      -0.14261889457702637,
      0.4068557620048523,
      -1.545667290687561,
      -0.419340044260025,
      -1.7697290182113647,
      -0.14958630502223969,
      1.0808184146881104,
      0.3466508984565735,
      -1.925878643989563,
      -0.4776606559753418,
      0.6729718446731567,
      -0.0828324407339096,
      -0.20726700127124786,
      0.15710248053073883,
      0.6392881870269775,
      0.5818951725959778,
      0.2006453424692154,
      0.31648850440979004,
      0.3911883234977722,
      0.031942956149578094,
      0.5040474534034729,
      -0.4659748375415802,
      0.9816458821296692,
      0.1007089912891388,
      1.276731252670288,
      0.042244803160429,
      -0.8063693642616272,
      0.48087364435195923,
      0.9012706279754639,
      -0.23967574536800385,
      -0.22254285216331482,
      0.052667323499917984,
      0.38644275069236755,
      0.29720792174339294,
      -1.2536207437515259,
      -0.09628036618232727,
      0.6484493613243103,
      0.638213574886322,
      0.6451845169067383,
      0.6217325329780579,
      0.8164377808570862,
      0.14985646307468414,
      -1.4871574640274048,
      0.7238848209381104,
      0.6280875205993652,
      1.192788004875183,
      -0.5476570725440979,
      1.0859665870666504,
      0.3030742406845093,
      -0.09081932157278061,
      -0.2317337542772293,
      -1.007590413093567,
      0.2962188124656677,
      -1.166245460510254,
      -0.6228576898574829,
      0.35172298550605774,
      0.12576986849308014,
      -0.4264066815376282,
      0.3955530524253845,
      0.37394702434539795,
      0.7933194041252136,
      -0.957513689994812,
      0.19798007607460022,
      1.0540109872817993,
      0.24799199402332306,
      -0.46956953406333923,
      1.2615797519683838,
      -0.6317312121391296,
      -0.9847964644432068,
      0.44357290863990784,
      0.15607571601867676,
      -0.08423133939504623,
      -0.2849140763282776,
      0.8774639964103699,
      0.4844066798686981,
      0.9247833490371704,
      1.0645580291748047,
      -0.4463365077972412,
      -0.9761489033699036,
      -0.9267085194587708,
      0.6299269795417786,
      -0.8395683765411377,
      0.5247802734375,
      -0.4076993763446808,
      0.3045637905597687,
      0.6610851287841797,
      -0.07775557041168213,
      0.5786367654800415,
      0.02583521604537964,
      0.6925784945487976,
      0.1060044914484024,
      0.13379716873168945,
      0.23236553370952606,
      -1.7473864555358887,
      -1.3433128595352173,
      -0.046650584787130356,
      0.7765945196151733,
      0.3368534445762634,
      -1.3503001928329468,
      0.10314556956291199,
      0.4664369523525238,
      0.5897181630134583,
      0.20493248105049133,
      0.5735172629356384,
      -0.35465705394744873,
      0.48060181736946106,
      0.5189840793609619,
      0.2939981520175934,
      -0.8866043090820312,
      0.018740102648735046,
      0.11691995710134506,
      0.2882919907569885,
      -0.27423012256622314,
      0.05321556702256203,
      -0.5044339895248413,
      -0.316732794046402,
      -0.28735703229904175,
      -0.22833123803138733,
      -0.19266445934772491,
      0.16953100264072418,
      0.1756611466407776,
      -0.09861753135919571,
      -0.20508013665676117,
      -1.1080952882766724,
      0.585611879825592,
      -0.8073098659515381,
      -0.4660443663597107,
      0.06811108440160751,
      -0.5985288023948669,
      0.05257778614759445,
      -0.06613948941230774,
      -1.0172829627990723,
      0.4325317144393921,
      0.5392645001411438,
      0.09298878163099289,
      -1.4768613576889038,
      -0.0957140326499939,
      0.91029953956604,
      0.25435250997543335,
      0.44097352027893066,
      0.06832459568977356,
      -1.2743152379989624,
      -0.0069364747032523155,
      -0.44209742546081543,
      -0.032561711966991425,
      0.228798508644104,
      -0.43907636404037476,
      0.49673211574554443,
      0.8703047633171082,
      -0.8560602068901062,
      -1.1210721731185913,
      0.5961552262306213,
      -2.0905864238739014,
      -0.6752079725265503,
      0.9607402682304382,
      1.3356853723526,
      0.8059452772140503,
      -0.35174742341041565,
      0.7584967613220215,
      -0.11098946630954742,
      -0.8430902361869812,
      -0.4124455153942108,
      0.6824167966842651,
      0.7070037126541138,
      0.5311768651008606,
      -0.14276795089244843,
      0.373375803232193,
      -0.20310668647289276,
      -0.08575480431318283,
      -0.3283226490020752,
      -0.7522470951080322,
      0.25282198190689087,
      -1.78416907787323,
      -0.7548806071281433,
      1.0282175540924072,
      0.7253560423851013,
      -1.0621167421340942,
      -0.22150936722755432,
      1.3274673223495483,
      0.01634502224624157,
      0.06238951534032822,
      0.9790563583374023,
      0.5940703749656677,
      0.4180290699005127,
      0.8610600233078003,
      -0.01251177117228508,
      0.7858636975288391,
      -0.6062875986099243,
      -0.9327750205993652,
      -0.7998148798942566,
      0.15415059030056,
      -0.6650052666664124,
      0.6156221628189087,
      -0.16434450447559357,
      0.5926137566566467,
      0.4199437201023102,
      1.444828987121582,
      1.7184009552001953,
      0.013781953603029251,
      0.6860665678977966,
      1.0962327718734741,
      0.34899213910102844,
      0.22106525301933289,
      0.7344399690628052,
      0.032712556421756744,
      -0.11657626926898956,
      -0.7546300888061523,
      -0.21912690997123718,
      0.2379862666130066,
      0.4100320637226105,
      0.2015116661787033,
      -0.007389809004962444,
      0.5161955952644348,
      -0.14159484207630157,
      0.7246596813201904,
      -0.08342400938272476,
      0.5622740387916565,
      -1.0062580108642578,
      -0.3558809757232666,
      -0.38390377163887024,
      -0.6383001208305359,
      0.015578015707433224,
      0.5895678997039795,
      0.40894830226898193,
      -0.255196750164032,
      -0.3552819490432739,
      -0.31717774271965027,
      0.6003609299659729,
      0.18350370228290558,
      -0.46623918414115906,
      -0.23297454416751862,
      -0.7505210638046265,
      0.21152979135513306,
      -0.33635321259498596,
      0.4777865707874298,
      -1.035420536994934,
      0.3835096061229706,
      0.8307338953018188,
      0.05291731283068657,
      0.34968820214271545,
      -0.6577450633049011,
      -0.22647643089294434,
      0.9914894104003906,
      1.0208113193511963,
      0.22908273339271545,
      0.16086161136627197,
      -0.560364842414856,
      0.9290067553520203,
      -0.047031618654727936,
      -0.5884237289428711,
      0.9397403597831726,
      -0.293426513671875,
      -0.4401204288005829,
      -0.912704586982727,
      -0.6688035130500793,
      0.18434232473373413,
      0.774409294128418,
      -0.8248434662818909,
      0.49483415484428406,
      0.46252745389938354,
      -0.05530904605984688,
      0.0768432766199112,
      -0.6920138001441956,
      -0.16464389860630035,
      0.15866801142692566,
      -0.20029941201210022,
      -0.03146699070930481,
      0.04304446652531624,
      -0.400439977645874,
      -0.1293565034866333,
      0.6139910221099854,
      0.21176597476005554,
      -0.8110898733139038,
      -1.1094558238983154,
      0.6227352023124695,
      0.6434623599052429,
      1.5196194648742676,
      0.5556563138961792,
      0.34348228573799133,
      0.39085811376571655,
      0.6122514605522156,
      -0.3118734061717987,
      0.12685474753379822,
      -0.814647912979126,
      -0.9319843649864197,
      0.47944411635398865,
      -0.4726502001285553,
      1.1146819591522217,
      0.827758252620697,
      -0.41932544112205505,
      -0.10306763648986816,
      0.5164859890937805,
      -0.5966885089874268,
      -1.7466591596603394,
      -0.3290777802467346,
      -0.6880519986152649,
      1.085371494293213,
      -0.5606667399406433,
      0.4379981458187103,
      0.5735965371131897,
      -0.15678413212299347,
      0.9539449214935303,
      1.083325982093811,
      0.16993418335914612,
      -1.017831802368164,
      -0.01970088481903076,
      1.2517509460449219,
      1.0282368659973145,
      -0.19637298583984375,
      0.6645893454551697,
      -0.8976452350616455,
      0.7060129642486572,
      -0.30382317304611206,
      -0.544982373714447,
      0.6038981080055237,
      0.7232365012168884,
      -0.5625952482223511,
      0.818225622177124,
      -0.5275126695632935,
      0.6036872267723083,
      1.289483904838562,
      0.12950384616851807,
      0.9143412709236145,
      -0.8005993366241455,
      -0.5106247067451477,
      -0.0274026058614254,
      -0.18078675866127014,
      0.22907720506191254,
      -0.39623385667800903,
      0.07433327287435532,
      0.6951245069503784,
      -1.219747543334961,
      -0.14008815586566925,
      1.0585166215896606,
      0.7660354375839233,
      0.1623595505952835,
      0.4346805810928345,
      0.9382627010345459,
      0.017614232376217842,
      -1.280874252319336,
      -0.7395431995391846,
      0.3341502249240875,
      0.7572809457778931,
      -0.8040751218795776,
      -0.6315804123878479,
      -0.2519108057022095,
      0.5265264511108398,
      0.4119664430618286,
      -0.35779035091400146,
      0.04420819133520126,
      -0.5206239223480225,
      1.0498554706573486,
      -0.8179572224617004,
      -0.5391541719436646,
      -0.5866790413856506,
      -0.281188428401947,
      -0.17087829113006592,
      0.40414053201675415,
      -0.6929633021354675,
      -0.640423595905304,
      -0.28451281785964966,
      0.16499921679496765,
      -0.76032954454422,
      0.3630843758583069,
      -1.2148174047470093,
      -0.3388805687427521,
      0.23960834741592407,
      -0.3768213391304016,
      0.18116898834705353,
      0.2953651547431946,
      0.731578528881073,
      0.05766637250781059,
      -0.795805811882019,
      -1.0291022062301636,
      0.01751592382788658,
      -0.0462055578827858,
      -0.4767230749130249,
      -0.597352147102356,
      0.1086210235953331,
      -0.39233043789863586,
      0.4900921881198883,
      0.620614767074585,
      0.7839462757110596,
      -0.23696269094944,
      0.266808420419693,
      -0.37399184703826904,
      0.611130952835083,
      0.1643684208393097,
      0.46081238985061646,
      -0.053266607224941254,
      -0.05816818028688431,
      -0.3981998562812805,
      -1.0656458139419556,
      -0.3354695439338684,
      0.3171287775039673,
      -0.21988123655319214,
      -0.08369346708059311,
      1.1085575819015503,
      0.5264610648155212,
      0.24044963717460632,
      -1.3824408054351807,
      0.1777154952287674,
      -1.420511245727539,
      0.6924158334732056,
      0.40896180272102356,
      0.48759591579437256,
      0.5002630352973938,
      0.6641335487365723,
      0.6866781115531921,
      0.8481342196464539,
      0.5524967908859253,
      0.30751076340675354,
      0.05210229009389877,
      1.1041241884231567,
      -0.7360021471977234,
      -1.278720498085022,
      0.8852198123931885,
      0.8255032896995544,
      -0.19056013226509094,
      -1.2623368501663208,
      1.349707841873169,
      -0.2885373830795288,
      -0.34056779742240906,
      -0.9217706322669983,
      -0.17682231962680817,
      0.23722611367702484,
      0.9438889622688293,
      -0.5227921605110168,
      0.37903231382369995,
      1.436390995979309,
      -0.10256526619195938,
      0.5713692307472229,
      0.49387994408607483,
      0.5779241919517517,
      0.5913063287734985,
      -0.8555911183357239,
      -0.650942325592041,
      0.06311190128326416,
      1.4922611713409424,
      -1.0173600912094116,
      1.1044378280639648,
      0.8432627320289612,
      -0.82692950963974,
      0.7569077610969543,
      0.5413572788238525,
      0.15404470264911652,
      -0.7671065926551819,
      -1.7657569646835327,
      0.48595061898231506,
      0.5369688868522644,
      1.1550589799880981,
      0.8325694799423218,
      0.21152879297733307,
      -0.03557880222797394,
      0.11526410281658173,
      0.13375870883464813,
      0.5258573889732361,
      0.7451117634773254,
      -0.5453193187713623,
      -0.4296860992908478,
      -0.057193782180547714,
      1.0285371541976929,
      -0.7664344310760498,
      0.5811159014701843,
      0.2738431692123413,
      -0.7026346921920776,
      0.8019210696220398,
      0.2977868914604187,
      0.13779990375041962,
      0.095395028591156,
      -0.14952605962753296,
      -0.10001038759946823,
      0.7101464867591858,
      0.23389238119125366,
      -0.13919703662395477,
      -0.3031949996948242,
      0.8268875479698181,
      0.21183235943317413,
      0.47070029377937317,
      -0.3331437408924103,
      -0.4608084261417389,
      0.6308757066726685,
      0.6877558827400208,
      -0.5026470422744751,
      -1.1674383878707886,
      0.4287169575691223,
      1.2145931720733643,
      0.4352414309978485,
      0.0829017385840416,
      -0.11720962822437286,
      0.06964436918497086,
      -0.5860247015953064,
      0.7224404215812683,
      1.222009301185608,
      0.4481581747531891,
      -0.6185308694839478,
      0.22336621582508087,
      0.2901689410209656,
      0.5625685453414917,
      0.10390433669090271,
      0.14665016531944275,
      -0.02939439006149769,
      0.3834952116012573,
      0.14903125166893005,
      -0.20771905779838562,
      0.8123286366462708,
      -0.11260397732257843,
      0.8410425186157227,
      0.6397334933280945,
      0.1067999079823494,
      -0.32254716753959656,
      0.08056005090475082,
      -0.62111496925354,
      -0.9312669038772583,
      -0.12056402117013931,
      1.1165279150009155,
      0.5302721261978149,
      -0.11527470499277115,
      0.3328384757041931,
      0.5970983505249023,
      0.05830933526158333,
      -1.3497337102890015,
      -0.7312204837799072,
      0.15953174233436584,
      0.10009444504976273,
      -1.0885231494903564,
      -0.8871390223503113,
      0.022041495889425278,
      0.41343018412590027,
      0.02658110298216343,
      0.42775076627731323,
      -0.15568116307258606,
      0.2973021864891052,
      -0.830565869808197,
      -0.03861451521515846,
      0.007204084191471338,
      0.5554424524307251,
      0.05961219593882561,
      -1.0080053806304932,
      -0.30493831634521484,
      0.20796343684196472,
      0.5266844630241394,
      0.7389945387840271,
      -0.12678663432598114,
      0.227519229054451,
      0.9974009990692139,
      -0.17281456291675568,
      -0.02127169445157051,
      0.44370707869529724,
      -0.03701592981815338,
      0.1892099380493164,
      -0.41044875979423523,
      -0.8982431292533875,
      0.26969119906425476,
      0.666334331035614,
      0.0596717894077301,
      -0.792017936706543,
      -0.5048694610595703,
      0.3205374479293823,
      0.21155864000320435,
      0.5685946345329285,
      0.014785340055823326,
      0.029456933960318565,
      -0.01771412417292595,
      -0.2793736457824707,
      -0.33391842246055603,
      -0.1489546000957489,
      1.0081082582473755,
      -0.9595194458961487,
      -0.7138848304748535,
      0.5483095049858093,
      -0.00658787414431572,
      -0.6532664895057678,
      -0.2705570459365845,
      0.18706759810447693,
      -0.12445685267448425,
      0.428283154964447,
      -0.3184172511100769,
      1.2352654933929443,
      -0.6619250774383545,
      -0.7169816493988037,
      0.28124839067459106,
      -0.1673450618982315,
      -0.40654289722442627,
      -0.3696899712085724,
      0.9786087870597839,
      -0.6593003273010254,
      0.0956268310546875,
      1.0902100801467896,
      0.16583482921123505,
      0.2714844048023224,
      0.4152158796787262,
      0.3932272791862488,
      -0.4179707169532776,
      -0.5644826889038086,
      0.9628008008003235,
      0.1436246931552887,
      0.08846656233072281,
      0.18567030131816864,
      -1.3596407175064087,
      0.3850002586841583,
      0.3091796934604645,
      0.4921863079071045,
      0.15529504418373108,
      0.2288481593132019,
      -0.0001591592445038259,
      0.17310062050819397,
      -0.13483662903308868,
      -0.2931858003139496,
      -0.03978417441248894,
      0.009962841868400574,
      0.45699626207351685,
      0.19689588248729706,
      -0.49552974104881287,
      -0.175618976354599,
      -0.05502989888191223,
      0.38741517066955566,
      -0.272556334733963,
      0.10332050919532776,
      -0.3361966013908386,
      -0.1965790092945099,
      0.18401385843753815,
      -0.11171837151050568,
      -0.02722690813243389,
      0.15924589335918427,
      -0.21590785682201385,
      0.1158791333436966,
      1.271964192390442,
      -1.1963413953781128,
      0.8096341490745544,
      0.3104390799999237,
      -0.15076428651809692,
      -0.877962052822113,
      0.2260895073413849,
      0.05213203653693199,
      -0.07476077228784561,
      -0.20050837099552155,
      -0.7389940023422241,
      0.008671803399920464,
      0.46269354224205017,
      -0.4885881841182709,
      0.1900089979171753,
      0.12065141648054123,
      -0.8157983422279358,
      0.38465431332588196,
      -0.019952215254306793,
      0.5003093481063843,
      -0.7784584164619446,
      -0.5293607115745544,
      -0.07520537823438644,
      -0.19644023478031158,
      -0.8793781995773315,
      0.32606932520866394,
      -0.1793339103460312,
      -0.1912783980369568,
      -0.23435921967029572,
      1.2746515274047852,
      -0.42635610699653625,
      0.6443672776222229,
      0.4545237421989441,
      0.30556434392929077,
      -0.036469634622335434,
      -0.3244307339191437,
      -0.5477251410484314,
      -0.40639758110046387,
      0.4676669239997864,
      -0.9741846323013306,
      -0.26678526401519775,
      1.0528689622879028,
      0.06143086031079292,
      0.861323893070221,
      -0.1380438655614853,
      -0.48744937777519226,
      -0.2962541878223419,
      0.6939372420310974,
      0.47427672147750854,
      0.4094234108924866,
      -0.8317384719848633,
      0.01676148734986782,
      -0.40853774547576904,
      -1.716993808746338,
      -0.25164923071861267,
      -0.2041705846786499,
      -0.06769400089979172,
      -0.3808724284172058,
      -0.8598594069480896,
      0.13226117193698883,
      0.520449161529541,
      0.030663812533020973,
      0.12845797836780548,
      -0.05407727509737015,
      -0.46027371287345886,
      0.32487186789512634,
      -1.0358905792236328,
      0.8193467259407043,
      -0.276061475276947,
      0.7264089584350586,
      0.051762234419584274,
      1.3531314134597778,
      -0.9417418241500854,
      -0.04536570981144905,
      0.25845643877983093,
      -0.27710622549057007,
      -1.073580026626587,
      0.3599678874015808,
      0.10463813692331314,
      0.592888355255127,
      0.769874095916748,
      -0.5680498480796814,
      0.31012073159217834,
      0.5765253901481628,
      0.7771409153938293,
      -0.3064821660518646,
      0.16862353682518005,
      0.38179999589920044,
      -0.702702522277832,
      -0.09025373309850693,
      -0.2889852225780487,
      0.3027026057243347,
      -0.0850127711892128,
      0.5595722794532776,
      -0.7130907773971558,
      -0.34621337056159973,
      0.37916845083236694,
      0.594903826713562,
      0.23929201066493988,
      0.40002694725990295,
      0.2837699353694916,
      -0.08788697421550751,
      0.06876715272665024,
      0.7544418573379517,
      0.6396245360374451,
      0.34241363406181335,
      -0.6054415106773376,
      0.08207816630601883,
      0.10458322614431381,
      0.35250961780548096,
      0.4693707227706909,
      0.24107645452022552,
      0.3743661046028137,
      0.4410628080368042,
      -0.24440358579158783,
      0.3160487413406372,
      -0.8108603954315186,
      -0.04598395153880119,
      -0.0304318368434906,
      -0.35343384742736816,
      -0.28745222091674805,
      0.24404653906822205,
      0.18534938991069794,
      -0.07199214398860931,
      0.26353177428245544,
      0.16615547239780426,
      -0.3844631314277649,
      0.492333322763443,
      0.2111792117357254,
      0.009431704878807068,
      0.09533993899822235,
      -0.22920101881027222,
      -0.1593223512172699,
      0.3240780830383301,
      -0.31964758038520813,
      0.9435716867446899,
      0.26258084177970886,
      -0.24521960318088531,
      0.4719405472278595,
      -1.1433688402175903,
      0.41403043270111084,
      0.1617891639471054,
      -0.3544670641422272,
      -0.016005679965019226,
      0.8308359384536743,
      0.20774158835411072,
      0.3461953401565552,
      0.1397755891084671,
      0.32314953207969666,
      0.2688432037830353,
      0.01820257492363453,
      -0.14865164458751678,
      0.054772958159446716,
      -0.12379033118486404,
      -0.1515730917453766,
      -0.06484024226665497,
      0.0445084348320961,
      0.34814468026161194,
      0.08853300660848618,
      0.06800258159637451,
      -1.1360554695129395,
      0.3728025555610657,
      -0.24344509840011597,
      0.4311075508594513,
      0.22955064475536346,
      0.3624117076396942,
      1.2715585231781006,
      -0.03589041158556938,
      0.22052088379859924,
      0.900303065776825,
      0.5633130073547363,
      -0.7483235597610474,
      0.54304438829422,
      0.4563049077987671,
      -0.3497271239757538,
      0.38827255368232727,
      0.39318105578422546,
      0.40546783804893494,
      0.3777347505092621,
      -0.6284921169281006,
      -0.2532115578651428,
      0.18368083238601685,
      0.36649957299232483,
      -0.13250833749771118,
      1.1477457284927368,
      0.5307474136352539,
      0.10467410087585449,
      0.5663480162620544,
      -0.09927757829427719,
      1.2231279611587524,
      -0.1617698073387146,
      -0.25108596682548523,
      0.45965373516082764,
      0.13679757714271545,
      0.8773062229156494,
      0.06646127253770828,
      -0.3033062815666199,
      -1.005128264427185,
      0.10450344532728195,
      1.2790329456329346,
      0.30309513211250305,
      0.2924177944660187,
      0.38204529881477356,
      0.1726430207490921,
      0.5867325067520142,
      -0.18079087138175964,
      -0.009775195270776749,
      0.4162295460700989,
      -0.06408456712961197,
      -0.1709405779838562,
      -0.11590343713760376,
      0.17114408314228058,
      0.3490558862686157,
      -0.39954665303230286,
      1.4184205532073975,
      -0.11512483656406403,
      -0.6159806251525879,
      0.03293255716562271,
      -0.2759462296962738,
      0.039937254041433334,
      0.2420232892036438,
      0.050109997391700745,
      0.9083210825920105,
      0.02734861522912979,
      0.24070954322814941,
      -1.0831722021102905,
      0.21380408108234406,
      0.06035076826810837,
      0.197768896818161,
      -0.07485143840312958,
      -0.4428832530975342,
      -0.7751178741455078,
      -0.22262831032276154,
      0.0984874740242958,
      0.5121135711669922,
      0.6383320689201355,
      -0.21363379061222076,
      0.1308443546295166,
      -0.0752733051776886,
      0.3403241038322449,
      -0.46038296818733215,
      -0.9733649492263794,
      -0.5485401153564453,
      -0.7223472595214844,
      -0.10217208415269852,
      0.34039542078971863,
      0.4008832573890686,
      0.22297950088977814,
      -0.2223120480775833,
      0.1949407011270523,
      -0.8977546691894531,
      -0.32220458984375,
      0.24435743689537048,
      -0.8430997133255005,
      0.3669271469116211,
      0.22098170220851898,
      -0.26868534088134766,
      -0.26070085167884827,
      0.1615988314151764,
      0.2678961455821991,
      0.31778958439826965,
      0.07818162441253662,
      -0.5207506418228149,
      0.04252100735902786,
      0.6014916896820068,
      0.10269444435834885,
      0.5597062706947327,
      0.1713828444480896,
      -0.585188627243042,
      0.6526979207992554,
      0.17505846917629242,
      -0.7426508069038391,
      0.041668035089969635,
      0.13092783093452454,
      0.2929404675960541,
      -0.0374106839299202,
      -0.0834064930677414,
      0.4847075045108795,
      0.16413632035255432,
      0.2880338132381439,
      0.3793107271194458,
      -0.36690351366996765,
      -0.030620276927947998,
      0.15507809817790985,
      0.17309898138046265,
      -0.27627599239349365,
      0.14175201952457428,
      -0.843966543674469,
      0.37997007369995117,
      0.26839694380760193,
      0.27705374360084534,
      -0.9694847464561462,
      -0.48163560032844543,
      0.12038076668977737,
      -0.09189210832118988,
      1.13703453540802,
      0.5213225483894348,
      -0.46006256341934204,
      -0.9501749873161316,
      -0.6441600322723389,
      -0.4646933078765869,
      0.9312931895256042,
      0.17333287000656128,
      0.4460357129573822,
      -0.4258210062980652,
      1.041098952293396,
      -0.34749311208724976,
      -0.7393107414245605,
      0.8020142316818237,
      0.6047124862670898,
      -0.16117388010025024,
      0.16563783586025238,
      -0.13888897001743317,
      0.5313669443130493,
      -0.14137354493141174,
      0.3938467502593994,
      -0.8101359009742737,
      0.257663369178772,
      -0.09543777257204056,
      -0.5375791788101196,
      -0.730104923248291,
      -0.42539554834365845,
      0.471395343542099,
      0.08279914408922195,
      -0.5603765249252319,
      0.39856964349746704,
      0.7266653776168823,
      -0.5419621467590332,
      -0.30262821912765503,
      0.3760460317134857,
      -0.717445969581604,
      -0.0008903640555217862,
      -0.363155335187912,
      -0.040678828954696655,
      0.04025173559784889,
      0.16971175372600555,
      -0.46938788890838623,
      0.1632172167301178,
      0.5660275816917419,
      0.11169841140508652,
      -0.3095121681690216,
      0.28582802414894104,
      -0.1831481158733368,
      -0.323600709438324,
      0.23941244184970856,
      -0.03526868298649788,
      -0.32950857281684875,
      0.11314870417118073,
      0.4064066708087921,
      0.19269894063472748,
      -0.19476227462291718,
      0.3859472870826721,
      0.16737812757492065,
      0.5826886892318726,
      -0.08029082417488098,
      -0.8968508839607239,
      -0.2157619446516037,
      -1.0748481750488281,
      -0.46874427795410156,
      0.418863445520401,
      0.38166022300720215,
      0.07245010882616043,
      0.11682223528623581,
      -0.5001539587974548,
      1.1891366243362427,
      -0.04364709556102753,
      -0.1997315138578415,
      0.5897606015205383,
      -0.9218358397483826,
      0.008082200773060322,
      -0.6195833683013916,
      0.022586535662412643,
      -1.0507456064224243,
      0.49422687292099,
      0.3911653459072113,
      0.7299278378486633,
      0.5775702595710754,
      0.2674424946308136,
      -0.046959731727838516,
      -0.1942051202058792,
      0.3646935224533081,
      -0.1947929412126541,
      0.19774535298347473,
      -0.43186917901039124,
      -0.04270158335566521,
      -1.00490140914917,
      0.1988075077533722,
      -0.24853722751140594,
      -0.2934340536594391,
      0.14390753209590912,
      0.11773917824029922,
      -0.9382460713386536,
      0.5526537895202637,
      0.33345702290534973,
      -0.014807078056037426,
      -0.3426473140716553,
      0.8156213164329529,
      -0.4887956380844116,
      -0.12372813373804092,
      -0.594633162021637,
      0.2721702456474304,
      0.4779500365257263,
      -0.06734661012887955,
      0.453204870223999,
      -0.3467954993247986,
      0.38295233249664307,
      0.04741154611110687,
      -0.4008243978023529,
      1.0170553922653198,
      -0.5948674082756042,
      0.11420338600873947,
      0.37195900082588196,
      -0.509235143661499,
      0.20425893366336823,
      0.03906036913394928,
      0.7476048469543457,
      -1.1316637992858887,
      -1.025241732597351,
      0.2108115404844284,
      -0.05870004743337631,
      0.8046379685401917,
      -0.6204215288162231,
      -0.034584544599056244,
      0.17599369585514069,
      0.4565356969833374,
      -0.8942584991455078,
      -0.5653612613677979,
      0.05400494858622551,
      0.4837847948074341,
      -0.0015734988264739513,
      -1.078330397605896,
      0.14696460962295532,
      -1.0021440982818604,
      0.2807871401309967,
      1.4410256147384644,
      0.15821708738803864,
      -0.10216965526342392,
      -0.34261763095855713,
      0.1598181575536728,
      -0.29860252141952515,
      -0.7112032771110535,
      -0.08464043587446213,
      -0.03992677852511406,
      -0.8073352575302124,
      -0.25308749079704285,
      -1.030055046081543,
      -0.500537097454071,
      -1.5439493656158447,
      0.49116086959838867,
      1.142061471939087,
      -1.0641602277755737,
      0.7109744548797607,
      0.41544225811958313,
      -0.6710307002067566,
      -1.7358890771865845,
      -0.8598594665527344,
      -0.6192084550857544,
      -0.5179849863052368,
      1.487784504890442,
      0.8220927715301514,
      0.9520413279533386,
      0.11407049745321274,
      0.9129747748374939,
      -0.23822952806949615,
      0.7977248430252075,
      0.6846511363983154,
      1.1511850357055664,
      0.21495310962200165,
      0.6181348562240601,
      0.42675259709358215,
      0.40736228227615356,
      1.1985725164413452,
      0.16209664940834045,
      0.45261573791503906,
      -0.8374167680740356,
      1.014765739440918,
      0.7086057066917419,
      -0.4507521688938141,
      0.721250057220459,
      -0.7693895697593689,
      0.34732648730278015,
      0.2519528269767761,
      0.5270912051200867,
      -0.07075900584459305,
      0.6189917922019958,
      0.37790611386299133,
      0.10936472564935684,
      0.02583751641213894,
      0.10024884343147278,
      -0.4493669867515564,
      0.2340846061706543,
      1.3841956853866577,
      1.2823286056518555,
      0.2549486756324768,
      -0.3576560616493225,
      0.2000453770160675,
      -0.6370347738265991,
      -0.34979259967803955,
      0.2088734358549118,
      0.05533977225422859,
      -1.5917377471923828,
      0.487275093793869,
      -0.0632053017616272,
      -0.48017585277557373,
      0.6684229969978333,
      -0.0809045135974884,
      -1.3803720474243164,
      0.4052472412586212,
      0.30203545093536377,
      0.1531752645969391,
      0.32254746556282043,
      0.33610594272613525,
      -0.2578091621398926,
      -0.03481406718492508,
      1.0053318738937378,
      -0.9909059405326843,
      -1.0877711772918701,
      1.104972004890442,
      -0.035053592175245285,
      0.3531075716018677,
      0.35535353422164917,
      -0.23855765163898468,
      -0.02373124659061432,
      -0.2376115918159485,
      -2.0636203289031982,
      -0.5037335157394409,
      0.7693394422531128,
      0.4797343611717224,
      1.1634577512741089,
      -0.6882182955741882,
      -0.4652407765388489,
      0.11552810668945312,
      0.6789978742599487,
      -0.36514002084732056,
      0.8940281271934509,
      -0.14210443198680878,
      0.7613112330436707,
      -0.4475085437297821,
      0.4737059473991394,
      0.09029316902160645,
      0.5072557926177979,
      -0.7556145787239075,
      0.32367372512817383,
      -0.3726288378238678,
      -0.24410298466682434,
      -0.2986135184764862,
      -0.9891720414161682,
      0.37972649931907654,
      -0.5377383828163147,
      -0.4558318257331848,
      -0.11371838301420212,
      -0.16494663059711456,
      -0.06502373516559601,
      0.3063162565231323,
      1.3111624717712402,
      0.5593899488449097,
      -1.5672022104263306,
      0.32532891631126404,
      -1.5483460426330566,
      0.42405351996421814,
      0.9813552498817444,
      -0.6932281255722046,
      -0.10752245783805847,
      1.50649094581604,
      1.0713419914245605,
      -0.08362509310245514,
      0.6651492714881897,
      -0.33963003754615784,
      -0.28332093358039856,
      -0.9147192239761353,
      0.24837778508663177,
      0.5529038310050964,
      0.433989554643631,
      0.26158592104911804,
      -0.2172478437423706,
      -0.2169543355703354,
      1.4346741437911987,
      0.5140562057495117,
      0.34185072779655457,
      -0.36798685789108276,
      0.09119626134634018,
      0.935574471950531,
      0.19306713342666626,
      0.5602474212646484,
      0.3957922160625458,
      0.3422418534755707,
      0.26636338233947754,
      0.35057252645492554,
      -0.8579469919204712,
      0.911136269569397,
      0.4724752902984619,
      -0.42598646879196167,
      0.526390016078949,
      -0.30311694741249084,
      -0.07023613899946213,
      0.8472193479537964,
      1.493899941444397,
      -0.1998598873615265,
      0.10618463903665543,
      -0.006054902449250221,
      -1.5365467071533203,
      0.13780952990055084,
      0.4432021975517273,
      0.7913807034492493,
      -0.46742725372314453,
      0.5690948963165283,
      1.0461119413375854,
      0.3349524736404419,
      1.3807194232940674,
      -1.0562106370925903,
      -0.18260979652404785,
      0.5565686821937561,
      0.8448046445846558,
      0.8977187871932983,
      0.8401663303375244,
      -0.9376605153083801,
      -0.595460832118988,
      0.9391453266143799,
      0.01871298812329769,
      1.0364017486572266,
      0.6771448254585266,
      0.1811971813440323,
      0.5667403340339661,
      0.046837031841278076,
      -0.018342120572924614,
      -0.4279009997844696,
      -1.1882710456848145,
      0.36834657192230225,
      0.6758023500442505,
      0.06883326917886734,
      0.7580554485321045,
      -0.1252492368221283,
      0.015201384201645851,
      0.7914925217628479,
      -0.9588848352432251,
      0.6625615358352661,
      -0.32806071639060974,
      0.7276337742805481,
      0.49238213896751404,
      -1.6406086683273315,
      0.6863601803779602,
      -0.23126524686813354,
      0.01704660803079605,
      0.5299943089485168,
      -0.036882705986499786,
      0.6512659192085266,
      0.03498055785894394,
      0.013327461667358875,
      0.16925612092018127,
      -0.49680662155151367,
      -1.3311115503311157,
      0.5109176635742188,
      -0.34796208143234253,
      -0.9615183472633362,
      1.3804036378860474,
      -0.4299880266189575,
      0.20600910484790802,
      -0.6250998377799988,
      -0.677321195602417,
      0.9169498682022095,
      -1.0655453205108643,
      0.6088907718658447,
      -0.27838099002838135,
      0.6669092178344727,
      -0.5350981950759888,
      -1.138035774230957,
      -0.8455107808113098,
      -1.0534409284591675,
      -0.8218101859092712,
      -0.0829971507191658,
      -0.384116530418396,
      -1.4867364168167114,
      0.6397071480751038,
      -0.36128705739974976,
      -0.6334807872772217,
      -0.050134457647800446,
      0.5011162757873535,
      0.6031120419502258,
      0.44585832953453064,
      -0.2627681791782379,
      -0.12628398835659027,
      -0.22591866552829742,
      -1.0341190099716187,
      -0.3429609537124634,
      0.14450103044509888,
      -0.8874118328094482,
      0.6597455739974976,
      0.20392324030399323,
      0.5299984812736511,
      -0.4238305389881134,
      1.179100751876831,
      -0.36368563771247864,
      0.03025882877409458,
      -1.1323949098587036,
      0.031131161376833916,
      0.6883560419082642,
      -0.5795997977256775,
      0.49485355615615845,
      -0.15957190096378326,
      0.3748304843902588,
      0.28868117928504944,
      0.5638617873191833,
      0.06051389500498772,
      0.027700260281562805,
      -0.3088670074939728,
      0.5308350920677185,
      0.5667567849159241,
      -0.016755113378167152,
      0.2190430462360382,
      -0.5459213256835938,
      -0.6170904040336609,
      0.07887282967567444,
      0.5399273633956909,
      -0.16253766417503357,
      -0.45154136419296265,
      0.03725297376513481,
      0.3836759626865387,
      0.04712177813053131,
      0.5654170513153076,
      -0.2707253694534302,
      0.2117595374584198,
      -0.41324546933174133,
      -0.6026850342750549,
      -0.3872353732585907,
      0.5567967891693115,
      -0.12050174176692963,
      0.13928277790546417,
      0.47059133648872375,
      0.0659889355301857,
      0.2343555986881256,
      0.6225706338882446,
      0.11841753870248795,
      -0.05384807288646698,
      0.044909216463565826,
      0.05024136230349541,
      1.2912843227386475,
      0.49019718170166016,
      -0.14157864451408386,
      0.5859167575836182,
      0.449055552482605,
      0.869105339050293,
      0.11773378401994705,
      -0.3861543536186218,
      -0.08751343935728073,
      0.37541642785072327,
      0.5766464471817017,
      1.1548902988433838,
      0.06958319991827011,
      0.4313910901546478,
      0.021301211789250374,
      0.08223680406808853,
      0.5151687264442444,
      0.0872001200914383,
      -0.2226037085056305,
      -0.0040882849134504795,
      1.131572961807251,
      0.32464534044265747,
      -0.00841238908469677,
      0.9500622749328613,
      1.0192331075668335,
      -0.056802984327077866,
      -0.06427658349275589,
      -0.4417075514793396,
      -0.006957696285098791,
      -0.2506435811519623,
      1.169012188911438,
      0.5354434847831726,
      0.39524003863334656,
      -0.2895147204399109,
      0.82150799036026,
      0.15597689151763916,
      -0.34597674012184143,
      0.7163000702857971,
      0.9720423221588135,
      0.10439563542604446,
      0.4525471329689026,
      0.7048794031143188,
      -0.1626974493265152,
      -0.06321453303098679,
      0.17408089339733124,
      0.710029125213623,
      -0.1547938883304596,
      0.6416261196136475,
      0.022417262196540833,
      -0.24311697483062744,
      -0.6284801959991455,
      -0.2145303189754486,
      0.006835462991148233,
      0.06508416682481766,
      0.5844502449035645,
      0.549871563911438,
      -0.9858406186103821,
      0.18095850944519043,
      0.002278187545016408,
      0.6577032804489136,
      0.2635183334350586,
      -0.9664002060890198,
      -0.2296014130115509,
      -0.4948132336139679,
      0.3964719772338867,
      -0.06329786777496338,
      0.36151695251464844,
      0.3204525411128998,
      0.14601272344589233,
      0.26121002435684204,
      -0.5492001175880432,
      0.4086722433567047,
      0.18481409549713135,
      0.5463790893554688,
      0.25074103474617004,
      -0.06834963709115982,
      -0.6935781240463257,
      -0.4608411490917206,
      0.20200160145759583,
      0.8388699293136597,
      -0.24756403267383575,
      -0.1304105669260025,
      -0.6531282067298889,
      1.2718029022216797,
      0.009224431589245796,
      -0.44745638966560364,
      0.8767727613449097,
      0.3619590699672699,
      0.6397302150726318,
      0.6648516058921814,
      -0.38575422763824463,
      0.00956101343035698,
      -0.3562794029712677,
      -0.09643952548503876,
      0.2957254946231842,
      0.4241364896297455,
      0.0688607394695282,
      0.1418900489807129,
      -0.6299720406532288,
      0.0242362841963768,
      -0.5220776200294495,
      0.8475830554962158,
      0.438864529132843,
      -0.5774261951446533,
      0.6529114246368408,
      0.3972671329975128,
      -0.2790295481681824,
      -0.4550834000110626,
      -0.11841365694999695,
      0.15326011180877686,
      0.5340062379837036,
      0.06533380597829819,
      -0.9608182907104492,
      -0.8128599524497986,
      0.10593999922275543,
      -0.6689409613609314,
      0.6510381102561951,
      0.7410869598388672,
      0.7085335850715637,
      0.8706779479980469,
      0.05031580850481987,
      -0.263751357793808,
      0.36573681235313416,
      0.06373408436775208,
      0.6972948312759399,
      -0.38285037875175476,
      0.5208843350410461,
      1.0264908075332642,
      0.43051955103874207,
      -0.24239656329154968,
      -0.07662408798933029,
      0.0026264130137860775,
      0.07624845206737518,
      -0.7095547914505005,
      -0.19517351686954498,
      -0.40964028239250183,
      -0.3767344355583191,
      -0.16646793484687805,
      0.24061767756938934,
      -0.3926311731338501,
      -0.08514898270368576,
      -0.09594807028770447,
      0.20677661895751953,
      0.23505142331123352,
      0.3320326805114746,
      -0.062132254242897034,
      -0.4638248085975647,
      0.6641685962677002,
      -0.3451901972293854,
      1.2787688970565796,
      0.3970680832862854,
      1.1236099004745483,
      0.4223127067089081,
      0.6190876364707947,
      -0.2390650361776352,
      0.31696271896362305,
      0.1656312346458435,
      -0.035871800035238266,
      -0.31255191564559937,
      0.8452876210212708,
      -0.5815438032150269,
      0.36886683106422424,
      0.2175818383693695,
      1.059551477432251,
      0.07226594537496567,
      0.19416235387325287,
      -0.06248317286372185,
      0.7424269318580627,
      0.05203624814748764,
      0.3223927915096283,
      -0.30951082706451416,
      0.4292345941066742,
      0.45204493403434753,
      0.7915279269218445,
      -0.28452327847480774,
      0.1448928862810135,
      -0.04439539462327957,
      -0.20774786174297333,
      -0.7971064448356628,
      0.008848988451063633,
      0.49981391429901123,
      -0.0010399624006822705,
      -0.16438977420330048,
      0.25024545192718506,
      0.057364512234926224,
      -0.4920823872089386,
      0.06879314035177231,
      0.6800171732902527,
      0.9436362385749817,
      0.3930245339870453,
      0.2010168880224228,
      0.16226691007614136,
      0.3322729468345642,
      -0.07288403809070587,
      -0.3001188337802887,
      -0.14610891044139862,
      -0.27216836810112,
      -0.08136160671710968,
      0.03486160933971405,
      -0.9248443841934204,
      0.018711185082793236,
      -0.07179586589336395,
      0.05197196826338768,
      0.04957950487732887,
      0.2978992462158203,
      0.40661415457725525,
      0.16340593993663788,
      0.6515729427337646,
      0.18677961826324463,
      0.05570351704955101,
      0.5117708444595337,
      -0.12838631868362427,
      0.17747654020786285,
      -0.04498342052102089,
      -0.08831198513507843,
      -0.39787593483924866,
      -0.07494337856769562,
      0.8528354167938232,
      0.6821022033691406,
      0.3614686131477356,
      0.10322140902280807,
      -0.05622221156954765,
      0.08448564261198044,
      -0.33534976840019226,
      0.2643425464630127,
      -0.10969322174787521,
      0.05184764042496681,
      0.2543356716632843,
      0.33874279260635376,
      0.21416489779949188,
      -0.321058064699173,
      0.43539959192276,
      0.6822826862335205,
      0.011336048133671284,
      0.24645644426345825,
      0.5892840623855591,
      -0.1979120522737503,
      -0.22732090950012207,
      -0.0866091176867485,
      0.9517433047294617,
      0.5143754482269287,
      -0.03717236965894699,
      0.22859284281730652,
      0.7508548498153687,
      0.453681617975235,
      0.020620984956622124,
      0.042055144906044006,
      0.12899330258369446,
      -0.4392908811569214,
      0.2779688537120819,
      1.012841820716858,
      0.17950433492660522,
      -0.6835237741470337,
      0.13611817359924316,
      0.6065219640731812,
      0.27148184180259705,
      0.6790516376495361,
      0.3444884121417999,
      -0.4247489869594574,
      -0.8777918219566345,
      -0.04648938030004501,
      -1.222760796546936,
      -1.7129508256912231,
      -0.5318573117256165,
      -1.0300135612487793,
      -0.4690082371234894,
      1.0795331001281738,
      1.0854175090789795,
      0.6007503271102905,
      0.4192867875099182,
      1.1199346780776978,
      -0.18091915547847748,
      0.3854113221168518,
      -0.11635709553956985,
      0.23472103476524353,
      0.49880000948905945,
      1.2646100521087646,
      -0.5897669196128845,
      -0.055522315204143524,
      0.49190038442611694,
      -0.2556191086769104,
      -0.41762441396713257,
      0.18794789910316467,
      -0.12326668947935104,
      0.06040051952004433,
      -0.6189666390419006,
      -0.03605641797184944,
      0.255136102437973,
      -0.3409525752067566,
      1.7179694175720215,
      0.4644494354724884,
      0.5001218318939209,
      0.530539333820343,
      0.04805850610136986,
      0.06795112788677216,
      -1.4181636571884155,
      0.31990841031074524,
      1.2036638259887695,
      -0.25307586789131165,
      0.03276088088750839,
      -0.1261369287967682,
      -0.34516414999961853,
      0.9661093354225159,
      1.0382083654403687,
      -0.11164207756519318,
      -1.5534566640853882,
      0.5728209018707275,
      0.8486477732658386,
      -0.897560715675354,
      -0.31192898750305176,
      0.85230952501297,
      -0.4921448826789856,
      -1.3287981748580933,
      -0.12474580854177475,
      -0.08306651562452316,
      -0.6692457795143127,
      0.7348957061767578,
      -0.2205006331205368,
      1.2070389986038208,
      0.5417307615280151,
      1.3021485805511475,
      -0.8988729119300842,
      0.7591777443885803,
      1.8485994338989258,
      1.530625820159912,
      0.684058427810669,
      -0.028787745162844658,
      1.150810956954956,
      -0.09595620632171631,
      0.3610851466655731,
      1.0286115407943726,
      -0.26713547110557556,
      0.7991867661476135,
      0.5296550989151001,
      0.2501586377620697,
      0.6353374719619751,
      0.44984695315361023,
      0.324476033449173,
      -0.24887989461421967,
      0.958081066608429,
      1.3806993961334229,
      -0.1837177723646164,
      -0.6100712418556213,
      0.30378931760787964,
      0.3763718903064728,
      -1.115885853767395,
      0.0187945906072855,
      0.16115957498550415,
      -0.5142108798027039,
      0.4105569124221802,
      0.47412505745887756,
      -0.2867286503314972,
      0.12987051904201508,
      1.0193679332733154,
      -0.37210381031036377,
      -0.6178240776062012,
      1.006898045539856,
      0.03383445367217064,
      1.0466097593307495,
      0.5614898800849915,
      0.37709513306617737,
      -0.30857691168785095,
      -0.1317548304796219,
      0.9271769523620605,
      0.3805810809135437,
      -0.05969124659895897,
      0.972154438495636,
      0.9021238684654236,
      0.44694384932518005,
      0.0495971217751503,
      -0.05680272355675697,
      -0.3547521233558655,
      -0.618608832359314,
      0.837603747844696,
      0.26552313566207886,
      1.172623872756958,
      0.4341942369937897,
      -0.04975177347660065,
      -0.4658309817314148,
      -1.0960204601287842,
      -0.7264215350151062,
      0.105087511241436,
      0.016605302691459656,
      0.47127565741539,
      0.7080245614051819,
      -0.7260717749595642,
      0.3428539037704468,
      1.7334177494049072,
      -0.08805903792381287,
      0.4242612421512604,
      0.5106943845748901,
      0.7259272933006287,
      -0.07226454466581345,
      -1.0449481010437012,
      0.0020210053771734238,
      -0.12645624577999115,
      0.3492542505264282,
      -0.689814031124115,
      0.2258046716451645,
      -0.4939684569835663,
      -0.13224752247333527,
      0.05070752277970314,
      0.6878474354743958,
      -0.23415133357048035,
      -0.15680263936519623,
      1.0521273612976074,
      0.2519550919532776,
      0.4350239336490631,
      -0.02819853462278843,
      1.1334314346313477,
      0.14862073957920074,
      0.1013495996594429,
      -1.190824270248413,
      0.7838940024375916,
      0.3334071636199951,
      -0.17107589542865753,
      -0.4113732874393463,
      -0.2774442434310913,
      -0.024967830628156662,
      0.7104511857032776,
      0.7021743655204773,
      -1.1787219047546387,
      -0.08793029189109802,
      -0.30628636479377747,
      -0.7477278113365173,
      0.5125131607055664,
      0.28000807762145996,
      0.05142952501773834,
      -0.46319663524627686,
      1.3829745054244995,
      0.609721302986145,
      0.655724287033081,
      0.7258476614952087,
      0.4886954724788666,
      -0.4960213005542755,
      -0.9253296256065369,
      -0.8878225088119507,
      0.6636751294136047,
      -0.5108709335327148,
      0.7318211793899536,
      0.08182047307491302,
      0.3220146894454956,
      -0.3370996117591858,
      0.3164938688278198,
      -0.07454779744148254,
      -0.17328371107578278,
      -0.028459258377552032,
      -0.3532429039478302,
      1.0946930646896362,
      0.026271315291523933,
      -0.11617414653301239,
      0.3264199197292328,
      0.05928199738264084,
      -0.3882274627685547,
      -0.3342537581920624,
      -0.7379592061042786,
      0.6802383661270142,
      -0.09789381176233292,
      0.2158764749765396,
      0.33140236139297485,
      0.31987014412879944,
      -0.48535850644111633,
      0.1002669483423233,
      0.12553671002388,
      0.3865877389907837,
      -0.9522498846054077,
      0.16482758522033691,
      -0.9361523985862732,
      -1.2653604745864868,
      -0.2648814022541046,
      0.475613534450531,
      1.3360726833343506,
      0.8623783588409424,
      0.2915637791156769,
      0.6021047234535217,
      0.4567168354988098,
      -0.7960876226425171,
      -0.7790608406066895,
      -0.03400148078799248,
      0.5181449055671692,
      -0.204218327999115,
      0.5404419898986816,
      0.6725135445594788,
      -0.034929875284433365,
      -0.7082425951957703,
      -0.46354496479034424,
      -0.18474112451076508,
      -0.235740065574646,
      0.6346856951713562,
      -0.8020458817481995,
      0.19894114136695862,
      -0.6996327042579651,
      0.2737762928009033,
      -0.5578038096427917,
      0.9239069819450378,
      1.0443848371505737,
      0.3489132821559906,
      -0.2861217260360718,
      -0.34646791219711304,
      0.45935025811195374,
      -0.6311349868774414,
      -0.2993626296520233,
      -0.1928044855594635,
      1.0641331672668457,
      -0.03791515901684761,
      0.7008576989173889,
      -0.49623313546180725,
      -0.8079212307929993,
      0.3973979353904724,
      0.08038832992315292,
      -0.1515815258026123,
      0.09666701406240463,
      -0.4910995364189148,
      0.023870395496487617,
      0.9519996047019958,
      -0.47522062063217163,
      0.0014316474553197622,
      1.014532446861267,
      -0.7801302075386047,
      0.8952947854995728,
      0.2457531839609146,
      0.10982877016067505,
      0.48928457498550415,
      0.5241305232048035,
      0.7603488564491272,
      0.36897462606430054,
      1.6405137777328491,
      0.6570237874984741,
      -0.32982319593429565,
      0.8725377917289734,
      -0.1775902807712555,
      0.940568208694458,
      0.33541569113731384,
      0.2461722493171692,
      -0.8353255987167358,
      0.768233060836792,
      0.7479308247566223,
      -0.2508637011051178,
      -0.7789677381515503,
      0.6213226318359375,
      1.0979957580566406,
      -0.635963499546051,
      0.032310403883457184,
      0.31131407618522644,
      0.15995967388153076,
      -0.7770499587059021,
      1.1841338872909546,
      0.47773653268814087,
      0.07053502649068832,
      0.4735206067562103,
      1.088606834411621,
      1.5787363052368164,
      1.0233243703842163,
      -0.32160764932632446,
      -0.18964292109012604,
      -0.13804739713668823,
      1.2373398542404175,
      -0.006327678915113211,
      1.2731865644454956,
      -1.1431227922439575,
      0.20655390620231628,
      -0.8818764686584473,
      1.1795039176940918,
      -0.69733726978302,
      -0.05342015624046326,
      1.257077932357788,
      -0.7970679998397827,
      0.312874972820282,
      0.6722996830940247,
      0.8594765663146973,
      0.20354856550693512,
      -0.09584935754537582,
      0.603827953338623,
      -0.30836886167526245,
      -0.6917515397071838,
      -0.9962596297264099,
      -0.791119396686554,
      0.6318281292915344,
      0.21711494028568268,
      0.4612696170806885,
      0.5789687633514404,
      0.8580783009529114,
      -0.7045825123786926,
      0.5387367010116577,
      0.3457399904727936,
      -0.3386974334716797,
      -1.0507421493530273,
      0.5957806706428528,
      0.059304434806108475,
      0.8452795743942261,
      -0.5420718789100647,
      0.2699640095233917,
      -0.06418468058109283,
      -0.3378234803676605,
      -0.4710279703140259,
      0.616127610206604,
      -0.8509055376052856,
      -0.2842338979244232,
      0.012337159365415573,
      0.40243110060691833,
      0.4868769943714142,
      0.18430379033088684,
      0.033603325486183167,
      0.5316942930221558,
      0.5917429327964783,
      -0.24691253900527954,
      0.8534658551216125,
      0.5254248976707458,
      -0.7081106901168823,
      0.16408388316631317,
      0.4752674102783203,
      0.7261872887611389,
      0.5279470086097717,
      0.40658485889434814,
      0.3001381754875183,
      -0.6693904995918274,
      0.684129536151886,
      -0.6570031642913818,
      0.71051025390625,
      0.6082237362861633,
      1.4052131175994873,
      0.18583108484745026,
      -0.7452730536460876,
      -0.1645725518465042,
      -0.9861677289009094,
      0.16411124169826508,
      0.10290832072496414,
      0.6649584174156189,
      0.30040058493614197,
      -0.1124093234539032,
      0.28573670983314514,
      -0.12335479259490967,
      -0.8409163355827332,
      -0.13848678767681122,
      0.11234521865844727,
      0.530583381652832,
      -1.0595959424972534,
      0.023606721311807632,
      -0.2755770683288574,
      -0.3643481135368347,
      -0.3624284863471985,
      1.2909880876541138,
      0.2279534935951233,
      -0.26621028780937195,
      0.2020166963338852,
      -0.6110263466835022,
      -0.08129788190126419,
      1.0961912870407104,
      0.09094944596290588,
      -0.4479978680610657,
      -0.6309345960617065,
      1.1381843090057373,
      0.9008090496063232,
      0.27373674511909485,
      -0.027001719921827316,
      -0.7985539436340332,
      -0.2893970310688019,
      -0.17970868945121765,
      1.033964991569519,
      0.2715457081794739,
      0.8704331517219543,
      -1.380367398262024,
      1.403166651725769,
      -0.05948932468891144,
      -1.006805419921875,
      -1.3696398735046387,
      -1.0235300064086914,
      0.3686761260032654,
      0.8042466044425964,
      -0.9873476624488831,
      -0.4483458995819092,
      -0.26839062571525574,
      -1.031507968902588,
      1.3323689699172974,
      -0.2841426134109497,
      0.21795859932899475,
      1.0701565742492676,
      -0.0776318609714508,
      -0.5246077179908752,
      0.961405873298645,
      0.5883949398994446,
      -0.14125846326351166,
      0.420588880777359,
      -1.4357898235321045,
      -1.3914058208465576,
      -0.8382416367530823,
      -0.5437175035476685,
      -0.6578270196914673,
      0.6491461396217346,
      0.9856052398681641,
      0.2208884060382843,
      0.04067553952336311,
      0.43563762307167053,
      -0.561862587928772,
      1.425816297531128,
      -1.1048482656478882,
      1.0243440866470337,
      -0.7513279914855957,
      0.3661014437675476,
      -0.3440537452697754,
      0.733867883682251,
      0.7337539792060852,
      1.2180109024047852,
      0.38875529170036316,
      0.7852271795272827,
      0.4020881950855255,
      -0.1357313096523285,
      -0.6766430735588074,
      1.1545660495758057,
      -0.4265996813774109,
      -1.1902666091918945,
      0.022006647661328316,
      -1.6797168254852295,
      0.47678181529045105,
      0.6128937602043152,
      -0.8552164435386658,
      -0.3978757858276367,
      0.5859282612800598,
      -0.08111564069986343,
      0.002023835899308324,
      0.5525684952735901,
      0.14735765755176544,
      -0.7846451997756958,
      -1.1886212825775146,
      -0.6322470307350159,
      -0.31047123670578003,
      0.712586522102356,
      1.4277005195617676,
      -0.699985682964325,
      -0.7043771147727966,
      0.7239682674407959,
      -0.2633586823940277,
      0.6627882719039917,
      -0.5223137140274048,
      -0.9636374711990356,
      0.28429022431373596,
      0.21708159148693085,
      0.47342658042907715,
      0.4750180244445801,
      -0.11896008998155594,
      0.4191078543663025,
      1.0617737770080566,
      -0.8605250716209412,
      -0.4290490448474884,
      -0.026042841374874115,
      1.4424262046813965,
      0.8157888054847717,
      -0.8269611597061157,
      0.13085606694221497,
      0.429794579744339,
      0.3347249925136566,
      -0.4242209494113922,
      -1.9895546436309814,
      -0.9253872632980347,
      -0.05017489194869995,
      1.321783423423767,
      1.3912521600723267,
      -0.5955973267555237,
      0.3156982362270355,
      0.5146323442459106,
      0.8135883808135986,
      -0.7249172329902649,
      -0.5921760201454163,
      0.0828460082411766,
      0.6970517635345459,
      0.04636894166469574,
      -0.29478076100349426,
      0.964479386806488,
      0.7971903681755066,
      0.06735353171825409,
      -0.5965481996536255,
      -0.9686434268951416,
      0.17625609040260315,
      -0.33886751532554626,
      -1.0414601564407349,
      -0.8514159917831421,
      -0.4091535210609436,
      -0.2363053560256958,
      0.326590895652771,
      0.6538103818893433,
      -0.05337943881750107,
      0.4783959984779358,
      -0.6658151149749756,
      -0.5106328725814819,
      -0.03612813726067543,
      0.07367143034934998,
      0.5182398557662964,
      -0.10044574737548828,
      -0.28615906834602356,
      0.681764543056488,
      0.7192391157150269,
      -0.017247822135686874,
      -0.5103875398635864,
      0.20394136011600494,
      0.2695763111114502,
      0.4530148208141327,
      -0.07850736379623413,
      0.04625837504863739,
      0.3695230185985565,
      0.5586526393890381,
      -0.18057715892791748,
      -0.5406776666641235,
      0.8316047787666321,
      1.4598116874694824,
      0.5227348804473877,
      0.37772873044013977,
      -0.17520634829998016,
      0.2894922196865082,
      -0.3440048098564148,
      0.059375688433647156,
      0.6543417572975159,
      -0.338832288980484,
      -0.4222122132778168,
      0.7795630097389221,
      -0.2816488742828369,
      -0.1488441377878189,
      0.29295817017555237,
      0.17017340660095215,
      -0.881217360496521,
      -0.9137039184570312,
      1.1311731338500977,
      -0.5069014430046082,
      1.044356346130371,
      -0.37893956899642944,
      0.5234585404396057,
      -0.46500712633132935,
      -0.3648719787597656,
      0.6490888595581055,
      1.454777717590332,
      -0.009463697671890259,
      0.4780396819114685,
      -0.9382274150848389,
      0.4719284474849701,
      0.49219802021980286,
      0.15362116694450378,
      -0.5063920021057129,
      -0.08977613598108292,
      -0.7454227805137634,
      -0.23082120716571808,
      -0.9275673031806946,
      0.2386108785867691,
      -0.9083919525146484,
      -1.2171560525894165,
      0.3538544774055481,
      0.4759613275527954,
      -0.8612881898880005,
      -0.2633812725543976,
      -0.21387983858585358,
      -0.2808891236782074,
      1.0736907720565796,
      0.264549195766449,
      -0.5550616383552551,
      0.30263590812683105,
      0.07063080370426178,
      0.934721827507019,
      0.8132202625274658,
      -0.33916038274765015,
      0.33430778980255127,
      0.36757713556289673,
      -0.7738848328590393,
      0.9260274171829224,
      -0.1684449166059494,
      -0.5993879437446594,
      0.02532266080379486,
      0.27399563789367676,
      0.0899507999420166,
      0.06306420266628265,
      0.35027027130126953,
      0.12529520690441132,
      -1.2142490148544312,
      -1.1751856803894043,
      -0.5849134922027588,
      -0.7990414500236511,
      -0.815979540348053,
      -0.38032838702201843,
      -1.0362290143966675,
      0.3043229877948761,
      0.2284967303276062,
      0.6779487729072571,
      0.6077374219894409,
      -0.48068150877952576,
      -0.9251760840415955,
      0.31672102212905884,
      -0.5789623260498047,
      0.40720924735069275,
      -0.6719990372657776,
      -0.15057136118412018,
      0.4185580015182495,
      0.30311739444732666,
      -0.2592315077781677,
      -0.3826234042644501,
      0.6749353408813477,
      1.112380027770996,
      0.9768838882446289,
      0.3238603472709656,
      -0.24730199575424194,
      0.661659836769104,
      0.1923535019159317,
      0.4607946276664734,
      -0.34610071778297424,
      0.6458468437194824,
      0.3334212005138397,
      -0.5553694367408752,
      -0.33053848147392273,
      0.35742372274398804,
      -0.24869047105312347,
      0.607088029384613,
      0.5000267624855042,
      1.0570106506347656,
      -0.028582284227013588,
      -0.024882132187485695,
      0.27630099654197693,
      -0.5181765556335449,
      -0.2873705327510834,
      -0.1952686607837677,
      -0.7789071202278137,
      0.14967837929725647,
      -0.35088279843330383,
      0.8321659564971924,
      -1.4105124473571777,
      0.5643336772918701,
      0.8802115321159363,
      -0.8436645865440369,
      0.504419207572937,
      0.08690501004457474,
      -0.07064339518547058,
      0.659343421459198,
      -0.5254163146018982,
      -0.1718405932188034,
      -0.6987438797950745,
      -0.8468657732009888,
      -0.11702556163072586,
      0.06355273723602295,
      -0.052773021161556244,
      0.11001555621623993,
      0.7233301997184753,
      0.5938631296157837,
      0.15239618718624115,
      -0.3576125204563141,
      -0.3565894365310669,
      0.33046814799308777,
      -0.5777004361152649,
      -0.007335767149925232,
      0.7563837170600891,
      0.18046070635318756,
      -0.6268854141235352,
      -1.0897384881973267,
      0.7492009401321411,
      -0.06708580255508423,
      0.18406417965888977,
      0.027642251923680305,
      -0.16294971108436584,
      -0.8234080076217651,
      0.14501361548900604,
      -0.3131447732448578,
      -1.087612271308899,
      -0.22562921047210693,
      1.2083872556686401,
      -0.6930518746376038,
      -0.1604720503091812,
      -0.7343707084655762,
      -0.80982905626297,
      0.9575458765029907,
      0.5535115599632263,
      0.9311941862106323,
      -1.0258128643035889,
      1.6112116575241089,
      0.8101884126663208,
      0.036530379205942154,
      -0.28344258666038513,
      0.2068803906440735,
      -0.1122121587395668,
      1.4449647665023804,
      0.1539926677942276,
      0.48580917716026306,
      0.36570098996162415,
      0.5347258448600769,
      -0.763355553150177,
      1.0021194219589233,
      -0.529557466506958,
      -0.23976731300354004,
      0.30043038725852966,
      0.3603588044643402,
      -0.32425644993782043,
      1.1831141710281372,
      0.21955165266990662,
      -0.49412593245506287,
      -1.036963701248169,
      -0.8230665922164917,
      0.6142976880073547,
      0.1949491798877716,
      -0.7852898836135864,
      -0.18574872612953186,
      -0.06329420208930969,
      0.37549716234207153,
      0.8534481525421143,
      0.4388673007488251,
      -0.6004762053489685,
      0.18533705174922943,
      0.4999411404132843,
      -0.5962826013565063,
      -0.083570197224617,
      0.4421016573905945,
      1.153558373451233,
      -0.24931758642196655,
      0.3391832113265991,
      -0.41552090644836426,
      0.15771497786045074,
      -0.5234262347221375,
      0.5895007848739624,
      0.255866676568985,
      0.2172040194272995,
      0.2597918212413788,
      -0.22540180385112762,
      0.9863215088844299,
      -0.25586235523223877,
      0.15523089468479156,
      1.0541760921478271,
      0.7807414531707764,
      0.5101535320281982,
      0.48280295729637146,
      0.2862166166305542,
      -1.6696741580963135,
      0.4373084008693695,
      -0.21453739702701569,
      0.2812344431877136,
      -1.093361258506775,
      -0.03607197478413582,
      -0.16352783143520355,
      -0.11689293384552002,
      0.8952181935310364,
      -0.08374417573213577,
      0.7041205763816833,
      0.6753519177436829,
      1.3213003873825073,
      0.5416974425315857,
      0.7428082227706909,
      -0.29383575916290283,
      0.4760337769985199,
      0.24351605772972107,
      0.8553981184959412,
      0.9806861281394958,
      -0.6165633797645569,
      -0.16197067499160767,
      -0.17623038589954376,
      -0.10129385441541672,
      0.8906552791595459,
      0.6024736762046814,
      0.2359297275543213,
      0.09444256126880646,
      0.2593425512313843,
      0.08651822060346603,
      -0.2254895120859146,
      -0.39509809017181396,
      -0.31402212381362915,
      0.7633211612701416,
      0.4670621156692505,
      -0.47753527760505676,
      -0.1719665676355362,
      0.9407873749732971,
      1.3843153715133667,
      1.5868436098098755,
      1.2837597131729126,
      0.5171615481376648,
      -0.5750826597213745,
      -0.7038631439208984,
      -0.5103785395622253,
      0.12760402262210846,
      -0.6470839381217957,
      -0.19029657542705536,
      0.2591163218021393,
      -0.19642476737499237,
      0.4640355706214905,
      0.15396176278591156,
      0.12372498959302902,
      -0.7018243670463562,
      0.38161635398864746,
      0.7900465726852417,
      0.22091107070446014,
      0.13120736181735992,
      0.03058922290802002,
      -0.5343578457832336,
      -1.2081583738327026,
      0.26338496804237366,
      -0.6164617538452148,
      -0.07215236872434616,
      0.3352198302745819,
      0.49027013778686523,
      1.0631355047225952,
      -0.5215790271759033,
      0.7774935364723206,
      -0.6767446398735046,
      -0.018153201788663864,
      0.9661001563072205,
      -0.15105903148651123,
      0.805529773235321,
      0.2546846270561218,
      0.3829214870929718,
      0.29295220971107483,
      0.5811240673065186,
      0.9048765897750854,
      0.6136760115623474,
      1.1954463720321655,
      0.9149488806724548,
      0.2309281975030899,
      -0.8251005411148071,
      0.036092326045036316,
      -0.20557616651058197,
      -1.0908082723617554,
      0.512474000453949,
      0.009389620274305344,
      0.22142191231250763,
      0.24457760155200958,
      -0.08869456499814987,
      -0.06578034907579422,
      -0.6215996742248535,
      -0.5964081883430481,
      0.5185432434082031,
      -0.000765509728807956,
      0.3443640172481537,
      0.9066089391708374,
      -0.2934323847293854,
      1.18012273311615,
      0.6243712902069092,
      0.6486914753913879,
      0.7162412405014038,
      -0.6152500510215759,
      -0.0613592229783535,
      0.5197437405586243,
      -0.8918406367301941,
      -0.1971459984779358,
      0.8310966491699219,
      0.5623363256454468,
      0.4052203595638275,
      0.031590208411216736,
      0.7926267981529236,
      -0.7577868103981018,
      -0.5521734356880188,
      -1.2118929624557495,
      0.6770874261856079,
      -1.0248878002166748,
      0.4334714412689209,
      0.8939200639724731,
      0.9716442227363586,
      0.43939897418022156,
      1.1209763288497925,
      0.5999080538749695,
      0.15085041522979736,
      -0.4577738344669342,
      0.06239742040634155,
      0.8367310762405396,
      -0.5091776847839355,
      -0.27408185601234436,
      0.49887600541114807,
      -0.46204525232315063,
      -0.20684373378753662,
      -0.6535109281539917,
      -0.4217081069946289,
      0.4606485366821289,
      0.04834849014878273,
      0.23488570749759674,
      0.5195429921150208,
      -0.014597058296203613,
      -0.06713812053203583,
      -0.3033677637577057,
      -0.38796553015708923,
      -0.3918728828430176,
      -0.7331901788711548,
      -0.741386890411377,
      -0.4478834271430969,
      0.5771523118019104,
      -0.07544924318790436,
      1.1181915998458862,
      0.29641252756118774,
      -0.48898524045944214,
      -0.20298480987548828,
      -0.41211098432540894,
      0.10617759823799133,
      1.311179757118225,
      0.7305811047554016,
      0.3358646631240845,
      1.0034500360488892,
      0.3091420829296112,
      -0.09437043964862823,
      -0.5058090090751648,
      -0.28719210624694824,
      -1.0914089679718018,
      -2.0183794498443604,
      -1.1470333337783813,
      -0.5177326202392578,
      -1.4006270170211792,
      0.8625597357749939,
      0.19746431708335876,
      0.07397443056106567,
      -0.6338773369789124,
      0.1956358104944229,
      -1.3719905614852905,
      -0.8407307267189026,
      -0.5831741094589233,
      1.3023772239685059,
      0.34057071805000305,
      -1.0719234943389893,
      0.13940662145614624,
      -1.062863826751709,
      -1.3722071647644043,
      0.3148288130760193,
      0.012534485198557377,
      -0.08030765503644943,
      0.2226428985595703,
      0.8377819061279297,
      -0.4033893048763275,
      -0.52005934715271,
      -0.04672837629914284,
      0.701028048992157,
      -1.1624408960342407,
      0.06275863945484161,
      0.008597904816269875,
      -0.024729637429118156,
      0.9199150204658508,
      1.6248655319213867,
      1.1212449073791504,
      0.8251267075538635,
      0.08107942342758179,
      0.6442367434501648,
      -0.2634558081626892,
      -0.462960422039032,
      0.11253645271062851,
      -0.8422670960426331,
      0.5291601419448853,
      1.2128522396087646,
      -1.3121697902679443,
      -1.2727582454681396,
      0.9234156608581543,
      -0.10838780552148819,
      -0.5307633876800537,
      -0.9578844308853149,
      -0.7192984223365784,
      -0.13742056488990784,
      0.9632262587547302,
      -0.5453585386276245,
      0.7474586367607117,
      1.1139718294143677,
      1.632929801940918,
      1.0019558668136597,
      -0.3462059199810028,
      0.43763381242752075,
      0.46699264645576477,
      0.17752285301685333,
      0.5121879577636719,
      0.11131434887647629,
      -0.5618882179260254,
      0.00722876051440835,
      0.45772919058799744,
      -0.12952503561973572,
      0.5252197980880737,
      0.2462201863527298,
      0.4369884133338928,
      0.13458994030952454,
      0.5909469127655029,
      -0.6198874115943909,
      0.2541116774082184,
      0.15471413731575012,
      0.6897304058074951,
      -0.1281420886516571,
      0.7894110679626465,
      0.7969146370887756,
      0.0336860753595829,
      0.6195768713951111,
      0.21783089637756348,
      1.491184115409851,
      -0.29696938395500183,
      -1.2350317239761353,
      0.09114592522382736,
      0.15408430993556976,
      -0.13979323208332062,
      0.1356736421585083,
      0.18414871394634247,
      1.1551333665847778,
      -0.06618400663137436,
      0.1743021160364151,
      -0.5674078464508057,
      0.32467588782310486,
      -0.9522931575775146,
      -1.0561896562576294,
      0.04889382794499397,
      -0.8143557906150818,
      0.0556878037750721,
      -0.5093132257461548,
      0.1553058922290802,
      0.24515797197818756,
      0.09880723059177399,
      -0.5364179015159607,
      -0.7073052525520325,
      0.46637606620788574,
      -0.1901763677597046,
      0.492862731218338,
      -0.4376588761806488,
      -0.4943765699863434,
      0.8932134509086609,
      -0.5962567329406738,
      -0.5581473708152771,
      0.04951939359307289,
      0.03463995084166527,
      1.5264151096343994,
      -0.11335090547800064,
      0.43325960636138916,
      -0.08980786055326462,
      0.2751045525074005,
      1.0104694366455078,
      1.0206495523452759,
      1.089809536933899,
      0.7091903686523438,
      0.17854048311710358,
      0.25610020756721497,
      0.7375440001487732,
      0.22658462822437286,
      0.47389456629753113,
      -0.5818217992782593,
      -0.08804043382406235,
      -0.08052290976047516,
      0.508661687374115,
      -0.10427771508693695,
      0.7505080699920654,
      0.5187468528747559,
      -1.021541714668274,
      0.38071489334106445,
      -0.5142760872840881,
      -0.008421679027378559,
      0.06324215233325958,
      1.1080577373504639,
      0.7192412614822388,
      1.2047878503799438,
      1.058188796043396,
      -0.30620276927948,
      0.43601229786872864,
      0.6079140305519104,
      0.7535306811332703,
      -0.533802330493927,
      -0.2830418646335602,
      -0.14690156280994415,
      0.2080896496772766,
      -0.9328693747520447,
      0.37840187549591064,
      0.1957218497991562,
      1.3829050064086914,
      0.09253973513841629,
      -0.6364238858222961,
      -0.6870273351669312,
      -0.431033730506897,
      0.5338872075080872,
      -0.11558931320905685,
      0.9627982974052429,
      -0.6328486800193787,
      0.4654770493507385,
      0.3111508786678314,
      0.46796926856040955,
      -0.48451632261276245,
      0.6420004367828369,
      1.160698652267456,
      -1.3968417644500732,
      0.15788300335407257,
      -0.4547233581542969,
      0.3447408974170685,
      0.17039118707180023,
      0.42576971650123596,
      0.232059508562088,
      0.12655073404312134,
      0.15609605610370636,
      0.2996864318847656,
      -1.3022584915161133,
      0.3101446330547333,
      -0.7113392949104309,
      -0.07791805267333984,
      -0.1498560607433319,
      -1.151430606842041,
      0.09260236471891403,
      -0.8384264707565308,
      0.5682010054588318,
      -0.8725876808166504,
      0.01901748962700367,
      -0.47562021017074585,
      1.0266680717468262,
      -0.1414235234260559,
      0.790260910987854,
      -1.166184425354004,
      0.21318162977695465,
      0.2674182653427124,
      -0.011810675263404846,
      -1.8150686025619507,
      -0.5242396593093872,
      -0.03979431465268135,
      0.938338577747345,
      0.10907655954360962,
      -0.4667843282222748,
      1.3091636896133423,
      0.685469388961792,
      0.44165071845054626,
      0.2453092336654663,
      -0.042651161551475525,
      0.03849678859114647,
      -0.001923909760080278,
      -0.002501520561054349,
      -0.1424001157283783,
      -0.4008800983428955,
      0.06361135840415955,
      -0.027015047147870064,
      0.8811706900596619,
      0.1120699793100357,
      1.1176866292953491,
      -0.3722373843193054,
      -0.8272858262062073,
      0.34249159693717957,
      -0.9565586447715759,
      -0.3123552203178406,
      0.3305264711380005,
      1.2424015998840332,
      0.1342787891626358,
      -0.7880595922470093,
      0.5705792903900146,
      0.4606553614139557,
      0.5671721696853638,
      0.11708427220582962,
      -0.7366641163825989,
      -0.6318513751029968,
      -0.7227943539619446,
      0.4563603699207306,
      -0.11554473638534546,
      0.4008498787879944,
      -0.03545277193188667,
      0.40698739886283875,
      -0.18404977023601532,
      -0.785885214805603,
      0.026621080935001373,
      -0.675398051738739,
      0.043809909373521805,
      -0.05321549251675606,
      0.21878132224082947,
      -0.7921858429908752,
      -1.4603720903396606,
      0.10909609496593475,
      -1.2714372873306274,
      -0.891373336315155,
      -1.0983505249023438,
      -0.29545387625694275,
      -0.09738363325595856,
      -2.140594482421875,
      1.2660843133926392,
      -0.5699070692062378,
      1.0514048337936401,
      0.9777784943580627,
      -0.5835087299346924,
      -0.09459295868873596,
      0.06409594416618347,
      -0.09074287116527557,
      0.7677954435348511,
      1.0278339385986328,
      -0.3726447522640228,
      0.4379892647266388,
      0.2701018154621124,
      0.13692951202392578,
      -0.7137740850448608,
      -0.5575644969940186,
      0.08997765183448792,
      0.14789675176143646,
      -1.1550801992416382,
      0.2110586166381836,
      -1.4592609405517578,
      -0.18365803360939026,
      -0.19901849329471588,
      -0.41177380084991455,
      -0.6655182242393494,
      -0.4442463219165802,
      -0.10398869961500168,
      0.4083269238471985,
      0.08174832910299301,
      -0.8904826641082764,
      -0.08969756960868835,
      0.18859736621379852,
      1.43064284324646,
      0.851898729801178,
      0.12928931415081024,
      -0.9677062034606934,
      0.4111051857471466,
      -0.9909771680831909,
      -1.1443592309951782,
      0.0347912572324276,
      0.3924316465854645,
      0.44529014825820923,
      -0.3326617479324341,
      1.3221756219863892,
      0.3981567621231079,
      -0.08613695204257965,
      -0.23894678056240082,
      -0.12328296154737473,
      -0.9344633221626282,
      0.08950027823448181,
      0.19455745816230774,
      -0.73739093542099,
      -0.09218470007181168,
      1.4362825155258179,
      0.5665127038955688,
      0.1194063127040863,
      -0.05296073108911514,
      -0.6599287986755371,
      0.36401668190956116,
      -0.21615122258663177,
      0.8206164240837097,
      0.2256171852350235,
      -0.6953259706497192,
      -0.6255642771720886,
      0.2892790138721466,
      0.926048994064331,
      0.711617648601532,
      0.46830475330352783,
      -0.5620027780532837,
      -0.141604483127594,
      -0.6548067331314087,
      0.11626265197992325,
      0.34248998761177063,
      -0.8917812705039978,
      1.0555164813995361,
      1.5769633054733276,
      0.10340338200330734,
      -0.10447578132152557,
      -0.6043092608451843,
      -0.9577844738960266,
      0.19791917502880096,
      -1.2789140939712524,
      0.9750937223434448,
      1.5589735507965088,
      0.758741557598114,
      1.9356192350387573,
      -0.7036370635032654,
      1.0983389616012573,
      -0.040353983640670776,
      0.9357129335403442,
      -0.36429649591445923,
      0.15854959189891815,
      -0.7340641617774963,
      -0.8982586860656738,
      0.7568812370300293,
      -1.4065227508544922,
      -0.004240136593580246,
      -0.2019849568605423,
      -0.333513468503952,
      -0.035263095051050186,
      -0.7234416604042053,
      0.06364890933036804,
      0.6938838362693787,
      -1.0748931169509888,
      -0.32223841547966003,
      0.3872663974761963,
      -0.7295717000961304,
      -0.774282693862915,
      1.0139095783233643,
      0.6362495422363281,
      1.0504156351089478,
      0.8990704417228699,
      -1.181632399559021,
      0.8014291524887085,
      -0.2672398090362549,
      -0.3119887113571167,
      -0.4008634686470032,
      -0.43668511509895325,
      -0.3495909571647644,
      -0.050917863845825195,
      -0.02557963691651821,
      -0.03820119425654411,
      -0.3952816128730774,
      -0.6866695284843445,
      0.5266336798667908,
      -0.21119701862335205,
      -0.4297315180301666,
      0.18630854785442352,
      -0.00019850765238516033,
      -0.31865641474723816,
      0.817602813243866,
      -0.13355284929275513,
      1.1187173128128052,
      0.4029926657676697,
      0.8211765289306641,
      0.3818407356739044,
      -0.143798828125,
      -0.21005529165267944,
      0.7369093298912048,
      0.574773371219635,
      -0.6053557991981506,
      1.0262982845306396,
      0.4858664572238922,
      -0.2520849406719208,
      0.3183905780315399,
      0.7406083345413208,
      0.9375173449516296,
      0.6782549023628235,
      0.01755986176431179,
      1.550163984298706,
      0.6788591742515564,
      0.5359216928482056,
      0.08614545315504074,
      1.3752657175064087,
      0.20818673074245453,
      -0.7545353770256042,
      -0.263235867023468,
      0.3926863670349121,
      -0.1370953917503357,
      1.1106841564178467,
      0.602042555809021,
      0.3055151104927063,
      -0.06149755418300629,
      -0.0566956102848053,
      0.9785327315330505,
      -0.5480229258537292,
      0.19951075315475464,
      0.42835965752601624,
      1.2015007734298706,
      0.9557877779006958,
      0.9912143349647522,
      0.9124792218208313,
      0.45597752928733826,
      0.622981071472168,
      -0.15399257838726044,
      0.08259163051843643,
      0.3171490430831909,
      0.1076844185590744,
      0.18850627541542053,
      -0.34780052304267883,
      -0.3273940682411194,
      -0.22232720255851746,
      -0.45776528120040894,
      -0.1114589050412178,
      -0.0806298479437828,
      -0.8649534583091736,
      -0.8414754867553711,
      0.7343780398368835,
      -0.5599730014801025,
      -0.04679027572274208,
      -0.13070280849933624,
      0.7264646291732788,
      0.5285013318061829,
      0.08758994936943054,
      -0.12735125422477722,
      0.3728141784667969,
      0.11300188302993774,
      0.6051405072212219,
      -0.28491848707199097,
      -0.3267136514186859,
      0.2847716212272644,
      0.2507878839969635,
      0.30618181824684143,
      0.12210123986005783,
      -0.5705614686012268,
      -0.9680610299110413,
      -0.43791791796684265,
      -0.7653675079345703,
      0.22837403416633606,
      0.3873353898525238,
      0.12406598031520844,
      0.33154869079589844,
      0.3907723128795624,
      -0.09528781473636627,
      0.8193918466567993,
      0.8711439371109009,
      0.597766637802124,
      -0.45924773812294006,
      -0.1354755312204361,
      0.6843346357345581,
      0.0994289368391037,
      -0.7181538343429565,
      0.23703472316265106,
      -0.765552818775177,
      -0.11827845126390457,
      -0.26902490854263306,
      0.3452565371990204,
      0.3562864065170288,
      0.3626512885093689,
      1.1574804782867432,
      -0.5905295610427856,
      -0.7350865602493286,
      -0.20862536132335663,
      0.8798406720161438,
      0.4062594175338745,
      -0.3851899802684784,
      0.26274573802948,
      0.3885304629802704,
      -0.24002403020858765,
      -0.52375328540802,
      0.1718938946723938,
      -0.42333877086639404,
      -0.1128925308585167,
      -0.25657838582992554,
      0.04634927585721016,
      0.03781864047050476,
      0.6296985149383545,
      -0.9141516089439392,
      0.6216281056404114,
      0.9815420508384705,
      0.7845064997673035,
      0.9503492712974548,
      0.6367523074150085,
      -0.37552544474601746,
      0.3420747220516205,
      -0.539413332939148,
      -0.048518627882003784,
      -0.8295246362686157,
      -0.2994600236415863,
      0.611930251121521,
      0.27036619186401367,
      0.35611703991889954,
      -0.5119082927703857,
      0.5111788511276245,
      -1.7240071296691895,
      0.6169539093971252,
      -0.206956684589386,
      -0.05796554312109947,
      0.362297385931015,
      0.6782345175743103,
      -1.5338813066482544,
      0.2160063534975052,
      0.13437160849571228,
      0.6165698170661926,
      -0.039144501090049744,
      -0.7856940031051636,
      -0.06880301982164383,
      0.18803717195987701,
      0.3482426404953003,
      -0.5680181980133057,
      -0.6121887564659119,
      0.3296227753162384,
      0.4496724307537079,
      -0.35930174589157104,
      -0.6073556542396545,
      0.41805917024612427,
      -0.7911379933357239,
      1.2156789302825928,
      0.4923132658004761,
      0.0690358430147171,
      0.20466725528240204,
      0.2960343360900879,
      -0.9976639151573181,
      0.6862850189208984,
      0.012078111991286278,
      -1.0192104578018188,
      -0.1692858338356018,
      -0.5987833738327026,
      -1.2494750022888184,
      -0.33826038241386414,
      0.963419497013092,
      -0.0656348243355751,
      0.12106206268072128,
      -0.10989373922348022,
      0.9117383360862732,
      0.47302839159965515,
      -0.22392292320728302,
      -0.1540435403585434,
      0.2722335159778595,
      0.13039086759090424,
      1.4874444007873535,
      0.36532482504844666,
      -0.1512414515018463,
      0.32967427372932434,
      -0.1294727623462677,
      0.7491782307624817,
      0.2332739382982254,
      -1.2408238649368286,
      -0.27354854345321655,
      0.36222219467163086,
      -0.03297736868262291,
      -1.3559446334838867,
      0.16831079125404358,
      -0.9498066902160645,
      -0.2238757163286209,
      -0.09820251911878586,
      1.3673069477081299,
      -0.4116886854171753,
      -0.7649617791175842,
      0.5957221388816833,
      -0.18006981909275055,
      -0.2097310572862625,
      0.16009929776191711,
      1.7993412017822266,
      0.8954808712005615,
      -0.03989788889884949,
      -0.31626781821250916,
      -0.29809480905532837,
      0.4030442237854004,
      0.3951961100101471,
      -0.1623484045267105,
      -0.09853645414113998,
      0.1714131236076355,
      -0.7338252663612366,
      -0.006040485110133886,
      -0.44618839025497437,
      0.8575880527496338,
      0.3925260901451111,
      -0.9163596034049988,
      0.23160257935523987,
      0.12908682227134705,
      -0.045454319566488266,
      -0.955101490020752,
      -0.6575168371200562,
      -0.34028106927871704,
      0.9158728122711182,
      -0.16097737848758698,
      -0.025405192747712135,
      0.8472840189933777,
      0.4365651607513428,
      0.46151524782180786,
      0.44825121760368347,
      1.084368109703064,
      -0.17764292657375336,
      -0.6117329597473145,
      0.6898773908615112,
      0.14594396948814392,
      0.697774350643158,
      0.14725781977176666,
      -0.6467612981796265,
      -0.005620902869850397,
      0.19761285185813904,
      -0.13726840913295746,
      -1.6811155080795288,
      0.37544411420822144,
      -1.3369104862213135,
      -0.686636209487915,
      0.7662506699562073,
      -0.7369309663772583,
      -0.30777430534362793,
      0.6792811751365662,
      0.5589904189109802,
      0.400501012802124,
      0.5547811388969421,
      0.9023936986923218,
      -0.7439786195755005,
      -0.9127526879310608,
      -0.883116602897644,
      0.0760706439614296,
      0.5648219585418701,
      0.20890089869499207,
      0.30446574091911316,
      0.10545718669891357,
      0.2533351182937622,
      -0.3433648347854614,
      -0.6521238088607788,
      -0.38353270292282104,
      0.16747519373893738,
      -1.5300495624542236,
      0.2517648935317993,
      1.2690651416778564,
      0.10330772399902344,
      2.015639543533325,
      -1.121361255645752,
      0.754908561706543,
      1.042686939239502,
      -0.5947352647781372,
      0.6445502042770386,
      -0.7250256538391113,
      0.9226599931716919,
      -0.34502407908439636,
      0.2875556945800781,
      -0.5208451747894287,
      -0.8104991912841797,
      -0.9839256405830383,
      -0.2716696858406067,
      -0.11717919260263443,
      -0.08839104324579239,
      -0.6952440142631531,
      0.021757550537586212,
      0.23649251461029053,
      -0.7258829474449158,
      -0.0022830707021057606,
      0.42357999086380005,
      -0.16750621795654297,
      0.7026114463806152,
      -0.5723843574523926,
